
\data\
ngram 1=104
ngram 2=704
ngram 3=3348

\1-grams:
-99	<s>	-3.120146
-0.9119337	</s>
-4.125664	what	-0.8392728
-5.081927	tell	-0.4712584
-5.382369	what's	-0.2969313
-5.081339	give	-0.2969313
-4.479279	time	-0.558297
-4.90564	me	-0.595605
-1.313185	the	-2.739687
-5.382369	please	-0.2969313
-3.902447	is	-1.199026
-4.784408	it	-0.3609712
-5.382369	now	-0.2969313
-5.089576	day	-0.4662091
-5.089576	date	-0.2928717
-4.23324	today	-1.171206
-1.594386	set	-2.935184
-1.919747	an	-3.454538
-0.9188972	alarm	-3.975617
-1.596116	for	-2.418028
-1.692915	one	-2.221485
-1.692915	two	-2.221485
-1.692915	three	-2.221485
-1.692915	four	-2.221485
-1.692915	five	-2.221485
-1.692915	six	-2.221485
-1.692915	seven	-2.221485
-1.692915	eight	-2.221485
-1.692915	nine	-2.221485
-1.917533	ten	-1.998598
-1.917533	eleven	-1.998598
-1.917533	twelve	-1.998598
-1.223619	o	-2.789455
-1.219954	am	-3.852293
-1.219954	pm	-3.852293
-2.688795	thirteen	-1.990833
-2.688795	fourteen	-1.990833
-2.688795	fifteen	-1.990833
-2.688795	sixteen	-1.990833
-2.688795	seventeen	-1.990833
-2.688795	eighteen	-1.990833
-2.688795	nineteen	-1.990833
-1.688795	twenty	-2.540554
-1.688795	thirty	-2.540554
-1.688795	forty	-2.540554
-1.688795	fifty	-2.540554
-5.440024	stop	-0.269333
-5.440024	snooze	-0.269333
-1.015555	cancel	-3.128381
-1.316658	at	-2.978998
-4.298342	get	-0.8421932
-4.298342	how	-1.110814
-3.809483	weather	-1.121654
-3.899208	in	-0.8432161
-4.598178	los	-0.8432161
-4.598178	seattle	-0.6004137
-4.598178	miami	-0.6004137
-4.598178	new	-0.8432161
-4.598178	london	-0.6004137
-4.598178	angeles	-0.6004137
-4.598178	york	-0.6004137
-4.300443	play	-0.4734683
-5.078594	firework	-0.4734684
-5.078594	hello	-0.4734684
-5.078594	happy	-0.4734684
-5.078594	fireflies	-0.2982932
-5.078594	rewrite	-0.4734684
-5.078594	circles	-0.2982932
-5.078594	katy	-0.4734684
-5.078594	adele	-0.2982932
-5.078594	pharrell	-0.4734684
-5.078594	perry	-0.2982932
-5.078594	williams	-0.2982932
-5.078594	stars	-0.2982932
-4.383983	on	-0.6292646
-4.601472	spot	-0.8403958
-4.601472	if	-0.8403958
-4.601472	eye	-0.8403958
-5.106048	pause	-0.2848696
-4.694797	song	-0.7618515
-5.106048	skip	-0.2848696
-5.084085	rewind	-0.2955738
-5.084085	restart	-0.2955738
-5.084085	start	-0.469831
-5.084085	over	-0.2955738
-4.080174	turn	-0.6933221
-3.754734	light	-0.8417995
-3.754734	lights	-0.8417995
-4.788545	off	-0.4662091
-5.106048	brighten	-0.4554376
-5.106048	dim	-0.4554376
-3.994837	change	-0.953429
-4.295867	make	-0.6982382
-3.994837	to	-0.9534289
-3.994837	red	-1.397062
-3.994837	green	-1.397062
-3.994837	blue	-1.397062
-3.192051	a	-2.184929
-2.88828	timer	-2.187666
-3.368142	seconds	-2.010254
-3.368142	minutes	-2.010254
-3.368142	hours	-2.010254
-5.390605	all	-0.2928717
-5.089576	timers	-0.4662091

\2-grams:
-3.214019	<s> what	-0.8392713
-4.170283	<s> tell	-0.4712584
-4.470725	<s> what's	-0.2969313
-4.169695	<s> give	-0.2969313
-4.169573	<s> time	-0.2969313
-0.682741	<s> set	-2.960931
-4.528379	<s> stop	-0.269333
-4.528379	<s> snooze	-0.269333
-0.10391	<s> cancel	-3.036005
-3.386698	<s> get	-0.8421933
-3.386698	<s> how	-1.110814
-3.388798	<s> play	-0.4734686
-4.194404	<s> pause	-0.2848696
-4.194404	<s> skip	-0.2848696
-4.17244	<s> rewind	-0.2955738
-4.17244	<s> restart	-0.2955738
-4.17244	<s> start	-0.469831
-3.16853	<s> turn	-0.6933214
-4.194404	<s> brighten	-0.4554376
-4.194404	<s> dim	-0.4554376
-3.083192	<s> change	-0.9534268
-3.384222	<s> make	-0.6982391
-1.023579	what time	-0.4716477
-0.1754904	what is	-1.171206
-1.031832	what day	-0.4662091
-0.1790499	tell me	-0.4712584
-0.2841642	what's the	-0.2969313
-0.6061867	give me	-0.2969313
-0.5651598	give the	-0.2969313
-0.3133183	time </s>
-1.043649	time please	-0.2969313
-0.7425414	time is	-0.4716478
-0.1199909	me the	-0.3927837
-3.467839	the time	-0.6923935
-3.777144	the date	-0.2928717
-0.305102	the alarm	-3.756521
-1.384087	the one	-1.285548
-1.384087	the two	-1.285548
-1.384087	the three	-1.285548
-1.384087	the four	-1.285548
-1.384087	the five	-1.285548
-1.384087	the six	-1.285548
-1.384087	the seven	-1.285548
-1.384087	the eight	-1.285548
-1.384087	the nine	-1.285548
-1.384244	the ten	-1.285506
-1.384244	the eleven	-1.285506
-1.384244	the twelve	-1.285506
-2.573916	the weather	-1.051092
-3.766162	the stars	-0.2982932
-3.382365	the song	-0.7618515
-2.687526	the light	-0.6415764
-2.687526	the lights	-0.6415764
-4.06613	the timer	-0.2928717
-0.2540826	please </s>
-0.08782883	is the	-1.142059
-0.9103279	is it	-0.3609713
-0.4742106	it </s>
-0.8463233	it now	-0.2969313
-0.854486	it today	-0.2928717
-0.2540826	now </s>
-0.1816236	day is	-0.4662091
-0.5119278	date </s>
-0.6103217	date today	-0.2928717
-0.02648562	today </s>
-2.689814	set the	-0.844314
-0.3258534	set an	-3.454538
-0.3257376	set alarm	-3.454538
-3.002926	set light	-0.397391
-3.002926	set lights	-0.397391
-1.598157	set a	-2.184929
-1.598144	set timer	-2.184929
-0.0001341323	an alarm	-3.454538
-0.3977271	alarm </s>
-0.6998602	alarm for	-2.679668
-0.3978007	alarm at	-3.406358
-1.098329	for one	-1.243916
-1.098329	for two	-1.243916
-1.098329	for three	-1.243916
-1.098329	for four	-1.243916
-1.098329	for five	-1.243916
-1.098329	for six	-1.243916
-1.098329	for seven	-1.243916
-1.098329	for eight	-1.243916
-1.098329	for nine	-1.243916
-1.0985	for ten	-1.244099
-1.0985	for eleven	-1.244099
-1.0985	for twelve	-1.244099
-3.063469	for thirteen	-0.4343227
-3.063469	for fourteen	-0.4343227
-3.063469	for fifteen	-0.4343227
-3.063469	for sixteen	-0.4343227
-3.063469	for seventeen	-0.4343227
-3.063469	for eighteen	-0.4343227
-3.063469	for nineteen	-0.4343227
-2.063469	for twenty	-0.723959
-2.063469	for thirty	-0.723959
-2.063469	for forty	-0.723959
-2.063469	for fifty	-0.723959
-2.37075	one one	-1.040894
-2.37075	one two	-1.040894
-2.37075	one three	-1.040894
-2.37075	one four	-1.040894
-2.37075	one five	-1.040894
-2.37075	one six	-1.040894
-2.37075	one seven	-1.040894
-2.37075	one eight	-1.040894
-2.37075	one nine	-1.040894
-2.375795	one ten	-1.040894
-2.375795	one eleven	-1.040894
-2.375795	one twelve	-1.040894
-0.6118624	one o	-1.717959
-0.6009695	one am	-5.026796
-0.6009695	one pm	-5.026796
-2.382063	one thirteen	-1.040898
-2.382063	one fourteen	-1.040898
-2.382063	one fifteen	-1.040898
-2.382063	one sixteen	-1.040898
-2.382063	one seventeen	-1.040898
-2.382063	one eighteen	-1.040898
-2.382063	one nineteen	-1.040898
-1.382064	one twenty	-1.282744
-1.382064	one thirty	-1.282744
-1.382064	one forty	-1.282744
-1.382064	one fifty	-1.282744
-2.749097	one seconds	-0.9819225
-2.749097	one minutes	-0.9819225
-2.749097	one hours	-0.9819225
-2.37075	two one	-1.040894
-2.37075	two two	-1.040894
-2.37075	two three	-1.040894
-2.37075	two four	-1.040894
-2.37075	two five	-1.040894
-2.37075	two six	-1.040894
-2.37075	two seven	-1.040894
-2.37075	two eight	-1.040894
-2.37075	two nine	-1.040894
-2.375795	two ten	-1.040894
-2.375795	two eleven	-1.040894
-2.375795	two twelve	-1.040894
-0.6118624	two o	-1.717959
-0.6009695	two am	-5.026796
-0.6009695	two pm	-5.026796
-2.382063	two thirteen	-1.040898
-2.382063	two fourteen	-1.040898
-2.382063	two fifteen	-1.040898
-2.382063	two sixteen	-1.040898
-2.382063	two seventeen	-1.040898
-2.382063	two eighteen	-1.040898
-2.382063	two nineteen	-1.040898
-1.382064	two twenty	-1.282744
-1.382064	two thirty	-1.282744
-1.382064	two forty	-1.282744
-1.382064	two fifty	-1.282744
-2.749097	two seconds	-0.9819225
-2.749097	two minutes	-0.9819225
-2.749097	two hours	-0.9819225
-2.37075	three one	-1.040894
-2.37075	three two	-1.040894
-2.37075	three three	-1.040894
-2.37075	three four	-1.040894
-2.37075	three five	-1.040894
-2.37075	three six	-1.040894
-2.37075	three seven	-1.040894
-2.37075	three eight	-1.040894
-2.37075	three nine	-1.040894
-2.375795	three ten	-1.040894
-2.375795	three eleven	-1.040894
-2.375795	three twelve	-1.040894
-0.6118624	three o	-1.717959
-0.6009695	three am	-5.026796
-0.6009695	three pm	-5.026796
-2.382063	three thirteen	-1.040898
-2.382063	three fourteen	-1.040898
-2.382063	three fifteen	-1.040898
-2.382063	three sixteen	-1.040898
-2.382063	three seventeen	-1.040898
-2.382063	three eighteen	-1.040898
-2.382063	three nineteen	-1.040898
-1.382064	three twenty	-1.282744
-1.382064	three thirty	-1.282744
-1.382064	three forty	-1.282744
-1.382064	three fifty	-1.282744
-2.749097	three seconds	-0.9819225
-2.749097	three minutes	-0.9819225
-2.749097	three hours	-0.9819225
-2.37075	four one	-1.040894
-2.37075	four two	-1.040894
-2.37075	four three	-1.040894
-2.37075	four four	-1.040894
-2.37075	four five	-1.040894
-2.37075	four six	-1.040894
-2.37075	four seven	-1.040894
-2.37075	four eight	-1.040894
-2.37075	four nine	-1.040894
-2.375795	four ten	-1.040894
-2.375795	four eleven	-1.040894
-2.375795	four twelve	-1.040894
-0.6118624	four o	-1.717959
-0.6009695	four am	-5.026796
-0.6009695	four pm	-5.026796
-2.382063	four thirteen	-1.040898
-2.382063	four fourteen	-1.040898
-2.382063	four fifteen	-1.040898
-2.382063	four sixteen	-1.040898
-2.382063	four seventeen	-1.040898
-2.382063	four eighteen	-1.040898
-2.382063	four nineteen	-1.040898
-1.382064	four twenty	-1.282744
-1.382064	four thirty	-1.282744
-1.382064	four forty	-1.282744
-1.382064	four fifty	-1.282744
-2.749097	four seconds	-0.9819225
-2.749097	four minutes	-0.9819225
-2.749097	four hours	-0.9819225
-2.37075	five one	-1.040894
-2.37075	five two	-1.040894
-2.37075	five three	-1.040894
-2.37075	five four	-1.040894
-2.37075	five five	-1.040894
-2.37075	five six	-1.040894
-2.37075	five seven	-1.040894
-2.37075	five eight	-1.040894
-2.37075	five nine	-1.040894
-2.375795	five ten	-1.040894
-2.375795	five eleven	-1.040894
-2.375795	five twelve	-1.040894
-0.6118624	five o	-1.717959
-0.6009695	five am	-5.026796
-0.6009695	five pm	-5.026796
-2.382063	five thirteen	-1.040898
-2.382063	five fourteen	-1.040898
-2.382063	five fifteen	-1.040898
-2.382063	five sixteen	-1.040898
-2.382063	five seventeen	-1.040898
-2.382063	five eighteen	-1.040898
-2.382063	five nineteen	-1.040898
-1.382064	five twenty	-1.282744
-1.382064	five thirty	-1.282744
-1.382064	five forty	-1.282744
-1.382064	five fifty	-1.282744
-2.749097	five seconds	-0.9819225
-2.749097	five minutes	-0.9819225
-2.749097	five hours	-0.9819225
-2.37075	six one	-1.040894
-2.37075	six two	-1.040894
-2.37075	six three	-1.040894
-2.37075	six four	-1.040894
-2.37075	six five	-1.040894
-2.37075	six six	-1.040894
-2.37075	six seven	-1.040894
-2.37075	six eight	-1.040894
-2.37075	six nine	-1.040894
-2.375795	six ten	-1.040894
-2.375795	six eleven	-1.040894
-2.375795	six twelve	-1.040894
-0.6118624	six o	-1.717959
-0.6009695	six am	-5.026796
-0.6009695	six pm	-5.026796
-2.382063	six thirteen	-1.040898
-2.382063	six fourteen	-1.040898
-2.382063	six fifteen	-1.040898
-2.382063	six sixteen	-1.040898
-2.382063	six seventeen	-1.040898
-2.382063	six eighteen	-1.040898
-2.382063	six nineteen	-1.040898
-1.382064	six twenty	-1.282744
-1.382064	six thirty	-1.282744
-1.382064	six forty	-1.282744
-1.382064	six fifty	-1.282744
-2.749097	six seconds	-0.9819225
-2.749097	six minutes	-0.9819225
-2.749097	six hours	-0.9819225
-2.37075	seven one	-1.040894
-2.37075	seven two	-1.040894
-2.37075	seven three	-1.040894
-2.37075	seven four	-1.040894
-2.37075	seven five	-1.040894
-2.37075	seven six	-1.040894
-2.37075	seven seven	-1.040894
-2.37075	seven eight	-1.040894
-2.37075	seven nine	-1.040894
-2.375795	seven ten	-1.040894
-2.375795	seven eleven	-1.040894
-2.375795	seven twelve	-1.040894
-0.6118624	seven o	-1.717959
-0.6009695	seven am	-5.026796
-0.6009695	seven pm	-5.026796
-2.382063	seven thirteen	-1.040898
-2.382063	seven fourteen	-1.040898
-2.382063	seven fifteen	-1.040898
-2.382063	seven sixteen	-1.040898
-2.382063	seven seventeen	-1.040898
-2.382063	seven eighteen	-1.040898
-2.382063	seven nineteen	-1.040898
-1.382064	seven twenty	-1.282744
-1.382064	seven thirty	-1.282744
-1.382064	seven forty	-1.282744
-1.382064	seven fifty	-1.282744
-2.749097	seven seconds	-0.9819225
-2.749097	seven minutes	-0.9819225
-2.749097	seven hours	-0.9819225
-2.37075	eight one	-1.040894
-2.37075	eight two	-1.040894
-2.37075	eight three	-1.040894
-2.37075	eight four	-1.040894
-2.37075	eight five	-1.040894
-2.37075	eight six	-1.040894
-2.37075	eight seven	-1.040894
-2.37075	eight eight	-1.040894
-2.37075	eight nine	-1.040894
-2.375795	eight ten	-1.040894
-2.375795	eight eleven	-1.040894
-2.375795	eight twelve	-1.040894
-0.6118624	eight o	-1.717959
-0.6009695	eight am	-5.026796
-0.6009695	eight pm	-5.026796
-2.382063	eight thirteen	-1.040898
-2.382063	eight fourteen	-1.040898
-2.382063	eight fifteen	-1.040898
-2.382063	eight sixteen	-1.040898
-2.382063	eight seventeen	-1.040898
-2.382063	eight eighteen	-1.040898
-2.382063	eight nineteen	-1.040898
-1.382064	eight twenty	-1.282744
-1.382064	eight thirty	-1.282744
-1.382064	eight forty	-1.282744
-1.382064	eight fifty	-1.282744
-2.749097	eight seconds	-0.9819225
-2.749097	eight minutes	-0.9819225
-2.749097	eight hours	-0.9819225
-2.37075	nine one	-1.040894
-2.37075	nine two	-1.040894
-2.37075	nine three	-1.040894
-2.37075	nine four	-1.040894
-2.37075	nine five	-1.040894
-2.37075	nine six	-1.040894
-2.37075	nine seven	-1.040894
-2.37075	nine eight	-1.040894
-2.37075	nine nine	-1.040894
-2.375795	nine ten	-1.040894
-2.375795	nine eleven	-1.040894
-2.375795	nine twelve	-1.040894
-0.6118624	nine o	-1.717959
-0.6009695	nine am	-5.026796
-0.6009695	nine pm	-5.026796
-2.382063	nine thirteen	-1.040898
-2.382063	nine fourteen	-1.040898
-2.382063	nine fifteen	-1.040898
-2.382063	nine sixteen	-1.040898
-2.382063	nine seventeen	-1.040898
-2.382063	nine eighteen	-1.040898
-2.382063	nine nineteen	-1.040898
-1.382064	nine twenty	-1.282744
-1.382064	nine thirty	-1.282744
-1.382064	nine forty	-1.282744
-1.382064	nine fifty	-1.282744
-2.749097	nine seconds	-0.9819225
-2.749097	nine minutes	-0.9819225
-2.749097	nine hours	-0.9819225
-2.147895	ten one	-1.040894
-2.147895	ten two	-1.040894
-2.147895	ten three	-1.040894
-2.147895	ten four	-1.040894
-2.147895	ten five	-1.040894
-2.147895	ten six	-1.040894
-2.147895	ten seven	-1.040894
-2.147895	ten eight	-1.040894
-2.147895	ten nine	-1.040894
-2.152941	ten ten	-1.040894
-2.152941	ten eleven	-1.040894
-2.152941	ten twelve	-1.040894
-0.3890081	ten o	-1.717959
-1.060559	ten am	-2.249941
-1.060559	ten pm	-2.249941
-2.159209	ten thirteen	-1.040898
-2.159209	ten fourteen	-1.040898
-2.159209	ten fifteen	-1.040898
-2.159209	ten sixteen	-1.040898
-2.159209	ten seventeen	-1.040898
-2.159209	ten eighteen	-1.040898
-2.159209	ten nineteen	-1.040898
-1.159209	ten twenty	-1.282744
-1.159209	ten thirty	-1.282744
-1.159209	ten forty	-1.282744
-1.159209	ten fifty	-1.282744
-3.222712	ten seconds	-0.4343228
-3.222712	ten minutes	-0.4343228
-3.222712	ten hours	-0.4343228
-2.147895	eleven one	-1.040894
-2.147895	eleven two	-1.040894
-2.147895	eleven three	-1.040894
-2.147895	eleven four	-1.040894
-2.147895	eleven five	-1.040894
-2.147895	eleven six	-1.040894
-2.147895	eleven seven	-1.040894
-2.147895	eleven eight	-1.040894
-2.147895	eleven nine	-1.040894
-2.152941	eleven ten	-1.040894
-2.152941	eleven eleven	-1.040894
-2.152941	eleven twelve	-1.040894
-0.3890081	eleven o	-1.717959
-1.060559	eleven am	-2.249941
-1.060559	eleven pm	-2.249941
-2.159209	eleven thirteen	-1.040898
-2.159209	eleven fourteen	-1.040898
-2.159209	eleven fifteen	-1.040898
-2.159209	eleven sixteen	-1.040898
-2.159209	eleven seventeen	-1.040898
-2.159209	eleven eighteen	-1.040898
-2.159209	eleven nineteen	-1.040898
-1.159209	eleven twenty	-1.282744
-1.159209	eleven thirty	-1.282744
-1.159209	eleven forty	-1.282744
-1.159209	eleven fifty	-1.282744
-3.222712	eleven seconds	-0.4343228
-3.222712	eleven minutes	-0.4343228
-3.222712	eleven hours	-0.4343228
-2.147895	twelve one	-1.040894
-2.147895	twelve two	-1.040894
-2.147895	twelve three	-1.040894
-2.147895	twelve four	-1.040894
-2.147895	twelve five	-1.040894
-2.147895	twelve six	-1.040894
-2.147895	twelve seven	-1.040894
-2.147895	twelve eight	-1.040894
-2.147895	twelve nine	-1.040894
-2.152941	twelve ten	-1.040894
-2.152941	twelve eleven	-1.040894
-2.152941	twelve twelve	-1.040894
-0.3890081	twelve o	-1.717959
-1.060559	twelve am	-2.249941
-1.060559	twelve pm	-2.249941
-2.159209	twelve thirteen	-1.040898
-2.159209	twelve fourteen	-1.040898
-2.159209	twelve fifteen	-1.040898
-2.159209	twelve sixteen	-1.040898
-2.159209	twelve seventeen	-1.040898
-2.159209	twelve eighteen	-1.040898
-2.159209	twelve nineteen	-1.040898
-1.159209	twelve twenty	-1.282744
-1.159209	twelve thirty	-1.282744
-1.159209	twelve forty	-1.282744
-1.159209	twelve fifty	-1.282744
-3.222712	twelve seconds	-0.4343228
-3.222712	twelve minutes	-0.4343228
-3.222712	twelve hours	-0.4343228
-1.770714	o one	-2.082241
-1.770714	o two	-2.082241
-1.770714	o three	-2.082241
-1.770714	o four	-2.082241
-1.770714	o five	-2.082241
-1.770714	o six	-2.082241
-1.770714	o seven	-2.082241
-1.770714	o eight	-2.082241
-1.770714	o nine	-2.082241
-1.771054	o ten	-2.082239
-1.771054	o eleven	-2.082239
-1.771054	o twelve	-2.082239
-1.771472	o thirteen	-2.08227
-1.771472	o fourteen	-2.08227
-1.771472	o fifteen	-2.08227
-1.771472	o sixteen	-2.08227
-1.771472	o seventeen	-2.08227
-1.771472	o eighteen	-2.08227
-1.771472	o nineteen	-2.08227
-0.7714725	o twenty	-2.339197
-0.7714725	o thirty	-2.339197
-0.7714725	o forty	-2.339197
-0.7714725	o fifty	-2.339197
-0.2220345	am </s>
-0.3977769	am alarm	-3.756521
-0.2220345	pm </s>
-0.3977769	pm alarm	-3.756521
-0.3095883	thirteen am	-2.208691
-0.3095883	thirteen pm	-2.208691
-2.454116	thirteen seconds	-0.4343228
-2.454116	thirteen minutes	-0.4343228
-2.454116	thirteen hours	-0.4343228
-0.3095883	fourteen am	-2.208691
-0.3095883	fourteen pm	-2.208691
-2.454116	fourteen seconds	-0.4343228
-2.454116	fourteen minutes	-0.4343228
-2.454116	fourteen hours	-0.4343228
-0.3095883	fifteen am	-2.208691
-0.3095883	fifteen pm	-2.208691
-2.454116	fifteen seconds	-0.4343228
-2.454116	fifteen minutes	-0.4343228
-2.454116	fifteen hours	-0.4343228
-0.3095883	sixteen am	-2.208691
-0.3095883	sixteen pm	-2.208691
-2.454116	sixteen seconds	-0.4343228
-2.454116	sixteen minutes	-0.4343228
-2.454116	sixteen hours	-0.4343228
-0.3095883	seventeen am	-2.208691
-0.3095883	seventeen pm	-2.208691
-2.454116	seventeen seconds	-0.4343228
-2.454116	seventeen minutes	-0.4343228
-2.454116	seventeen hours	-0.4343228
-0.3095883	eighteen am	-2.208691
-0.3095883	eighteen pm	-2.208691
-2.454116	eighteen seconds	-0.4343228
-2.454116	eighteen minutes	-0.4343228
-2.454116	eighteen hours	-0.4343228
-0.3095883	nineteen am	-2.208691
-0.3095883	nineteen pm	-2.208691
-2.454116	nineteen seconds	-0.4343228
-2.454116	nineteen minutes	-0.4343228
-2.454116	nineteen hours	-0.4343228
-1.000998	twenty one	-1.990835
-1.000998	twenty two	-1.990835
-1.000998	twenty three	-1.990835
-1.000998	twenty four	-1.990835
-1.000998	twenty five	-1.990835
-1.000998	twenty six	-1.990835
-1.000998	twenty seven	-1.990835
-1.000998	twenty eight	-1.990835
-1.000998	twenty nine	-1.990835
-1.305402	twenty am	-2.208691
-1.305402	twenty pm	-2.208691
-3.449938	twenty seconds	-0.4343228
-3.449938	twenty minutes	-0.4343228
-3.449938	twenty hours	-0.4343228
-1.000998	thirty one	-1.990835
-1.000998	thirty two	-1.990835
-1.000998	thirty three	-1.990835
-1.000998	thirty four	-1.990835
-1.000998	thirty five	-1.990835
-1.000998	thirty six	-1.990835
-1.000998	thirty seven	-1.990835
-1.000998	thirty eight	-1.990835
-1.000998	thirty nine	-1.990835
-1.305402	thirty am	-2.208691
-1.305402	thirty pm	-2.208691
-3.449938	thirty seconds	-0.4343228
-3.449938	thirty minutes	-0.4343228
-3.449938	thirty hours	-0.4343228
-1.000998	forty one	-1.990835
-1.000998	forty two	-1.990835
-1.000998	forty three	-1.990835
-1.000998	forty four	-1.990835
-1.000998	forty five	-1.990835
-1.000998	forty six	-1.990835
-1.000998	forty seven	-1.990835
-1.000998	forty eight	-1.990835
-1.000998	forty nine	-1.990835
-1.305402	forty am	-2.208691
-1.305402	forty pm	-2.208691
-3.449938	forty seconds	-0.4343228
-3.449938	forty minutes	-0.4343228
-3.449938	forty hours	-0.4343228
-1.000998	fifty one	-1.990835
-1.000998	fifty two	-1.990835
-1.000998	fifty three	-1.990835
-1.000998	fifty four	-1.990835
-1.000998	fifty five	-1.990835
-1.000998	fifty six	-1.990835
-1.000998	fifty seven	-1.990835
-1.000998	fifty eight	-1.990835
-1.000998	fifty nine	-1.990835
-1.305402	fifty am	-2.208691
-1.305402	fifty pm	-2.208691
-3.449938	fifty seconds	-0.4343228
-3.449938	fifty minutes	-0.4343228
-3.449938	fifty hours	-0.4343228
-0.2782126	stop alarm	-0.269333
-0.2782126	snooze alarm	-0.269333
-0.3013584	cancel the	-2.909918
-0.6023006	cancel alarm	-3.756521
-1.681323	cancel one	-1.285548
-1.681323	cancel two	-1.285548
-1.681323	cancel three	-1.285548
-1.681323	cancel four	-1.285548
-1.681323	cancel five	-1.285548
-1.681323	cancel six	-1.285548
-1.681323	cancel seven	-1.285548
-1.681323	cancel eight	-1.285548
-1.681323	cancel nine	-1.285548
-1.68145	cancel ten	-1.285506
-1.68145	cancel eleven	-1.285506
-1.68145	cancel twelve	-1.285506
-4.365568	cancel timer	-0.2928717
-4.375343	cancel all	-0.2928717
-4.375312	cancel timers	-0.2928717
-1.079526	at one	-1.574512
-1.079526	at two	-1.574512
-1.079526	at three	-1.574512
-1.079526	at four	-1.574512
-1.079526	at five	-1.574512
-1.079526	at six	-1.574512
-1.079526	at seven	-1.574512
-1.079526	at eight	-1.574512
-1.079526	at nine	-1.574512
-1.079571	at ten	-1.574482
-1.079571	at eleven	-1.574482
-1.079571	at twelve	-1.574482
-0.3614265	get the	-0.8421932
-0.3684402	get weather	-0.5995198
-0.03501932	how is	-1.110814
-0.8777697	weather </s>
-1.307119	weather today	-0.4708687
-0.1238445	weather in	-0.843216
-0.7662221	in los	-0.8432161
-0.7662221	in seattle	-0.6004138
-0.7662221	in miami	-0.6004138
-0.7662221	in new	-0.8432161
-0.7662221	in london	-0.6004138
-0.0672594	los angeles	-0.6004138
-0.2756394	seattle </s>
-0.6025846	seattle today	-0.4756582
-0.2756394	miami </s>
-0.6025846	miami today	-0.4756582
-0.0672594	new york	-0.6004138
-0.2756394	london </s>
-0.6025846	london today	-0.4756582
-0.2756394	angeles </s>
-0.6025846	angeles today	-0.4756582
-0.2756394	york </s>
-0.6025846	york today	-0.4756582
-0.9560696	play firework	-0.4734684
-0.9560696	play hello	-0.4734684
-0.9560696	play happy	-0.4734684
-0.9560696	play fireflies	-0.2982932
-0.9560696	play rewrite	-0.4734684
-0.9560696	play circles	-0.2982932
-0.1779274	firework katy	-0.4734684
-0.1779274	hello adele	-0.2982932
-0.1779274	happy pharrell	-0.4734684
-0.5085726	fireflies </s>
-0.6047778	fireflies on	-0.2982932
-0.1673667	rewrite the	-0.4734684
-0.5085726	circles </s>
-0.6047778	circles on	-0.2982932
-0.1779274	katy perry	-0.2982932
-0.5085726	adele </s>
-0.6047778	adele on	-0.2982932
-0.1779274	pharrell williams	-0.2982932
-0.5085726	perry </s>
-0.6047778	perry on	-0.2982932
-0.5085726	williams </s>
-0.6047778	williams on	-0.2982932
-0.5085726	stars </s>
-0.6047778	stars on	-0.2982932
-0.7459817	on </s>
-0.7901177	on the	-0.2928718
-0.3337202	on spot	-0.8403958
-0.06773363	spot if	-0.8403958
-0.06773363	if eye	-0.8403958
-0.05884879	eye </s>
-0.5170065	pause </s>
-0.5755206	pause the	-0.2848696
-0.07152565	song </s>
-0.5170065	skip </s>
-0.5755206	skip the	-0.2848696
-0.5102471	rewind </s>
-0.5662994	rewind the	-0.2955738
-0.5102471	restart </s>
-0.5662994	restart the	-0.2955738
-0.179781	start over	-0.2955738
-0.5102471	over </s>
-0.5662994	over the	-0.2955738
-0.388763	turn the	-0.7722666
-1.107688	turn on	-0.4662091
-0.9159584	turn light	-0.3005727
-0.9159584	turn lights	-0.3005727
-1.107716	turn off	-0.4662092
-1.020678	light </s>
-1.70324	light on	-0.2928717
-1.703319	light off	-0.2928717
-0.6086056	light to	-0.698239
-0.784684	light red	-0.9534292
-0.784684	light green	-0.9534292
-0.784684	light blue	-0.9534292
-1.020678	lights </s>
-1.70324	lights on	-0.2928717
-1.703319	lights off	-0.2928717
-0.6086056	lights to	-0.698239
-0.784684	lights red	-0.9534292
-0.784684	lights green	-0.9534292
-0.784684	lights blue	-0.9534292
-0.4306751	off </s>
-0.461286	off the	-0.2928718
-0.1761101	brighten the	-0.2848696
-0.1761101	dim the	-0.2848696
-0.3470263	change the	-0.844314
-0.6532761	change light	-0.397391
-0.6532761	change lights	-0.397391
-0.38767	make the	-0.6013738
-0.6990766	make light	-0.3005727
-0.6990766	make lights	-0.3005727
-0.5283591	to red	-0.9534292
-0.5283591	to green	-0.9534292
-0.5283591	to blue	-0.9534292
-0.01555004	red </s>
-0.01555004	green </s>
-0.01555004	blue </s>
-0.00284259	a timer	-2.184929
-2.152117	timer </s>
-0.005496667	timer for	-1.153374
-0.003738138	seconds </s>
-0.003738138	minutes </s>
-0.003738138	hours </s>
-0.3093408	all timers	-0.2928717
-0.1548704	timers </s>

\3-grams:
-0.9648736	<s> what time
-0.1167763	<s> what is
-0.9731122	<s> what day
-0.05264006	<s> tell me
-0.1205468	<s> what's the
-0.4287322	<s> give me
-0.4145338	<s> give the
-0.307189	<s> time </s>
-0.5327216	<s> time please
-2.701468	<s> set the
-0.3253623	<s> set an
-0.3253622	<s> set alarm
-3.002512	<s> set light
-3.002512	<s> set lights
-1.597666	<s> set a
-1.597666	<s> set timer
-0.1275067	<s> stop alarm
-0.1275067	<s> snooze alarm
-0.3010669	<s> cancel the
-0.6021334	<s> cancel alarm
-1.681315	<s> cancel one
-1.681315	<s> cancel two
-1.681315	<s> cancel three
-1.681315	<s> cancel four
-1.681315	<s> cancel five
-1.681315	<s> cancel six
-1.681315	<s> cancel seven
-1.681315	<s> cancel eight
-1.681315	<s> cancel nine
-1.681315	<s> cancel ten
-1.681315	<s> cancel eleven
-1.681315	<s> cancel twelve
-4.375044	<s> cancel timer
-4.375051	<s> cancel all
-4.375051	<s> cancel timers
-0.3092157	<s> get the
-0.3101039	<s> get weather
-0.002614617	<s> how is
-0.8302229	<s> play firework
-0.8302229	<s> play hello
-0.8302229	<s> play happy
-0.8302229	<s> play fireflies
-0.8302229	<s> play rewrite
-0.8302229	<s> play circles
-0.3997589	<s> pause </s>
-0.4220069	<s> pause the
-0.3997589	<s> skip </s>
-0.4220069	<s> skip the
-0.3944595	<s> rewind </s>
-0.4153481	<s> rewind the
-0.3944595	<s> restart </s>
-0.4153481	<s> restart the
-0.05300953	<s> start over
-0.3174316	<s> turn the
-1.027599	<s> turn on
-0.8359369	<s> turn light
-0.8359369	<s> turn lights
-1.027604	<s> turn off
-0.05394568	<s> brighten the
-0.05394568	<s> dim the
-0.3059158	<s> change the
-0.6074716	<s> change light
-0.6074716	<s> change lights
-0.3170576	<s> make the
-0.619837	<s> make light
-0.619837	<s> make lights
-0.1405575	what time is
-0.005394491	what is the
-0.05395211	what day is
-0.0369504	tell me the
-0.305017	what's the time
-0.05643021	give me the
-0.305017	give the time
-0.1098921	time please </s>
-0.1524664	time is it
-0.4008693	me the time
-0.7008655	me the weather
-0.04786566	the time </s>
-0.3957666	the date </s>
-0.4315289	the date today
-4.563987e-05	the alarm at
-2.086794	the one one
-2.086794	the one two
-2.086794	the one three
-2.086794	the one four
-2.086794	the one five
-2.086794	the one six
-2.086794	the one seven
-2.086794	the one eight
-2.086794	the one nine
-2.08693	the one ten
-2.08693	the one eleven
-2.08693	the one twelve
-0.3162605	the one o
-1.770206	the one am
-1.770206	the one pm
-2.087096	the one thirteen
-2.087096	the one fourteen
-2.087096	the one fifteen
-2.087096	the one sixteen
-2.087096	the one seventeen
-2.087096	the one eighteen
-2.087096	the one nineteen
-1.087096	the one twenty
-1.087096	the one thirty
-1.087096	the one forty
-1.087096	the one fifty
-2.086794	the two one
-2.086794	the two two
-2.086794	the two three
-2.086794	the two four
-2.086794	the two five
-2.086794	the two six
-2.086794	the two seven
-2.086794	the two eight
-2.086794	the two nine
-2.08693	the two ten
-2.08693	the two eleven
-2.08693	the two twelve
-0.3162605	the two o
-1.770206	the two am
-1.770206	the two pm
-2.087096	the two thirteen
-2.087096	the two fourteen
-2.087096	the two fifteen
-2.087096	the two sixteen
-2.087096	the two seventeen
-2.087096	the two eighteen
-2.087096	the two nineteen
-1.087096	the two twenty
-1.087096	the two thirty
-1.087096	the two forty
-1.087096	the two fifty
-2.086794	the three one
-2.086794	the three two
-2.086794	the three three
-2.086794	the three four
-2.086794	the three five
-2.086794	the three six
-2.086794	the three seven
-2.086794	the three eight
-2.086794	the three nine
-2.08693	the three ten
-2.08693	the three eleven
-2.08693	the three twelve
-0.3162605	the three o
-1.770206	the three am
-1.770206	the three pm
-2.087096	the three thirteen
-2.087096	the three fourteen
-2.087096	the three fifteen
-2.087096	the three sixteen
-2.087096	the three seventeen
-2.087096	the three eighteen
-2.087096	the three nineteen
-1.087096	the three twenty
-1.087096	the three thirty
-1.087096	the three forty
-1.087096	the three fifty
-2.086794	the four one
-2.086794	the four two
-2.086794	the four three
-2.086794	the four four
-2.086794	the four five
-2.086794	the four six
-2.086794	the four seven
-2.086794	the four eight
-2.086794	the four nine
-2.08693	the four ten
-2.08693	the four eleven
-2.08693	the four twelve
-0.3162605	the four o
-1.770206	the four am
-1.770206	the four pm
-2.087096	the four thirteen
-2.087096	the four fourteen
-2.087096	the four fifteen
-2.087096	the four sixteen
-2.087096	the four seventeen
-2.087096	the four eighteen
-2.087096	the four nineteen
-1.087096	the four twenty
-1.087096	the four thirty
-1.087096	the four forty
-1.087096	the four fifty
-2.086794	the five one
-2.086794	the five two
-2.086794	the five three
-2.086794	the five four
-2.086794	the five five
-2.086794	the five six
-2.086794	the five seven
-2.086794	the five eight
-2.086794	the five nine
-2.08693	the five ten
-2.08693	the five eleven
-2.08693	the five twelve
-0.3162605	the five o
-1.770206	the five am
-1.770206	the five pm
-2.087096	the five thirteen
-2.087096	the five fourteen
-2.087096	the five fifteen
-2.087096	the five sixteen
-2.087096	the five seventeen
-2.087096	the five eighteen
-2.087096	the five nineteen
-1.087096	the five twenty
-1.087096	the five thirty
-1.087096	the five forty
-1.087096	the five fifty
-2.086794	the six one
-2.086794	the six two
-2.086794	the six three
-2.086794	the six four
-2.086794	the six five
-2.086794	the six six
-2.086794	the six seven
-2.086794	the six eight
-2.086794	the six nine
-2.08693	the six ten
-2.08693	the six eleven
-2.08693	the six twelve
-0.3162605	the six o
-1.770206	the six am
-1.770206	the six pm
-2.087096	the six thirteen
-2.087096	the six fourteen
-2.087096	the six fifteen
-2.087096	the six sixteen
-2.087096	the six seventeen
-2.087096	the six eighteen
-2.087096	the six nineteen
-1.087096	the six twenty
-1.087096	the six thirty
-1.087096	the six forty
-1.087096	the six fifty
-2.086794	the seven one
-2.086794	the seven two
-2.086794	the seven three
-2.086794	the seven four
-2.086794	the seven five
-2.086794	the seven six
-2.086794	the seven seven
-2.086794	the seven eight
-2.086794	the seven nine
-2.08693	the seven ten
-2.08693	the seven eleven
-2.08693	the seven twelve
-0.3162605	the seven o
-1.770206	the seven am
-1.770206	the seven pm
-2.087096	the seven thirteen
-2.087096	the seven fourteen
-2.087096	the seven fifteen
-2.087096	the seven sixteen
-2.087096	the seven seventeen
-2.087096	the seven eighteen
-2.087096	the seven nineteen
-1.087096	the seven twenty
-1.087096	the seven thirty
-1.087096	the seven forty
-1.087096	the seven fifty
-2.086794	the eight one
-2.086794	the eight two
-2.086794	the eight three
-2.086794	the eight four
-2.086794	the eight five
-2.086794	the eight six
-2.086794	the eight seven
-2.086794	the eight eight
-2.086794	the eight nine
-2.08693	the eight ten
-2.08693	the eight eleven
-2.08693	the eight twelve
-0.3162605	the eight o
-1.770206	the eight am
-1.770206	the eight pm
-2.087096	the eight thirteen
-2.087096	the eight fourteen
-2.087096	the eight fifteen
-2.087096	the eight sixteen
-2.087096	the eight seventeen
-2.087096	the eight eighteen
-2.087096	the eight nineteen
-1.087096	the eight twenty
-1.087096	the eight thirty
-1.087096	the eight forty
-1.087096	the eight fifty
-2.086794	the nine one
-2.086794	the nine two
-2.086794	the nine three
-2.086794	the nine four
-2.086794	the nine five
-2.086794	the nine six
-2.086794	the nine seven
-2.086794	the nine eight
-2.086794	the nine nine
-2.08693	the nine ten
-2.08693	the nine eleven
-2.08693	the nine twelve
-0.3162605	the nine o
-1.770206	the nine am
-1.770206	the nine pm
-2.087096	the nine thirteen
-2.087096	the nine fourteen
-2.087096	the nine fifteen
-2.087096	the nine sixteen
-2.087096	the nine seventeen
-2.087096	the nine eighteen
-2.087096	the nine nineteen
-1.087096	the nine twenty
-1.087096	the nine thirty
-1.087096	the nine forty
-1.087096	the nine fifty
-2.079015	the ten one
-2.079015	the ten two
-2.079015	the ten three
-2.079015	the ten four
-2.079015	the ten five
-2.079015	the ten six
-2.079015	the ten seven
-2.079015	the ten eight
-2.079015	the ten nine
-2.079237	the ten ten
-2.079237	the ten eleven
-2.079237	the ten twelve
-0.3086852	the ten o
-2.070967	the ten am
-2.070967	the ten pm
-2.079509	the ten thirteen
-2.079509	the ten fourteen
-2.079509	the ten fifteen
-2.079509	the ten sixteen
-2.079509	the ten seventeen
-2.079509	the ten eighteen
-2.079509	the ten nineteen
-1.079509	the ten twenty
-1.079509	the ten thirty
-1.079509	the ten forty
-1.079509	the ten fifty
-2.079015	the eleven one
-2.079015	the eleven two
-2.079015	the eleven three
-2.079015	the eleven four
-2.079015	the eleven five
-2.079015	the eleven six
-2.079015	the eleven seven
-2.079015	the eleven eight
-2.079015	the eleven nine
-2.079237	the eleven ten
-2.079237	the eleven eleven
-2.079237	the eleven twelve
-0.3086852	the eleven o
-2.070967	the eleven am
-2.070967	the eleven pm
-2.079509	the eleven thirteen
-2.079509	the eleven fourteen
-2.079509	the eleven fifteen
-2.079509	the eleven sixteen
-2.079509	the eleven seventeen
-2.079509	the eleven eighteen
-2.079509	the eleven nineteen
-1.079509	the eleven twenty
-1.079509	the eleven thirty
-1.079509	the eleven forty
-1.079509	the eleven fifty
-2.079015	the twelve one
-2.079015	the twelve two
-2.079015	the twelve three
-2.079015	the twelve four
-2.079015	the twelve five
-2.079015	the twelve six
-2.079015	the twelve seven
-2.079015	the twelve eight
-2.079015	the twelve nine
-2.079237	the twelve ten
-2.079237	the twelve eleven
-2.079237	the twelve twelve
-0.3086852	the twelve o
-2.070967	the twelve am
-2.070967	the twelve pm
-2.079509	the twelve thirteen
-2.079509	the twelve fourteen
-2.079509	the twelve fifteen
-2.079509	the twelve sixteen
-2.079509	the twelve seventeen
-2.079509	the twelve eighteen
-2.079509	the twelve nineteen
-1.079509	the twelve twenty
-1.079509	the twelve thirty
-1.079509	the twelve forty
-1.079509	the twelve fifty
-0.893559	the weather </s>
-1.204954	the weather today
-0.09476973	the weather in
-0.3931641	the stars </s>
-0.4277965	the stars on
-0.01156398	the song </s>
-0.838615	the light </s>
-1.444724	the light on
-1.444734	the light off
-0.5995515	the light to
-0.7756399	the light red
-0.7756399	the light green
-0.7756399	the light blue
-0.838615	the lights </s>
-1.444724	the lights on
-1.444734	the lights off
-0.5995515	the lights to
-0.7756399	the lights red
-0.7756399	the lights green
-0.7756399	the lights blue
-0.3061781	the timer </s>
-1.158457	is the date
-0.06617166	is the weather
-0.3681646	is it </s>
-0.6893115	is it now
-0.6975256	is it today
-0.1098921	it now </s>
-0.01329205	it today </s>
-0.1547742	day is it
-0.01329205	date today </s>
-0.3678098	set the light
-0.3678098	set the lights
-4.708995e-08	set an alarm
-0.000122073	set alarm for
-0.3997071	set light to
-0.7807559	set light red
-0.7807559	set light green
-0.7807559	set light blue
-0.3997071	set lights to
-0.7807559	set lights red
-0.7807559	set lights green
-0.7807559	set lights blue
-1.850863e-05	set a timer
-3.568151e-05	set timer for
-0.000122073	an alarm for
-1.07922	alarm for one
-1.07922	alarm for two
-1.07922	alarm for three
-1.07922	alarm for four
-1.07922	alarm for five
-1.07922	alarm for six
-1.07922	alarm for seven
-1.07922	alarm for eight
-1.07922	alarm for nine
-1.079221	alarm for ten
-1.079221	alarm for eleven
-1.079221	alarm for twelve
-1.079181	alarm at one
-1.079181	alarm at two
-1.079181	alarm at three
-1.079181	alarm at four
-1.079181	alarm at five
-1.079181	alarm at six
-1.079181	alarm at seven
-1.079181	alarm at eight
-1.079181	alarm at nine
-1.079181	alarm at ten
-1.079181	alarm at eleven
-1.079181	alarm at twelve
-2.092488	for one one
-2.092488	for one two
-2.092488	for one three
-2.092488	for one four
-2.092488	for one five
-2.092488	for one six
-2.092488	for one seven
-2.092488	for one eight
-2.092488	for one nine
-2.092639	for one ten
-2.092639	for one eleven
-2.092639	for one twelve
-0.3219905	for one o
-1.739721	for one am
-1.739721	for one pm
-2.092824	for one thirteen
-2.092824	for one fourteen
-2.092824	for one fifteen
-2.092824	for one sixteen
-2.092824	for one seventeen
-2.092824	for one eighteen
-2.092824	for one nineteen
-1.092824	for one twenty
-1.092824	for one thirty
-1.092824	for one forty
-1.092824	for one fifty
-2.458415	for one seconds
-2.458415	for one minutes
-2.458415	for one hours
-2.092488	for two one
-2.092488	for two two
-2.092488	for two three
-2.092488	for two four
-2.092488	for two five
-2.092488	for two six
-2.092488	for two seven
-2.092488	for two eight
-2.092488	for two nine
-2.092639	for two ten
-2.092639	for two eleven
-2.092639	for two twelve
-0.3219905	for two o
-1.739721	for two am
-1.739721	for two pm
-2.092824	for two thirteen
-2.092824	for two fourteen
-2.092824	for two fifteen
-2.092824	for two sixteen
-2.092824	for two seventeen
-2.092824	for two eighteen
-2.092824	for two nineteen
-1.092824	for two twenty
-1.092824	for two thirty
-1.092824	for two forty
-1.092824	for two fifty
-2.458415	for two seconds
-2.458415	for two minutes
-2.458415	for two hours
-2.092488	for three one
-2.092488	for three two
-2.092488	for three three
-2.092488	for three four
-2.092488	for three five
-2.092488	for three six
-2.092488	for three seven
-2.092488	for three eight
-2.092488	for three nine
-2.092639	for three ten
-2.092639	for three eleven
-2.092639	for three twelve
-0.3219905	for three o
-1.739721	for three am
-1.739721	for three pm
-2.092824	for three thirteen
-2.092824	for three fourteen
-2.092824	for three fifteen
-2.092824	for three sixteen
-2.092824	for three seventeen
-2.092824	for three eighteen
-2.092824	for three nineteen
-1.092824	for three twenty
-1.092824	for three thirty
-1.092824	for three forty
-1.092824	for three fifty
-2.458415	for three seconds
-2.458415	for three minutes
-2.458415	for three hours
-2.092488	for four one
-2.092488	for four two
-2.092488	for four three
-2.092488	for four four
-2.092488	for four five
-2.092488	for four six
-2.092488	for four seven
-2.092488	for four eight
-2.092488	for four nine
-2.092639	for four ten
-2.092639	for four eleven
-2.092639	for four twelve
-0.3219905	for four o
-1.739721	for four am
-1.739721	for four pm
-2.092824	for four thirteen
-2.092824	for four fourteen
-2.092824	for four fifteen
-2.092824	for four sixteen
-2.092824	for four seventeen
-2.092824	for four eighteen
-2.092824	for four nineteen
-1.092824	for four twenty
-1.092824	for four thirty
-1.092824	for four forty
-1.092824	for four fifty
-2.458415	for four seconds
-2.458415	for four minutes
-2.458415	for four hours
-2.092488	for five one
-2.092488	for five two
-2.092488	for five three
-2.092488	for five four
-2.092488	for five five
-2.092488	for five six
-2.092488	for five seven
-2.092488	for five eight
-2.092488	for five nine
-2.092639	for five ten
-2.092639	for five eleven
-2.092639	for five twelve
-0.3219905	for five o
-1.739721	for five am
-1.739721	for five pm
-2.092824	for five thirteen
-2.092824	for five fourteen
-2.092824	for five fifteen
-2.092824	for five sixteen
-2.092824	for five seventeen
-2.092824	for five eighteen
-2.092824	for five nineteen
-1.092824	for five twenty
-1.092824	for five thirty
-1.092824	for five forty
-1.092824	for five fifty
-2.458415	for five seconds
-2.458415	for five minutes
-2.458415	for five hours
-2.092488	for six one
-2.092488	for six two
-2.092488	for six three
-2.092488	for six four
-2.092488	for six five
-2.092488	for six six
-2.092488	for six seven
-2.092488	for six eight
-2.092488	for six nine
-2.092639	for six ten
-2.092639	for six eleven
-2.092639	for six twelve
-0.3219905	for six o
-1.739721	for six am
-1.739721	for six pm
-2.092824	for six thirteen
-2.092824	for six fourteen
-2.092824	for six fifteen
-2.092824	for six sixteen
-2.092824	for six seventeen
-2.092824	for six eighteen
-2.092824	for six nineteen
-1.092824	for six twenty
-1.092824	for six thirty
-1.092824	for six forty
-1.092824	for six fifty
-2.458415	for six seconds
-2.458415	for six minutes
-2.458415	for six hours
-2.092488	for seven one
-2.092488	for seven two
-2.092488	for seven three
-2.092488	for seven four
-2.092488	for seven five
-2.092488	for seven six
-2.092488	for seven seven
-2.092488	for seven eight
-2.092488	for seven nine
-2.092639	for seven ten
-2.092639	for seven eleven
-2.092639	for seven twelve
-0.3219905	for seven o
-1.739721	for seven am
-1.739721	for seven pm
-2.092824	for seven thirteen
-2.092824	for seven fourteen
-2.092824	for seven fifteen
-2.092824	for seven sixteen
-2.092824	for seven seventeen
-2.092824	for seven eighteen
-2.092824	for seven nineteen
-1.092824	for seven twenty
-1.092824	for seven thirty
-1.092824	for seven forty
-1.092824	for seven fifty
-2.458415	for seven seconds
-2.458415	for seven minutes
-2.458415	for seven hours
-2.092488	for eight one
-2.092488	for eight two
-2.092488	for eight three
-2.092488	for eight four
-2.092488	for eight five
-2.092488	for eight six
-2.092488	for eight seven
-2.092488	for eight eight
-2.092488	for eight nine
-2.092639	for eight ten
-2.092639	for eight eleven
-2.092639	for eight twelve
-0.3219905	for eight o
-1.739721	for eight am
-1.739721	for eight pm
-2.092824	for eight thirteen
-2.092824	for eight fourteen
-2.092824	for eight fifteen
-2.092824	for eight sixteen
-2.092824	for eight seventeen
-2.092824	for eight eighteen
-2.092824	for eight nineteen
-1.092824	for eight twenty
-1.092824	for eight thirty
-1.092824	for eight forty
-1.092824	for eight fifty
-2.458415	for eight seconds
-2.458415	for eight minutes
-2.458415	for eight hours
-2.092488	for nine one
-2.092488	for nine two
-2.092488	for nine three
-2.092488	for nine four
-2.092488	for nine five
-2.092488	for nine six
-2.092488	for nine seven
-2.092488	for nine eight
-2.092488	for nine nine
-2.092639	for nine ten
-2.092639	for nine eleven
-2.092639	for nine twelve
-0.3219905	for nine o
-1.739721	for nine am
-1.739721	for nine pm
-2.092824	for nine thirteen
-2.092824	for nine fourteen
-2.092824	for nine fifteen
-2.092824	for nine sixteen
-2.092824	for nine seventeen
-2.092824	for nine eighteen
-2.092824	for nine nineteen
-1.092824	for nine twenty
-1.092824	for nine thirty
-1.092824	for nine forty
-1.092824	for nine fifty
-2.458415	for nine seconds
-2.458415	for nine minutes
-2.458415	for nine hours
-2.083827	for ten one
-2.083827	for ten two
-2.083827	for ten three
-2.083827	for ten four
-2.083827	for ten five
-2.083827	for ten six
-2.083827	for ten seven
-2.083827	for ten eight
-2.083827	for ten nine
-2.084074	for ten ten
-2.084074	for ten eleven
-2.084074	for ten twelve
-0.3135556	for ten o
-2.051645	for ten am
-2.051645	for ten pm
-2.084376	for ten thirteen
-2.084376	for ten fourteen
-2.084376	for ten fifteen
-2.084376	for ten sixteen
-2.084376	for ten seventeen
-2.084376	for ten eighteen
-2.084376	for ten nineteen
-1.084376	for ten twenty
-1.084376	for ten thirty
-1.084376	for ten forty
-1.084376	for ten fifty
-2.466916	for ten seconds
-2.466916	for ten minutes
-2.466916	for ten hours
-2.083827	for eleven one
-2.083827	for eleven two
-2.083827	for eleven three
-2.083827	for eleven four
-2.083827	for eleven five
-2.083827	for eleven six
-2.083827	for eleven seven
-2.083827	for eleven eight
-2.083827	for eleven nine
-2.084074	for eleven ten
-2.084074	for eleven eleven
-2.084074	for eleven twelve
-0.3135556	for eleven o
-2.051645	for eleven am
-2.051645	for eleven pm
-2.084376	for eleven thirteen
-2.084376	for eleven fourteen
-2.084376	for eleven fifteen
-2.084376	for eleven sixteen
-2.084376	for eleven seventeen
-2.084376	for eleven eighteen
-2.084376	for eleven nineteen
-1.084376	for eleven twenty
-1.084376	for eleven thirty
-1.084376	for eleven forty
-1.084376	for eleven fifty
-2.466916	for eleven seconds
-2.466916	for eleven minutes
-2.466916	for eleven hours
-2.083827	for twelve one
-2.083827	for twelve two
-2.083827	for twelve three
-2.083827	for twelve four
-2.083827	for twelve five
-2.083827	for twelve six
-2.083827	for twelve seven
-2.083827	for twelve eight
-2.083827	for twelve nine
-2.084074	for twelve ten
-2.084074	for twelve eleven
-2.084074	for twelve twelve
-0.3135556	for twelve o
-2.051645	for twelve am
-2.051645	for twelve pm
-2.084376	for twelve thirteen
-2.084376	for twelve fourteen
-2.084376	for twelve fifteen
-2.084376	for twelve sixteen
-2.084376	for twelve seventeen
-2.084376	for twelve eighteen
-2.084376	for twelve nineteen
-1.084376	for twelve twenty
-1.084376	for twelve thirty
-1.084376	for twelve forty
-1.084376	for twelve fifty
-2.466916	for twelve seconds
-2.466916	for twelve minutes
-2.466916	for twelve hours
-0.6736483	for thirteen seconds
-0.6736483	for thirteen minutes
-0.6736483	for thirteen hours
-0.6736483	for fourteen seconds
-0.6736483	for fourteen minutes
-0.6736483	for fourteen hours
-0.6736483	for fifteen seconds
-0.6736483	for fifteen minutes
-0.6736483	for fifteen hours
-0.6736483	for sixteen seconds
-0.6736483	for sixteen minutes
-0.6736483	for sixteen hours
-0.6736483	for seventeen seconds
-0.6736483	for seventeen minutes
-0.6736483	for seventeen hours
-0.6736483	for eighteen seconds
-0.6736483	for eighteen minutes
-0.6736483	for eighteen hours
-0.6736483	for nineteen seconds
-0.6736483	for nineteen minutes
-0.6736483	for nineteen hours
-1.000188	for twenty one
-1.000188	for twenty two
-1.000188	for twenty three
-1.000188	for twenty four
-1.000188	for twenty five
-1.000188	for twenty six
-1.000188	for twenty seven
-1.000188	for twenty eight
-1.000188	for twenty nine
-1.566927	for twenty seconds
-1.566927	for twenty minutes
-1.566927	for twenty hours
-1.000188	for thirty one
-1.000188	for thirty two
-1.000188	for thirty three
-1.000188	for thirty four
-1.000188	for thirty five
-1.000188	for thirty six
-1.000188	for thirty seven
-1.000188	for thirty eight
-1.000188	for thirty nine
-1.566927	for thirty seconds
-1.566927	for thirty minutes
-1.566927	for thirty hours
-1.000188	for forty one
-1.000188	for forty two
-1.000188	for forty three
-1.000188	for forty four
-1.000188	for forty five
-1.000188	for forty six
-1.000188	for forty seven
-1.000188	for forty eight
-1.000188	for forty nine
-1.566927	for forty seconds
-1.566927	for forty minutes
-1.566927	for forty hours
-1.000188	for fifty one
-1.000188	for fifty two
-1.000188	for fifty three
-1.000188	for fifty four
-1.000188	for fifty five
-1.000188	for fifty six
-1.000188	for fifty seven
-1.000188	for fifty eight
-1.000188	for fifty nine
-1.566927	for fifty seconds
-1.566927	for fifty minutes
-1.566927	for fifty hours
-0.3212051	one one am
-0.3212051	one one pm
-0.3212051	one two am
-0.3212051	one two pm
-0.3212051	one three am
-0.3212051	one three pm
-0.3212051	one four am
-0.3212051	one four pm
-0.3212051	one five am
-0.3212051	one five pm
-0.3212051	one six am
-0.3212051	one six pm
-0.3212051	one seven am
-0.3212051	one seven pm
-0.3212051	one eight am
-0.3212051	one eight pm
-0.3212051	one nine am
-0.3212051	one nine pm
-0.3349728	one ten am
-0.3349728	one ten pm
-0.3349728	one eleven am
-0.3349728	one eleven pm
-0.3349728	one twelve am
-0.3349728	one twelve pm
-1.770849	one o one
-1.770849	one o two
-1.770849	one o three
-1.770849	one o four
-1.770849	one o five
-1.770849	one o six
-1.770849	one o seven
-1.770849	one o eight
-1.770849	one o nine
-1.770856	one o ten
-1.770856	one o eleven
-1.770856	one o twelve
-1.770864	one o thirteen
-1.770864	one o fourteen
-1.770864	one o fifteen
-1.770864	one o sixteen
-1.770864	one o seventeen
-1.770864	one o eighteen
-1.770864	one o nineteen
-0.7708639	one o twenty
-0.7708639	one o thirty
-0.7708639	one o forty
-0.7708639	one o fifty
-0.2219859	one am </s>
-0.3977343	one am alarm
-0.2219859	one pm </s>
-0.3977343	one pm alarm
-0.301802	one thirteen am
-0.301802	one thirteen pm
-0.301802	one fourteen am
-0.301802	one fourteen pm
-0.301802	one fifteen am
-0.301802	one fifteen pm
-0.301802	one sixteen am
-0.301802	one sixteen pm
-0.301802	one seventeen am
-0.301802	one seventeen pm
-0.301802	one eighteen am
-0.301802	one eighteen pm
-0.301802	one nineteen am
-0.301802	one nineteen pm
-1.000052	one twenty one
-1.000052	one twenty two
-1.000052	one twenty three
-1.000052	one twenty four
-1.000052	one twenty five
-1.000052	one twenty six
-1.000052	one twenty seven
-1.000052	one twenty eight
-1.000052	one twenty nine
-1.301257	one twenty am
-1.301257	one twenty pm
-1.000052	one thirty one
-1.000052	one thirty two
-1.000052	one thirty three
-1.000052	one thirty four
-1.000052	one thirty five
-1.000052	one thirty six
-1.000052	one thirty seven
-1.000052	one thirty eight
-1.000052	one thirty nine
-1.301257	one thirty am
-1.301257	one thirty pm
-1.000052	one forty one
-1.000052	one forty two
-1.000052	one forty three
-1.000052	one forty four
-1.000052	one forty five
-1.000052	one forty six
-1.000052	one forty seven
-1.000052	one forty eight
-1.000052	one forty nine
-1.301257	one forty am
-1.301257	one forty pm
-1.000052	one fifty one
-1.000052	one fifty two
-1.000052	one fifty three
-1.000052	one fifty four
-1.000052	one fifty five
-1.000052	one fifty six
-1.000052	one fifty seven
-1.000052	one fifty eight
-1.000052	one fifty nine
-1.301257	one fifty am
-1.301257	one fifty pm
-0.0003882033	one seconds </s>
-0.0003882033	one minutes </s>
-0.0003882033	one hours </s>
-0.3212051	two one am
-0.3212051	two one pm
-0.3212051	two two am
-0.3212051	two two pm
-0.3212051	two three am
-0.3212051	two three pm
-0.3212051	two four am
-0.3212051	two four pm
-0.3212051	two five am
-0.3212051	two five pm
-0.3212051	two six am
-0.3212051	two six pm
-0.3212051	two seven am
-0.3212051	two seven pm
-0.3212051	two eight am
-0.3212051	two eight pm
-0.3212051	two nine am
-0.3212051	two nine pm
-0.3349728	two ten am
-0.3349728	two ten pm
-0.3349728	two eleven am
-0.3349728	two eleven pm
-0.3349728	two twelve am
-0.3349728	two twelve pm
-1.770849	two o one
-1.770849	two o two
-1.770849	two o three
-1.770849	two o four
-1.770849	two o five
-1.770849	two o six
-1.770849	two o seven
-1.770849	two o eight
-1.770849	two o nine
-1.770856	two o ten
-1.770856	two o eleven
-1.770856	two o twelve
-1.770864	two o thirteen
-1.770864	two o fourteen
-1.770864	two o fifteen
-1.770864	two o sixteen
-1.770864	two o seventeen
-1.770864	two o eighteen
-1.770864	two o nineteen
-0.7708639	two o twenty
-0.7708639	two o thirty
-0.7708639	two o forty
-0.7708639	two o fifty
-0.2219859	two am </s>
-0.3977343	two am alarm
-0.2219859	two pm </s>
-0.3977343	two pm alarm
-0.301802	two thirteen am
-0.301802	two thirteen pm
-0.301802	two fourteen am
-0.301802	two fourteen pm
-0.301802	two fifteen am
-0.301802	two fifteen pm
-0.301802	two sixteen am
-0.301802	two sixteen pm
-0.301802	two seventeen am
-0.301802	two seventeen pm
-0.301802	two eighteen am
-0.301802	two eighteen pm
-0.301802	two nineteen am
-0.301802	two nineteen pm
-1.000052	two twenty one
-1.000052	two twenty two
-1.000052	two twenty three
-1.000052	two twenty four
-1.000052	two twenty five
-1.000052	two twenty six
-1.000052	two twenty seven
-1.000052	two twenty eight
-1.000052	two twenty nine
-1.301257	two twenty am
-1.301257	two twenty pm
-1.000052	two thirty one
-1.000052	two thirty two
-1.000052	two thirty three
-1.000052	two thirty four
-1.000052	two thirty five
-1.000052	two thirty six
-1.000052	two thirty seven
-1.000052	two thirty eight
-1.000052	two thirty nine
-1.301257	two thirty am
-1.301257	two thirty pm
-1.000052	two forty one
-1.000052	two forty two
-1.000052	two forty three
-1.000052	two forty four
-1.000052	two forty five
-1.000052	two forty six
-1.000052	two forty seven
-1.000052	two forty eight
-1.000052	two forty nine
-1.301257	two forty am
-1.301257	two forty pm
-1.000052	two fifty one
-1.000052	two fifty two
-1.000052	two fifty three
-1.000052	two fifty four
-1.000052	two fifty five
-1.000052	two fifty six
-1.000052	two fifty seven
-1.000052	two fifty eight
-1.000052	two fifty nine
-1.301257	two fifty am
-1.301257	two fifty pm
-0.0003882033	two seconds </s>
-0.0003882033	two minutes </s>
-0.0003882033	two hours </s>
-0.3212051	three one am
-0.3212051	three one pm
-0.3212051	three two am
-0.3212051	three two pm
-0.3212051	three three am
-0.3212051	three three pm
-0.3212051	three four am
-0.3212051	three four pm
-0.3212051	three five am
-0.3212051	three five pm
-0.3212051	three six am
-0.3212051	three six pm
-0.3212051	three seven am
-0.3212051	three seven pm
-0.3212051	three eight am
-0.3212051	three eight pm
-0.3212051	three nine am
-0.3212051	three nine pm
-0.3349728	three ten am
-0.3349728	three ten pm
-0.3349728	three eleven am
-0.3349728	three eleven pm
-0.3349728	three twelve am
-0.3349728	three twelve pm
-1.770849	three o one
-1.770849	three o two
-1.770849	three o three
-1.770849	three o four
-1.770849	three o five
-1.770849	three o six
-1.770849	three o seven
-1.770849	three o eight
-1.770849	three o nine
-1.770856	three o ten
-1.770856	three o eleven
-1.770856	three o twelve
-1.770864	three o thirteen
-1.770864	three o fourteen
-1.770864	three o fifteen
-1.770864	three o sixteen
-1.770864	three o seventeen
-1.770864	three o eighteen
-1.770864	three o nineteen
-0.7708639	three o twenty
-0.7708639	three o thirty
-0.7708639	three o forty
-0.7708639	three o fifty
-0.2219859	three am </s>
-0.3977343	three am alarm
-0.2219859	three pm </s>
-0.3977343	three pm alarm
-0.301802	three thirteen am
-0.301802	three thirteen pm
-0.301802	three fourteen am
-0.301802	three fourteen pm
-0.301802	three fifteen am
-0.301802	three fifteen pm
-0.301802	three sixteen am
-0.301802	three sixteen pm
-0.301802	three seventeen am
-0.301802	three seventeen pm
-0.301802	three eighteen am
-0.301802	three eighteen pm
-0.301802	three nineteen am
-0.301802	three nineteen pm
-1.000052	three twenty one
-1.000052	three twenty two
-1.000052	three twenty three
-1.000052	three twenty four
-1.000052	three twenty five
-1.000052	three twenty six
-1.000052	three twenty seven
-1.000052	three twenty eight
-1.000052	three twenty nine
-1.301257	three twenty am
-1.301257	three twenty pm
-1.000052	three thirty one
-1.000052	three thirty two
-1.000052	three thirty three
-1.000052	three thirty four
-1.000052	three thirty five
-1.000052	three thirty six
-1.000052	three thirty seven
-1.000052	three thirty eight
-1.000052	three thirty nine
-1.301257	three thirty am
-1.301257	three thirty pm
-1.000052	three forty one
-1.000052	three forty two
-1.000052	three forty three
-1.000052	three forty four
-1.000052	three forty five
-1.000052	three forty six
-1.000052	three forty seven
-1.000052	three forty eight
-1.000052	three forty nine
-1.301257	three forty am
-1.301257	three forty pm
-1.000052	three fifty one
-1.000052	three fifty two
-1.000052	three fifty three
-1.000052	three fifty four
-1.000052	three fifty five
-1.000052	three fifty six
-1.000052	three fifty seven
-1.000052	three fifty eight
-1.000052	three fifty nine
-1.301257	three fifty am
-1.301257	three fifty pm
-0.0003882033	three seconds </s>
-0.0003882033	three minutes </s>
-0.0003882033	three hours </s>
-0.3212051	four one am
-0.3212051	four one pm
-0.3212051	four two am
-0.3212051	four two pm
-0.3212051	four three am
-0.3212051	four three pm
-0.3212051	four four am
-0.3212051	four four pm
-0.3212051	four five am
-0.3212051	four five pm
-0.3212051	four six am
-0.3212051	four six pm
-0.3212051	four seven am
-0.3212051	four seven pm
-0.3212051	four eight am
-0.3212051	four eight pm
-0.3212051	four nine am
-0.3212051	four nine pm
-0.3349728	four ten am
-0.3349728	four ten pm
-0.3349728	four eleven am
-0.3349728	four eleven pm
-0.3349728	four twelve am
-0.3349728	four twelve pm
-1.770849	four o one
-1.770849	four o two
-1.770849	four o three
-1.770849	four o four
-1.770849	four o five
-1.770849	four o six
-1.770849	four o seven
-1.770849	four o eight
-1.770849	four o nine
-1.770856	four o ten
-1.770856	four o eleven
-1.770856	four o twelve
-1.770864	four o thirteen
-1.770864	four o fourteen
-1.770864	four o fifteen
-1.770864	four o sixteen
-1.770864	four o seventeen
-1.770864	four o eighteen
-1.770864	four o nineteen
-0.7708639	four o twenty
-0.7708639	four o thirty
-0.7708639	four o forty
-0.7708639	four o fifty
-0.2219859	four am </s>
-0.3977343	four am alarm
-0.2219859	four pm </s>
-0.3977343	four pm alarm
-0.301802	four thirteen am
-0.301802	four thirteen pm
-0.301802	four fourteen am
-0.301802	four fourteen pm
-0.301802	four fifteen am
-0.301802	four fifteen pm
-0.301802	four sixteen am
-0.301802	four sixteen pm
-0.301802	four seventeen am
-0.301802	four seventeen pm
-0.301802	four eighteen am
-0.301802	four eighteen pm
-0.301802	four nineteen am
-0.301802	four nineteen pm
-1.000052	four twenty one
-1.000052	four twenty two
-1.000052	four twenty three
-1.000052	four twenty four
-1.000052	four twenty five
-1.000052	four twenty six
-1.000052	four twenty seven
-1.000052	four twenty eight
-1.000052	four twenty nine
-1.301257	four twenty am
-1.301257	four twenty pm
-1.000052	four thirty one
-1.000052	four thirty two
-1.000052	four thirty three
-1.000052	four thirty four
-1.000052	four thirty five
-1.000052	four thirty six
-1.000052	four thirty seven
-1.000052	four thirty eight
-1.000052	four thirty nine
-1.301257	four thirty am
-1.301257	four thirty pm
-1.000052	four forty one
-1.000052	four forty two
-1.000052	four forty three
-1.000052	four forty four
-1.000052	four forty five
-1.000052	four forty six
-1.000052	four forty seven
-1.000052	four forty eight
-1.000052	four forty nine
-1.301257	four forty am
-1.301257	four forty pm
-1.000052	four fifty one
-1.000052	four fifty two
-1.000052	four fifty three
-1.000052	four fifty four
-1.000052	four fifty five
-1.000052	four fifty six
-1.000052	four fifty seven
-1.000052	four fifty eight
-1.000052	four fifty nine
-1.301257	four fifty am
-1.301257	four fifty pm
-0.0003882033	four seconds </s>
-0.0003882033	four minutes </s>
-0.0003882033	four hours </s>
-0.3212051	five one am
-0.3212051	five one pm
-0.3212051	five two am
-0.3212051	five two pm
-0.3212051	five three am
-0.3212051	five three pm
-0.3212051	five four am
-0.3212051	five four pm
-0.3212051	five five am
-0.3212051	five five pm
-0.3212051	five six am
-0.3212051	five six pm
-0.3212051	five seven am
-0.3212051	five seven pm
-0.3212051	five eight am
-0.3212051	five eight pm
-0.3212051	five nine am
-0.3212051	five nine pm
-0.3349728	five ten am
-0.3349728	five ten pm
-0.3349728	five eleven am
-0.3349728	five eleven pm
-0.3349728	five twelve am
-0.3349728	five twelve pm
-1.770849	five o one
-1.770849	five o two
-1.770849	five o three
-1.770849	five o four
-1.770849	five o five
-1.770849	five o six
-1.770849	five o seven
-1.770849	five o eight
-1.770849	five o nine
-1.770856	five o ten
-1.770856	five o eleven
-1.770856	five o twelve
-1.770864	five o thirteen
-1.770864	five o fourteen
-1.770864	five o fifteen
-1.770864	five o sixteen
-1.770864	five o seventeen
-1.770864	five o eighteen
-1.770864	five o nineteen
-0.7708639	five o twenty
-0.7708639	five o thirty
-0.7708639	five o forty
-0.7708639	five o fifty
-0.2219859	five am </s>
-0.3977343	five am alarm
-0.2219859	five pm </s>
-0.3977343	five pm alarm
-0.301802	five thirteen am
-0.301802	five thirteen pm
-0.301802	five fourteen am
-0.301802	five fourteen pm
-0.301802	five fifteen am
-0.301802	five fifteen pm
-0.301802	five sixteen am
-0.301802	five sixteen pm
-0.301802	five seventeen am
-0.301802	five seventeen pm
-0.301802	five eighteen am
-0.301802	five eighteen pm
-0.301802	five nineteen am
-0.301802	five nineteen pm
-1.000052	five twenty one
-1.000052	five twenty two
-1.000052	five twenty three
-1.000052	five twenty four
-1.000052	five twenty five
-1.000052	five twenty six
-1.000052	five twenty seven
-1.000052	five twenty eight
-1.000052	five twenty nine
-1.301257	five twenty am
-1.301257	five twenty pm
-1.000052	five thirty one
-1.000052	five thirty two
-1.000052	five thirty three
-1.000052	five thirty four
-1.000052	five thirty five
-1.000052	five thirty six
-1.000052	five thirty seven
-1.000052	five thirty eight
-1.000052	five thirty nine
-1.301257	five thirty am
-1.301257	five thirty pm
-1.000052	five forty one
-1.000052	five forty two
-1.000052	five forty three
-1.000052	five forty four
-1.000052	five forty five
-1.000052	five forty six
-1.000052	five forty seven
-1.000052	five forty eight
-1.000052	five forty nine
-1.301257	five forty am
-1.301257	five forty pm
-1.000052	five fifty one
-1.000052	five fifty two
-1.000052	five fifty three
-1.000052	five fifty four
-1.000052	five fifty five
-1.000052	five fifty six
-1.000052	five fifty seven
-1.000052	five fifty eight
-1.000052	five fifty nine
-1.301257	five fifty am
-1.301257	five fifty pm
-0.0003882033	five seconds </s>
-0.0003882033	five minutes </s>
-0.0003882033	five hours </s>
-0.3212051	six one am
-0.3212051	six one pm
-0.3212051	six two am
-0.3212051	six two pm
-0.3212051	six three am
-0.3212051	six three pm
-0.3212051	six four am
-0.3212051	six four pm
-0.3212051	six five am
-0.3212051	six five pm
-0.3212051	six six am
-0.3212051	six six pm
-0.3212051	six seven am
-0.3212051	six seven pm
-0.3212051	six eight am
-0.3212051	six eight pm
-0.3212051	six nine am
-0.3212051	six nine pm
-0.3349728	six ten am
-0.3349728	six ten pm
-0.3349728	six eleven am
-0.3349728	six eleven pm
-0.3349728	six twelve am
-0.3349728	six twelve pm
-1.770849	six o one
-1.770849	six o two
-1.770849	six o three
-1.770849	six o four
-1.770849	six o five
-1.770849	six o six
-1.770849	six o seven
-1.770849	six o eight
-1.770849	six o nine
-1.770856	six o ten
-1.770856	six o eleven
-1.770856	six o twelve
-1.770864	six o thirteen
-1.770864	six o fourteen
-1.770864	six o fifteen
-1.770864	six o sixteen
-1.770864	six o seventeen
-1.770864	six o eighteen
-1.770864	six o nineteen
-0.7708639	six o twenty
-0.7708639	six o thirty
-0.7708639	six o forty
-0.7708639	six o fifty
-0.2219859	six am </s>
-0.3977343	six am alarm
-0.2219859	six pm </s>
-0.3977343	six pm alarm
-0.301802	six thirteen am
-0.301802	six thirteen pm
-0.301802	six fourteen am
-0.301802	six fourteen pm
-0.301802	six fifteen am
-0.301802	six fifteen pm
-0.301802	six sixteen am
-0.301802	six sixteen pm
-0.301802	six seventeen am
-0.301802	six seventeen pm
-0.301802	six eighteen am
-0.301802	six eighteen pm
-0.301802	six nineteen am
-0.301802	six nineteen pm
-1.000052	six twenty one
-1.000052	six twenty two
-1.000052	six twenty three
-1.000052	six twenty four
-1.000052	six twenty five
-1.000052	six twenty six
-1.000052	six twenty seven
-1.000052	six twenty eight
-1.000052	six twenty nine
-1.301257	six twenty am
-1.301257	six twenty pm
-1.000052	six thirty one
-1.000052	six thirty two
-1.000052	six thirty three
-1.000052	six thirty four
-1.000052	six thirty five
-1.000052	six thirty six
-1.000052	six thirty seven
-1.000052	six thirty eight
-1.000052	six thirty nine
-1.301257	six thirty am
-1.301257	six thirty pm
-1.000052	six forty one
-1.000052	six forty two
-1.000052	six forty three
-1.000052	six forty four
-1.000052	six forty five
-1.000052	six forty six
-1.000052	six forty seven
-1.000052	six forty eight
-1.000052	six forty nine
-1.301257	six forty am
-1.301257	six forty pm
-1.000052	six fifty one
-1.000052	six fifty two
-1.000052	six fifty three
-1.000052	six fifty four
-1.000052	six fifty five
-1.000052	six fifty six
-1.000052	six fifty seven
-1.000052	six fifty eight
-1.000052	six fifty nine
-1.301257	six fifty am
-1.301257	six fifty pm
-0.0003882033	six seconds </s>
-0.0003882033	six minutes </s>
-0.0003882033	six hours </s>
-0.3212051	seven one am
-0.3212051	seven one pm
-0.3212051	seven two am
-0.3212051	seven two pm
-0.3212051	seven three am
-0.3212051	seven three pm
-0.3212051	seven four am
-0.3212051	seven four pm
-0.3212051	seven five am
-0.3212051	seven five pm
-0.3212051	seven six am
-0.3212051	seven six pm
-0.3212051	seven seven am
-0.3212051	seven seven pm
-0.3212051	seven eight am
-0.3212051	seven eight pm
-0.3212051	seven nine am
-0.3212051	seven nine pm
-0.3349728	seven ten am
-0.3349728	seven ten pm
-0.3349728	seven eleven am
-0.3349728	seven eleven pm
-0.3349728	seven twelve am
-0.3349728	seven twelve pm
-1.770849	seven o one
-1.770849	seven o two
-1.770849	seven o three
-1.770849	seven o four
-1.770849	seven o five
-1.770849	seven o six
-1.770849	seven o seven
-1.770849	seven o eight
-1.770849	seven o nine
-1.770856	seven o ten
-1.770856	seven o eleven
-1.770856	seven o twelve
-1.770864	seven o thirteen
-1.770864	seven o fourteen
-1.770864	seven o fifteen
-1.770864	seven o sixteen
-1.770864	seven o seventeen
-1.770864	seven o eighteen
-1.770864	seven o nineteen
-0.7708639	seven o twenty
-0.7708639	seven o thirty
-0.7708639	seven o forty
-0.7708639	seven o fifty
-0.2219859	seven am </s>
-0.3977343	seven am alarm
-0.2219859	seven pm </s>
-0.3977343	seven pm alarm
-0.301802	seven thirteen am
-0.301802	seven thirteen pm
-0.301802	seven fourteen am
-0.301802	seven fourteen pm
-0.301802	seven fifteen am
-0.301802	seven fifteen pm
-0.301802	seven sixteen am
-0.301802	seven sixteen pm
-0.301802	seven seventeen am
-0.301802	seven seventeen pm
-0.301802	seven eighteen am
-0.301802	seven eighteen pm
-0.301802	seven nineteen am
-0.301802	seven nineteen pm
-1.000052	seven twenty one
-1.000052	seven twenty two
-1.000052	seven twenty three
-1.000052	seven twenty four
-1.000052	seven twenty five
-1.000052	seven twenty six
-1.000052	seven twenty seven
-1.000052	seven twenty eight
-1.000052	seven twenty nine
-1.301257	seven twenty am
-1.301257	seven twenty pm
-1.000052	seven thirty one
-1.000052	seven thirty two
-1.000052	seven thirty three
-1.000052	seven thirty four
-1.000052	seven thirty five
-1.000052	seven thirty six
-1.000052	seven thirty seven
-1.000052	seven thirty eight
-1.000052	seven thirty nine
-1.301257	seven thirty am
-1.301257	seven thirty pm
-1.000052	seven forty one
-1.000052	seven forty two
-1.000052	seven forty three
-1.000052	seven forty four
-1.000052	seven forty five
-1.000052	seven forty six
-1.000052	seven forty seven
-1.000052	seven forty eight
-1.000052	seven forty nine
-1.301257	seven forty am
-1.301257	seven forty pm
-1.000052	seven fifty one
-1.000052	seven fifty two
-1.000052	seven fifty three
-1.000052	seven fifty four
-1.000052	seven fifty five
-1.000052	seven fifty six
-1.000052	seven fifty seven
-1.000052	seven fifty eight
-1.000052	seven fifty nine
-1.301257	seven fifty am
-1.301257	seven fifty pm
-0.0003882033	seven seconds </s>
-0.0003882033	seven minutes </s>
-0.0003882033	seven hours </s>
-0.3212051	eight one am
-0.3212051	eight one pm
-0.3212051	eight two am
-0.3212051	eight two pm
-0.3212051	eight three am
-0.3212051	eight three pm
-0.3212051	eight four am
-0.3212051	eight four pm
-0.3212051	eight five am
-0.3212051	eight five pm
-0.3212051	eight six am
-0.3212051	eight six pm
-0.3212051	eight seven am
-0.3212051	eight seven pm
-0.3212051	eight eight am
-0.3212051	eight eight pm
-0.3212051	eight nine am
-0.3212051	eight nine pm
-0.3349728	eight ten am
-0.3349728	eight ten pm
-0.3349728	eight eleven am
-0.3349728	eight eleven pm
-0.3349728	eight twelve am
-0.3349728	eight twelve pm
-1.770849	eight o one
-1.770849	eight o two
-1.770849	eight o three
-1.770849	eight o four
-1.770849	eight o five
-1.770849	eight o six
-1.770849	eight o seven
-1.770849	eight o eight
-1.770849	eight o nine
-1.770856	eight o ten
-1.770856	eight o eleven
-1.770856	eight o twelve
-1.770864	eight o thirteen
-1.770864	eight o fourteen
-1.770864	eight o fifteen
-1.770864	eight o sixteen
-1.770864	eight o seventeen
-1.770864	eight o eighteen
-1.770864	eight o nineteen
-0.7708639	eight o twenty
-0.7708639	eight o thirty
-0.7708639	eight o forty
-0.7708639	eight o fifty
-0.2219859	eight am </s>
-0.3977343	eight am alarm
-0.2219859	eight pm </s>
-0.3977343	eight pm alarm
-0.301802	eight thirteen am
-0.301802	eight thirteen pm
-0.301802	eight fourteen am
-0.301802	eight fourteen pm
-0.301802	eight fifteen am
-0.301802	eight fifteen pm
-0.301802	eight sixteen am
-0.301802	eight sixteen pm
-0.301802	eight seventeen am
-0.301802	eight seventeen pm
-0.301802	eight eighteen am
-0.301802	eight eighteen pm
-0.301802	eight nineteen am
-0.301802	eight nineteen pm
-1.000052	eight twenty one
-1.000052	eight twenty two
-1.000052	eight twenty three
-1.000052	eight twenty four
-1.000052	eight twenty five
-1.000052	eight twenty six
-1.000052	eight twenty seven
-1.000052	eight twenty eight
-1.000052	eight twenty nine
-1.301257	eight twenty am
-1.301257	eight twenty pm
-1.000052	eight thirty one
-1.000052	eight thirty two
-1.000052	eight thirty three
-1.000052	eight thirty four
-1.000052	eight thirty five
-1.000052	eight thirty six
-1.000052	eight thirty seven
-1.000052	eight thirty eight
-1.000052	eight thirty nine
-1.301257	eight thirty am
-1.301257	eight thirty pm
-1.000052	eight forty one
-1.000052	eight forty two
-1.000052	eight forty three
-1.000052	eight forty four
-1.000052	eight forty five
-1.000052	eight forty six
-1.000052	eight forty seven
-1.000052	eight forty eight
-1.000052	eight forty nine
-1.301257	eight forty am
-1.301257	eight forty pm
-1.000052	eight fifty one
-1.000052	eight fifty two
-1.000052	eight fifty three
-1.000052	eight fifty four
-1.000052	eight fifty five
-1.000052	eight fifty six
-1.000052	eight fifty seven
-1.000052	eight fifty eight
-1.000052	eight fifty nine
-1.301257	eight fifty am
-1.301257	eight fifty pm
-0.0003882033	eight seconds </s>
-0.0003882033	eight minutes </s>
-0.0003882033	eight hours </s>
-0.3212051	nine one am
-0.3212051	nine one pm
-0.3212051	nine two am
-0.3212051	nine two pm
-0.3212051	nine three am
-0.3212051	nine three pm
-0.3212051	nine four am
-0.3212051	nine four pm
-0.3212051	nine five am
-0.3212051	nine five pm
-0.3212051	nine six am
-0.3212051	nine six pm
-0.3212051	nine seven am
-0.3212051	nine seven pm
-0.3212051	nine eight am
-0.3212051	nine eight pm
-0.3212051	nine nine am
-0.3212051	nine nine pm
-0.3349728	nine ten am
-0.3349728	nine ten pm
-0.3349728	nine eleven am
-0.3349728	nine eleven pm
-0.3349728	nine twelve am
-0.3349728	nine twelve pm
-1.770849	nine o one
-1.770849	nine o two
-1.770849	nine o three
-1.770849	nine o four
-1.770849	nine o five
-1.770849	nine o six
-1.770849	nine o seven
-1.770849	nine o eight
-1.770849	nine o nine
-1.770856	nine o ten
-1.770856	nine o eleven
-1.770856	nine o twelve
-1.770864	nine o thirteen
-1.770864	nine o fourteen
-1.770864	nine o fifteen
-1.770864	nine o sixteen
-1.770864	nine o seventeen
-1.770864	nine o eighteen
-1.770864	nine o nineteen
-0.7708639	nine o twenty
-0.7708639	nine o thirty
-0.7708639	nine o forty
-0.7708639	nine o fifty
-0.2219859	nine am </s>
-0.3977343	nine am alarm
-0.2219859	nine pm </s>
-0.3977343	nine pm alarm
-0.301802	nine thirteen am
-0.301802	nine thirteen pm
-0.301802	nine fourteen am
-0.301802	nine fourteen pm
-0.301802	nine fifteen am
-0.301802	nine fifteen pm
-0.301802	nine sixteen am
-0.301802	nine sixteen pm
-0.301802	nine seventeen am
-0.301802	nine seventeen pm
-0.301802	nine eighteen am
-0.301802	nine eighteen pm
-0.301802	nine nineteen am
-0.301802	nine nineteen pm
-1.000052	nine twenty one
-1.000052	nine twenty two
-1.000052	nine twenty three
-1.000052	nine twenty four
-1.000052	nine twenty five
-1.000052	nine twenty six
-1.000052	nine twenty seven
-1.000052	nine twenty eight
-1.000052	nine twenty nine
-1.301257	nine twenty am
-1.301257	nine twenty pm
-1.000052	nine thirty one
-1.000052	nine thirty two
-1.000052	nine thirty three
-1.000052	nine thirty four
-1.000052	nine thirty five
-1.000052	nine thirty six
-1.000052	nine thirty seven
-1.000052	nine thirty eight
-1.000052	nine thirty nine
-1.301257	nine thirty am
-1.301257	nine thirty pm
-1.000052	nine forty one
-1.000052	nine forty two
-1.000052	nine forty three
-1.000052	nine forty four
-1.000052	nine forty five
-1.000052	nine forty six
-1.000052	nine forty seven
-1.000052	nine forty eight
-1.000052	nine forty nine
-1.301257	nine forty am
-1.301257	nine forty pm
-1.000052	nine fifty one
-1.000052	nine fifty two
-1.000052	nine fifty three
-1.000052	nine fifty four
-1.000052	nine fifty five
-1.000052	nine fifty six
-1.000052	nine fifty seven
-1.000052	nine fifty eight
-1.000052	nine fifty nine
-1.301257	nine fifty am
-1.301257	nine fifty pm
-0.0003882033	nine seconds </s>
-0.0003882033	nine minutes </s>
-0.0003882033	nine hours </s>
-0.3212051	ten one am
-0.3212051	ten one pm
-0.3212051	ten two am
-0.3212051	ten two pm
-0.3212051	ten three am
-0.3212051	ten three pm
-0.3212051	ten four am
-0.3212051	ten four pm
-0.3212051	ten five am
-0.3212051	ten five pm
-0.3212051	ten six am
-0.3212051	ten six pm
-0.3212051	ten seven am
-0.3212051	ten seven pm
-0.3212051	ten eight am
-0.3212051	ten eight pm
-0.3212051	ten nine am
-0.3212051	ten nine pm
-0.3349728	ten ten am
-0.3349728	ten ten pm
-0.3349728	ten eleven am
-0.3349728	ten eleven pm
-0.3349728	ten twelve am
-0.3349728	ten twelve pm
-1.770849	ten o one
-1.770849	ten o two
-1.770849	ten o three
-1.770849	ten o four
-1.770849	ten o five
-1.770849	ten o six
-1.770849	ten o seven
-1.770849	ten o eight
-1.770849	ten o nine
-1.770856	ten o ten
-1.770856	ten o eleven
-1.770856	ten o twelve
-1.770864	ten o thirteen
-1.770864	ten o fourteen
-1.770864	ten o fifteen
-1.770864	ten o sixteen
-1.770864	ten o seventeen
-1.770864	ten o eighteen
-1.770864	ten o nineteen
-0.7708639	ten o twenty
-0.7708639	ten o thirty
-0.7708639	ten o forty
-0.7708639	ten o fifty
-0.2219862	ten am </s>
-0.3977345	ten am alarm
-0.2219862	ten pm </s>
-0.3977345	ten pm alarm
-0.301802	ten thirteen am
-0.301802	ten thirteen pm
-0.301802	ten fourteen am
-0.301802	ten fourteen pm
-0.301802	ten fifteen am
-0.301802	ten fifteen pm
-0.301802	ten sixteen am
-0.301802	ten sixteen pm
-0.301802	ten seventeen am
-0.301802	ten seventeen pm
-0.301802	ten eighteen am
-0.301802	ten eighteen pm
-0.301802	ten nineteen am
-0.301802	ten nineteen pm
-1.000052	ten twenty one
-1.000052	ten twenty two
-1.000052	ten twenty three
-1.000052	ten twenty four
-1.000052	ten twenty five
-1.000052	ten twenty six
-1.000052	ten twenty seven
-1.000052	ten twenty eight
-1.000052	ten twenty nine
-1.301257	ten twenty am
-1.301257	ten twenty pm
-1.000052	ten thirty one
-1.000052	ten thirty two
-1.000052	ten thirty three
-1.000052	ten thirty four
-1.000052	ten thirty five
-1.000052	ten thirty six
-1.000052	ten thirty seven
-1.000052	ten thirty eight
-1.000052	ten thirty nine
-1.301257	ten thirty am
-1.301257	ten thirty pm
-1.000052	ten forty one
-1.000052	ten forty two
-1.000052	ten forty three
-1.000052	ten forty four
-1.000052	ten forty five
-1.000052	ten forty six
-1.000052	ten forty seven
-1.000052	ten forty eight
-1.000052	ten forty nine
-1.301257	ten forty am
-1.301257	ten forty pm
-1.000052	ten fifty one
-1.000052	ten fifty two
-1.000052	ten fifty three
-1.000052	ten fifty four
-1.000052	ten fifty five
-1.000052	ten fifty six
-1.000052	ten fifty seven
-1.000052	ten fifty eight
-1.000052	ten fifty nine
-1.301257	ten fifty am
-1.301257	ten fifty pm
-0.001371356	ten seconds </s>
-0.001371356	ten minutes </s>
-0.001371356	ten hours </s>
-0.3212051	eleven one am
-0.3212051	eleven one pm
-0.3212051	eleven two am
-0.3212051	eleven two pm
-0.3212051	eleven three am
-0.3212051	eleven three pm
-0.3212051	eleven four am
-0.3212051	eleven four pm
-0.3212051	eleven five am
-0.3212051	eleven five pm
-0.3212051	eleven six am
-0.3212051	eleven six pm
-0.3212051	eleven seven am
-0.3212051	eleven seven pm
-0.3212051	eleven eight am
-0.3212051	eleven eight pm
-0.3212051	eleven nine am
-0.3212051	eleven nine pm
-0.3349728	eleven ten am
-0.3349728	eleven ten pm
-0.3349728	eleven eleven am
-0.3349728	eleven eleven pm
-0.3349728	eleven twelve am
-0.3349728	eleven twelve pm
-1.770849	eleven o one
-1.770849	eleven o two
-1.770849	eleven o three
-1.770849	eleven o four
-1.770849	eleven o five
-1.770849	eleven o six
-1.770849	eleven o seven
-1.770849	eleven o eight
-1.770849	eleven o nine
-1.770856	eleven o ten
-1.770856	eleven o eleven
-1.770856	eleven o twelve
-1.770864	eleven o thirteen
-1.770864	eleven o fourteen
-1.770864	eleven o fifteen
-1.770864	eleven o sixteen
-1.770864	eleven o seventeen
-1.770864	eleven o eighteen
-1.770864	eleven o nineteen
-0.7708639	eleven o twenty
-0.7708639	eleven o thirty
-0.7708639	eleven o forty
-0.7708639	eleven o fifty
-0.2219862	eleven am </s>
-0.3977345	eleven am alarm
-0.2219862	eleven pm </s>
-0.3977345	eleven pm alarm
-0.301802	eleven thirteen am
-0.301802	eleven thirteen pm
-0.301802	eleven fourteen am
-0.301802	eleven fourteen pm
-0.301802	eleven fifteen am
-0.301802	eleven fifteen pm
-0.301802	eleven sixteen am
-0.301802	eleven sixteen pm
-0.301802	eleven seventeen am
-0.301802	eleven seventeen pm
-0.301802	eleven eighteen am
-0.301802	eleven eighteen pm
-0.301802	eleven nineteen am
-0.301802	eleven nineteen pm
-1.000052	eleven twenty one
-1.000052	eleven twenty two
-1.000052	eleven twenty three
-1.000052	eleven twenty four
-1.000052	eleven twenty five
-1.000052	eleven twenty six
-1.000052	eleven twenty seven
-1.000052	eleven twenty eight
-1.000052	eleven twenty nine
-1.301257	eleven twenty am
-1.301257	eleven twenty pm
-1.000052	eleven thirty one
-1.000052	eleven thirty two
-1.000052	eleven thirty three
-1.000052	eleven thirty four
-1.000052	eleven thirty five
-1.000052	eleven thirty six
-1.000052	eleven thirty seven
-1.000052	eleven thirty eight
-1.000052	eleven thirty nine
-1.301257	eleven thirty am
-1.301257	eleven thirty pm
-1.000052	eleven forty one
-1.000052	eleven forty two
-1.000052	eleven forty three
-1.000052	eleven forty four
-1.000052	eleven forty five
-1.000052	eleven forty six
-1.000052	eleven forty seven
-1.000052	eleven forty eight
-1.000052	eleven forty nine
-1.301257	eleven forty am
-1.301257	eleven forty pm
-1.000052	eleven fifty one
-1.000052	eleven fifty two
-1.000052	eleven fifty three
-1.000052	eleven fifty four
-1.000052	eleven fifty five
-1.000052	eleven fifty six
-1.000052	eleven fifty seven
-1.000052	eleven fifty eight
-1.000052	eleven fifty nine
-1.301257	eleven fifty am
-1.301257	eleven fifty pm
-0.001371356	eleven seconds </s>
-0.001371356	eleven minutes </s>
-0.001371356	eleven hours </s>
-0.3212051	twelve one am
-0.3212051	twelve one pm
-0.3212051	twelve two am
-0.3212051	twelve two pm
-0.3212051	twelve three am
-0.3212051	twelve three pm
-0.3212051	twelve four am
-0.3212051	twelve four pm
-0.3212051	twelve five am
-0.3212051	twelve five pm
-0.3212051	twelve six am
-0.3212051	twelve six pm
-0.3212051	twelve seven am
-0.3212051	twelve seven pm
-0.3212051	twelve eight am
-0.3212051	twelve eight pm
-0.3212051	twelve nine am
-0.3212051	twelve nine pm
-0.3349728	twelve ten am
-0.3349728	twelve ten pm
-0.3349728	twelve eleven am
-0.3349728	twelve eleven pm
-0.3349728	twelve twelve am
-0.3349728	twelve twelve pm
-1.770849	twelve o one
-1.770849	twelve o two
-1.770849	twelve o three
-1.770849	twelve o four
-1.770849	twelve o five
-1.770849	twelve o six
-1.770849	twelve o seven
-1.770849	twelve o eight
-1.770849	twelve o nine
-1.770856	twelve o ten
-1.770856	twelve o eleven
-1.770856	twelve o twelve
-1.770864	twelve o thirteen
-1.770864	twelve o fourteen
-1.770864	twelve o fifteen
-1.770864	twelve o sixteen
-1.770864	twelve o seventeen
-1.770864	twelve o eighteen
-1.770864	twelve o nineteen
-0.7708639	twelve o twenty
-0.7708639	twelve o thirty
-0.7708639	twelve o forty
-0.7708639	twelve o fifty
-0.2219862	twelve am </s>
-0.3977345	twelve am alarm
-0.2219862	twelve pm </s>
-0.3977345	twelve pm alarm
-0.301802	twelve thirteen am
-0.301802	twelve thirteen pm
-0.301802	twelve fourteen am
-0.301802	twelve fourteen pm
-0.301802	twelve fifteen am
-0.301802	twelve fifteen pm
-0.301802	twelve sixteen am
-0.301802	twelve sixteen pm
-0.301802	twelve seventeen am
-0.301802	twelve seventeen pm
-0.301802	twelve eighteen am
-0.301802	twelve eighteen pm
-0.301802	twelve nineteen am
-0.301802	twelve nineteen pm
-1.000052	twelve twenty one
-1.000052	twelve twenty two
-1.000052	twelve twenty three
-1.000052	twelve twenty four
-1.000052	twelve twenty five
-1.000052	twelve twenty six
-1.000052	twelve twenty seven
-1.000052	twelve twenty eight
-1.000052	twelve twenty nine
-1.301257	twelve twenty am
-1.301257	twelve twenty pm
-1.000052	twelve thirty one
-1.000052	twelve thirty two
-1.000052	twelve thirty three
-1.000052	twelve thirty four
-1.000052	twelve thirty five
-1.000052	twelve thirty six
-1.000052	twelve thirty seven
-1.000052	twelve thirty eight
-1.000052	twelve thirty nine
-1.301257	twelve thirty am
-1.301257	twelve thirty pm
-1.000052	twelve forty one
-1.000052	twelve forty two
-1.000052	twelve forty three
-1.000052	twelve forty four
-1.000052	twelve forty five
-1.000052	twelve forty six
-1.000052	twelve forty seven
-1.000052	twelve forty eight
-1.000052	twelve forty nine
-1.301257	twelve forty am
-1.301257	twelve forty pm
-1.000052	twelve fifty one
-1.000052	twelve fifty two
-1.000052	twelve fifty three
-1.000052	twelve fifty four
-1.000052	twelve fifty five
-1.000052	twelve fifty six
-1.000052	twelve fifty seven
-1.000052	twelve fifty eight
-1.000052	twelve fifty nine
-1.301257	twelve fifty am
-1.301257	twelve fifty pm
-0.001371356	twelve seconds </s>
-0.001371356	twelve minutes </s>
-0.001371356	twelve hours </s>
-0.302826	o one am
-0.302826	o one pm
-0.302826	o two am
-0.302826	o two pm
-0.302826	o three am
-0.302826	o three pm
-0.302826	o four am
-0.302826	o four pm
-0.302826	o five am
-0.302826	o five pm
-0.302826	o six am
-0.302826	o six pm
-0.302826	o seven am
-0.302826	o seven pm
-0.302826	o eight am
-0.302826	o eight pm
-0.302826	o nine am
-0.302826	o nine pm
-0.3040087	o ten am
-0.3040087	o ten pm
-0.3040087	o eleven am
-0.3040087	o eleven pm
-0.3040087	o twelve am
-0.3040087	o twelve pm
-0.3011001	o thirteen am
-0.3011001	o thirteen pm
-0.3011001	o fourteen am
-0.3011001	o fourteen pm
-0.3011001	o fifteen am
-0.3011001	o fifteen pm
-0.3011001	o sixteen am
-0.3011001	o sixteen pm
-0.3011001	o seventeen am
-0.3011001	o seventeen pm
-0.3011001	o eighteen am
-0.3011001	o eighteen pm
-0.3011001	o nineteen am
-0.3011001	o nineteen pm
-1.000005	o twenty one
-1.000005	o twenty two
-1.000005	o twenty three
-1.000005	o twenty four
-1.000005	o twenty five
-1.000005	o twenty six
-1.000005	o twenty seven
-1.000005	o twenty eight
-1.000005	o twenty nine
-1.30105	o twenty am
-1.30105	o twenty pm
-1.000005	o thirty one
-1.000005	o thirty two
-1.000005	o thirty three
-1.000005	o thirty four
-1.000005	o thirty five
-1.000005	o thirty six
-1.000005	o thirty seven
-1.000005	o thirty eight
-1.000005	o thirty nine
-1.30105	o thirty am
-1.30105	o thirty pm
-1.000005	o forty one
-1.000005	o forty two
-1.000005	o forty three
-1.000005	o forty four
-1.000005	o forty five
-1.000005	o forty six
-1.000005	o forty seven
-1.000005	o forty eight
-1.000005	o forty nine
-1.30105	o forty am
-1.30105	o forty pm
-1.000005	o fifty one
-1.000005	o fifty two
-1.000005	o fifty three
-1.000005	o fifty four
-1.000005	o fifty five
-1.000005	o fifty six
-1.000005	o fifty seven
-1.000005	o fifty eight
-1.000005	o fifty nine
-1.30105	o fifty am
-1.30105	o fifty pm
-4.563472e-05	am alarm </s>
-4.563472e-05	pm alarm </s>
-0.2219863	thirteen am </s>
-0.3977345	thirteen am alarm
-0.2219863	thirteen pm </s>
-0.3977345	thirteen pm alarm
-0.001371356	thirteen seconds </s>
-0.001371356	thirteen minutes </s>
-0.001371356	thirteen hours </s>
-0.2219863	fourteen am </s>
-0.3977345	fourteen am alarm
-0.2219863	fourteen pm </s>
-0.3977345	fourteen pm alarm
-0.001371356	fourteen seconds </s>
-0.001371356	fourteen minutes </s>
-0.001371356	fourteen hours </s>
-0.2219863	fifteen am </s>
-0.3977345	fifteen am alarm
-0.2219863	fifteen pm </s>
-0.3977345	fifteen pm alarm
-0.001371356	fifteen seconds </s>
-0.001371356	fifteen minutes </s>
-0.001371356	fifteen hours </s>
-0.2219863	sixteen am </s>
-0.3977345	sixteen am alarm
-0.2219863	sixteen pm </s>
-0.3977345	sixteen pm alarm
-0.001371356	sixteen seconds </s>
-0.001371356	sixteen minutes </s>
-0.001371356	sixteen hours </s>
-0.2219863	seventeen am </s>
-0.3977345	seventeen am alarm
-0.2219863	seventeen pm </s>
-0.3977345	seventeen pm alarm
-0.001371356	seventeen seconds </s>
-0.001371356	seventeen minutes </s>
-0.001371356	seventeen hours </s>
-0.2219863	eighteen am </s>
-0.3977345	eighteen am alarm
-0.2219863	eighteen pm </s>
-0.3977345	eighteen pm alarm
-0.001371356	eighteen seconds </s>
-0.001371356	eighteen minutes </s>
-0.001371356	eighteen hours </s>
-0.2219863	nineteen am </s>
-0.3977345	nineteen am alarm
-0.2219863	nineteen pm </s>
-0.3977345	nineteen pm alarm
-0.001371356	nineteen seconds </s>
-0.001371356	nineteen minutes </s>
-0.001371356	nineteen hours </s>
-0.3078693	twenty one am
-0.3078693	twenty one pm
-2.452411	twenty one seconds
-2.452411	twenty one minutes
-2.452411	twenty one hours
-0.3078693	twenty two am
-0.3078693	twenty two pm
-2.452411	twenty two seconds
-2.452411	twenty two minutes
-2.452411	twenty two hours
-0.3078693	twenty three am
-0.3078693	twenty three pm
-2.452411	twenty three seconds
-2.452411	twenty three minutes
-2.452411	twenty three hours
-0.3078693	twenty four am
-0.3078693	twenty four pm
-2.452411	twenty four seconds
-2.452411	twenty four minutes
-2.452411	twenty four hours
-0.3078693	twenty five am
-0.3078693	twenty five pm
-2.452411	twenty five seconds
-2.452411	twenty five minutes
-2.452411	twenty five hours
-0.3078693	twenty six am
-0.3078693	twenty six pm
-2.452411	twenty six seconds
-2.452411	twenty six minutes
-2.452411	twenty six hours
-0.3078693	twenty seven am
-0.3078693	twenty seven pm
-2.452411	twenty seven seconds
-2.452411	twenty seven minutes
-2.452411	twenty seven hours
-0.3078693	twenty eight am
-0.3078693	twenty eight pm
-2.452411	twenty eight seconds
-2.452411	twenty eight minutes
-2.452411	twenty eight hours
-0.3078693	twenty nine am
-0.3078693	twenty nine pm
-2.452411	twenty nine seconds
-2.452411	twenty nine minutes
-2.452411	twenty nine hours
-0.2219863	twenty am </s>
-0.3977345	twenty am alarm
-0.2219863	twenty pm </s>
-0.3977345	twenty pm alarm
-0.001371356	twenty seconds </s>
-0.001371356	twenty minutes </s>
-0.001371356	twenty hours </s>
-0.3078693	thirty one am
-0.3078693	thirty one pm
-2.452411	thirty one seconds
-2.452411	thirty one minutes
-2.452411	thirty one hours
-0.3078693	thirty two am
-0.3078693	thirty two pm
-2.452411	thirty two seconds
-2.452411	thirty two minutes
-2.452411	thirty two hours
-0.3078693	thirty three am
-0.3078693	thirty three pm
-2.452411	thirty three seconds
-2.452411	thirty three minutes
-2.452411	thirty three hours
-0.3078693	thirty four am
-0.3078693	thirty four pm
-2.452411	thirty four seconds
-2.452411	thirty four minutes
-2.452411	thirty four hours
-0.3078693	thirty five am
-0.3078693	thirty five pm
-2.452411	thirty five seconds
-2.452411	thirty five minutes
-2.452411	thirty five hours
-0.3078693	thirty six am
-0.3078693	thirty six pm
-2.452411	thirty six seconds
-2.452411	thirty six minutes
-2.452411	thirty six hours
-0.3078693	thirty seven am
-0.3078693	thirty seven pm
-2.452411	thirty seven seconds
-2.452411	thirty seven minutes
-2.452411	thirty seven hours
-0.3078693	thirty eight am
-0.3078693	thirty eight pm
-2.452411	thirty eight seconds
-2.452411	thirty eight minutes
-2.452411	thirty eight hours
-0.3078693	thirty nine am
-0.3078693	thirty nine pm
-2.452411	thirty nine seconds
-2.452411	thirty nine minutes
-2.452411	thirty nine hours
-0.2219863	thirty am </s>
-0.3977345	thirty am alarm
-0.2219863	thirty pm </s>
-0.3977345	thirty pm alarm
-0.001371356	thirty seconds </s>
-0.001371356	thirty minutes </s>
-0.001371356	thirty hours </s>
-0.3078693	forty one am
-0.3078693	forty one pm
-2.452411	forty one seconds
-2.452411	forty one minutes
-2.452411	forty one hours
-0.3078693	forty two am
-0.3078693	forty two pm
-2.452411	forty two seconds
-2.452411	forty two minutes
-2.452411	forty two hours
-0.3078693	forty three am
-0.3078693	forty three pm
-2.452411	forty three seconds
-2.452411	forty three minutes
-2.452411	forty three hours
-0.3078693	forty four am
-0.3078693	forty four pm
-2.452411	forty four seconds
-2.452411	forty four minutes
-2.452411	forty four hours
-0.3078693	forty five am
-0.3078693	forty five pm
-2.452411	forty five seconds
-2.452411	forty five minutes
-2.452411	forty five hours
-0.3078693	forty six am
-0.3078693	forty six pm
-2.452411	forty six seconds
-2.452411	forty six minutes
-2.452411	forty six hours
-0.3078693	forty seven am
-0.3078693	forty seven pm
-2.452411	forty seven seconds
-2.452411	forty seven minutes
-2.452411	forty seven hours
-0.3078693	forty eight am
-0.3078693	forty eight pm
-2.452411	forty eight seconds
-2.452411	forty eight minutes
-2.452411	forty eight hours
-0.3078693	forty nine am
-0.3078693	forty nine pm
-2.452411	forty nine seconds
-2.452411	forty nine minutes
-2.452411	forty nine hours
-0.2219863	forty am </s>
-0.3977345	forty am alarm
-0.2219863	forty pm </s>
-0.3977345	forty pm alarm
-0.001371356	forty seconds </s>
-0.001371356	forty minutes </s>
-0.001371356	forty hours </s>
-0.3078693	fifty one am
-0.3078693	fifty one pm
-2.452411	fifty one seconds
-2.452411	fifty one minutes
-2.452411	fifty one hours
-0.3078693	fifty two am
-0.3078693	fifty two pm
-2.452411	fifty two seconds
-2.452411	fifty two minutes
-2.452411	fifty two hours
-0.3078693	fifty three am
-0.3078693	fifty three pm
-2.452411	fifty three seconds
-2.452411	fifty three minutes
-2.452411	fifty three hours
-0.3078693	fifty four am
-0.3078693	fifty four pm
-2.452411	fifty four seconds
-2.452411	fifty four minutes
-2.452411	fifty four hours
-0.3078693	fifty five am
-0.3078693	fifty five pm
-2.452411	fifty five seconds
-2.452411	fifty five minutes
-2.452411	fifty five hours
-0.3078693	fifty six am
-0.3078693	fifty six pm
-2.452411	fifty six seconds
-2.452411	fifty six minutes
-2.452411	fifty six hours
-0.3078693	fifty seven am
-0.3078693	fifty seven pm
-2.452411	fifty seven seconds
-2.452411	fifty seven minutes
-2.452411	fifty seven hours
-0.3078693	fifty eight am
-0.3078693	fifty eight pm
-2.452411	fifty eight seconds
-2.452411	fifty eight minutes
-2.452411	fifty eight hours
-0.3078693	fifty nine am
-0.3078693	fifty nine pm
-2.452411	fifty nine seconds
-2.452411	fifty nine minutes
-2.452411	fifty nine hours
-0.2219863	fifty am </s>
-0.3977345	fifty am alarm
-0.2219863	fifty pm </s>
-0.3977345	fifty pm alarm
-0.001371356	fifty seconds </s>
-0.001371356	fifty minutes </s>
-0.001371356	fifty hours </s>
-0.1691605	stop alarm </s>
-0.1691605	snooze alarm </s>
-0.3010716	cancel the alarm
-1.380253	cancel the one
-1.380253	cancel the two
-1.380253	cancel the three
-1.380253	cancel the four
-1.380253	cancel the five
-1.380253	cancel the six
-1.380253	cancel the seven
-1.380253	cancel the eight
-1.380253	cancel the nine
-1.380253	cancel the ten
-1.380253	cancel the eleven
-1.380253	cancel the twelve
-4.073975	cancel the timer
-4.563987e-05	cancel alarm at
-2.086794	cancel one one
-2.086794	cancel one two
-2.086794	cancel one three
-2.086794	cancel one four
-2.086794	cancel one five
-2.086794	cancel one six
-2.086794	cancel one seven
-2.086794	cancel one eight
-2.086794	cancel one nine
-2.08693	cancel one ten
-2.08693	cancel one eleven
-2.08693	cancel one twelve
-0.3162605	cancel one o
-1.770206	cancel one am
-1.770206	cancel one pm
-2.087096	cancel one thirteen
-2.087096	cancel one fourteen
-2.087096	cancel one fifteen
-2.087096	cancel one sixteen
-2.087096	cancel one seventeen
-2.087096	cancel one eighteen
-2.087096	cancel one nineteen
-1.087096	cancel one twenty
-1.087096	cancel one thirty
-1.087096	cancel one forty
-1.087096	cancel one fifty
-2.086794	cancel two one
-2.086794	cancel two two
-2.086794	cancel two three
-2.086794	cancel two four
-2.086794	cancel two five
-2.086794	cancel two six
-2.086794	cancel two seven
-2.086794	cancel two eight
-2.086794	cancel two nine
-2.08693	cancel two ten
-2.08693	cancel two eleven
-2.08693	cancel two twelve
-0.3162605	cancel two o
-1.770206	cancel two am
-1.770206	cancel two pm
-2.087096	cancel two thirteen
-2.087096	cancel two fourteen
-2.087096	cancel two fifteen
-2.087096	cancel two sixteen
-2.087096	cancel two seventeen
-2.087096	cancel two eighteen
-2.087096	cancel two nineteen
-1.087096	cancel two twenty
-1.087096	cancel two thirty
-1.087096	cancel two forty
-1.087096	cancel two fifty
-2.086794	cancel three one
-2.086794	cancel three two
-2.086794	cancel three three
-2.086794	cancel three four
-2.086794	cancel three five
-2.086794	cancel three six
-2.086794	cancel three seven
-2.086794	cancel three eight
-2.086794	cancel three nine
-2.08693	cancel three ten
-2.08693	cancel three eleven
-2.08693	cancel three twelve
-0.3162605	cancel three o
-1.770206	cancel three am
-1.770206	cancel three pm
-2.087096	cancel three thirteen
-2.087096	cancel three fourteen
-2.087096	cancel three fifteen
-2.087096	cancel three sixteen
-2.087096	cancel three seventeen
-2.087096	cancel three eighteen
-2.087096	cancel three nineteen
-1.087096	cancel three twenty
-1.087096	cancel three thirty
-1.087096	cancel three forty
-1.087096	cancel three fifty
-2.086794	cancel four one
-2.086794	cancel four two
-2.086794	cancel four three
-2.086794	cancel four four
-2.086794	cancel four five
-2.086794	cancel four six
-2.086794	cancel four seven
-2.086794	cancel four eight
-2.086794	cancel four nine
-2.08693	cancel four ten
-2.08693	cancel four eleven
-2.08693	cancel four twelve
-0.3162605	cancel four o
-1.770206	cancel four am
-1.770206	cancel four pm
-2.087096	cancel four thirteen
-2.087096	cancel four fourteen
-2.087096	cancel four fifteen
-2.087096	cancel four sixteen
-2.087096	cancel four seventeen
-2.087096	cancel four eighteen
-2.087096	cancel four nineteen
-1.087096	cancel four twenty
-1.087096	cancel four thirty
-1.087096	cancel four forty
-1.087096	cancel four fifty
-2.086794	cancel five one
-2.086794	cancel five two
-2.086794	cancel five three
-2.086794	cancel five four
-2.086794	cancel five five
-2.086794	cancel five six
-2.086794	cancel five seven
-2.086794	cancel five eight
-2.086794	cancel five nine
-2.08693	cancel five ten
-2.08693	cancel five eleven
-2.08693	cancel five twelve
-0.3162605	cancel five o
-1.770206	cancel five am
-1.770206	cancel five pm
-2.087096	cancel five thirteen
-2.087096	cancel five fourteen
-2.087096	cancel five fifteen
-2.087096	cancel five sixteen
-2.087096	cancel five seventeen
-2.087096	cancel five eighteen
-2.087096	cancel five nineteen
-1.087096	cancel five twenty
-1.087096	cancel five thirty
-1.087096	cancel five forty
-1.087096	cancel five fifty
-2.086794	cancel six one
-2.086794	cancel six two
-2.086794	cancel six three
-2.086794	cancel six four
-2.086794	cancel six five
-2.086794	cancel six six
-2.086794	cancel six seven
-2.086794	cancel six eight
-2.086794	cancel six nine
-2.08693	cancel six ten
-2.08693	cancel six eleven
-2.08693	cancel six twelve
-0.3162605	cancel six o
-1.770206	cancel six am
-1.770206	cancel six pm
-2.087096	cancel six thirteen
-2.087096	cancel six fourteen
-2.087096	cancel six fifteen
-2.087096	cancel six sixteen
-2.087096	cancel six seventeen
-2.087096	cancel six eighteen
-2.087096	cancel six nineteen
-1.087096	cancel six twenty
-1.087096	cancel six thirty
-1.087096	cancel six forty
-1.087096	cancel six fifty
-2.086794	cancel seven one
-2.086794	cancel seven two
-2.086794	cancel seven three
-2.086794	cancel seven four
-2.086794	cancel seven five
-2.086794	cancel seven six
-2.086794	cancel seven seven
-2.086794	cancel seven eight
-2.086794	cancel seven nine
-2.08693	cancel seven ten
-2.08693	cancel seven eleven
-2.08693	cancel seven twelve
-0.3162605	cancel seven o
-1.770206	cancel seven am
-1.770206	cancel seven pm
-2.087096	cancel seven thirteen
-2.087096	cancel seven fourteen
-2.087096	cancel seven fifteen
-2.087096	cancel seven sixteen
-2.087096	cancel seven seventeen
-2.087096	cancel seven eighteen
-2.087096	cancel seven nineteen
-1.087096	cancel seven twenty
-1.087096	cancel seven thirty
-1.087096	cancel seven forty
-1.087096	cancel seven fifty
-2.086794	cancel eight one
-2.086794	cancel eight two
-2.086794	cancel eight three
-2.086794	cancel eight four
-2.086794	cancel eight five
-2.086794	cancel eight six
-2.086794	cancel eight seven
-2.086794	cancel eight eight
-2.086794	cancel eight nine
-2.08693	cancel eight ten
-2.08693	cancel eight eleven
-2.08693	cancel eight twelve
-0.3162605	cancel eight o
-1.770206	cancel eight am
-1.770206	cancel eight pm
-2.087096	cancel eight thirteen
-2.087096	cancel eight fourteen
-2.087096	cancel eight fifteen
-2.087096	cancel eight sixteen
-2.087096	cancel eight seventeen
-2.087096	cancel eight eighteen
-2.087096	cancel eight nineteen
-1.087096	cancel eight twenty
-1.087096	cancel eight thirty
-1.087096	cancel eight forty
-1.087096	cancel eight fifty
-2.086794	cancel nine one
-2.086794	cancel nine two
-2.086794	cancel nine three
-2.086794	cancel nine four
-2.086794	cancel nine five
-2.086794	cancel nine six
-2.086794	cancel nine seven
-2.086794	cancel nine eight
-2.086794	cancel nine nine
-2.08693	cancel nine ten
-2.08693	cancel nine eleven
-2.08693	cancel nine twelve
-0.3162605	cancel nine o
-1.770206	cancel nine am
-1.770206	cancel nine pm
-2.087096	cancel nine thirteen
-2.087096	cancel nine fourteen
-2.087096	cancel nine fifteen
-2.087096	cancel nine sixteen
-2.087096	cancel nine seventeen
-2.087096	cancel nine eighteen
-2.087096	cancel nine nineteen
-1.087096	cancel nine twenty
-1.087096	cancel nine thirty
-1.087096	cancel nine forty
-1.087096	cancel nine fifty
-2.079015	cancel ten one
-2.079015	cancel ten two
-2.079015	cancel ten three
-2.079015	cancel ten four
-2.079015	cancel ten five
-2.079015	cancel ten six
-2.079015	cancel ten seven
-2.079015	cancel ten eight
-2.079015	cancel ten nine
-2.079237	cancel ten ten
-2.079237	cancel ten eleven
-2.079237	cancel ten twelve
-0.3086852	cancel ten o
-2.070967	cancel ten am
-2.070967	cancel ten pm
-2.079509	cancel ten thirteen
-2.079509	cancel ten fourteen
-2.079509	cancel ten fifteen
-2.079509	cancel ten sixteen
-2.079509	cancel ten seventeen
-2.079509	cancel ten eighteen
-2.079509	cancel ten nineteen
-1.079509	cancel ten twenty
-1.079509	cancel ten thirty
-1.079509	cancel ten forty
-1.079509	cancel ten fifty
-2.079015	cancel eleven one
-2.079015	cancel eleven two
-2.079015	cancel eleven three
-2.079015	cancel eleven four
-2.079015	cancel eleven five
-2.079015	cancel eleven six
-2.079015	cancel eleven seven
-2.079015	cancel eleven eight
-2.079015	cancel eleven nine
-2.079237	cancel eleven ten
-2.079237	cancel eleven eleven
-2.079237	cancel eleven twelve
-0.3086852	cancel eleven o
-2.070967	cancel eleven am
-2.070967	cancel eleven pm
-2.079509	cancel eleven thirteen
-2.079509	cancel eleven fourteen
-2.079509	cancel eleven fifteen
-2.079509	cancel eleven sixteen
-2.079509	cancel eleven seventeen
-2.079509	cancel eleven eighteen
-2.079509	cancel eleven nineteen
-1.079509	cancel eleven twenty
-1.079509	cancel eleven thirty
-1.079509	cancel eleven forty
-1.079509	cancel eleven fifty
-2.079015	cancel twelve one
-2.079015	cancel twelve two
-2.079015	cancel twelve three
-2.079015	cancel twelve four
-2.079015	cancel twelve five
-2.079015	cancel twelve six
-2.079015	cancel twelve seven
-2.079015	cancel twelve eight
-2.079015	cancel twelve nine
-2.079237	cancel twelve ten
-2.079237	cancel twelve eleven
-2.079237	cancel twelve twelve
-0.3086852	cancel twelve o
-2.070967	cancel twelve am
-2.070967	cancel twelve pm
-2.079509	cancel twelve thirteen
-2.079509	cancel twelve fourteen
-2.079509	cancel twelve fifteen
-2.079509	cancel twelve sixteen
-2.079509	cancel twelve seventeen
-2.079509	cancel twelve eighteen
-2.079509	cancel twelve nineteen
-1.079509	cancel twelve twenty
-1.079509	cancel twelve thirty
-1.079509	cancel twelve forty
