
\data\
ngram 1=82
ngram 2=595
ngram 3=2207

\1-grams:
-99	<s>	-2.253813
-0.8998116	</s>
-3.825505	what	-0.3560486
-4.421822	tell	-0.2934225
-4.421822	what's	-0.2934225
-3.944701	time	-0.3887949
-4.421822	me	-0.2934225
-2.988936	the	-0.6754356
-3.825505	is	-0.4631728
-4.124612	it	-0.4644349
-4.429497	day	-0.2896696
-4.429497	date	-0.2896696
-0.9049022	set	-2.803157
-0.9522197	alarm	-3.153561
-0.9065374	for	-2.141336
-1.705011	one	-1.263407
-1.705011	two	-1.263407
-1.705011	three	-1.263407
-1.705011	four	-1.263407
-1.705011	five	-1.263407
-1.705011	six	-1.263407
-1.705011	seven	-1.263407
-1.705011	eight	-1.263407
-1.705011	nine	-1.263407
-1.94387	ten	-1.041576
-1.94387	eleven	-1.041576
-1.94387	twelve	-1.041576
-1.257327	o	-1.794441
-1.253662	am	-3.153115
-1.253662	pm	-3.153115
-2.680684	thirteen	-1.065839
-2.680684	fourteen	-1.065839
-2.680684	fifteen	-1.065839
-2.680684	sixteen	-1.065839
-2.680684	seventeen	-1.065839
-2.680684	eighteen	-1.065839
-2.680684	nineteen	-1.065839
-1.680684	twenty	-1.590947
-1.680684	thirty	-1.590947
-1.680684	forty	-1.590947
-1.680684	fifty	-1.590947
-4.452523	stop	-0.2786142
-4.452523	snooze	-0.2786142
-3.959916	cancel	-0.2860156
-4.429497	get	-0.2896696
-4.128467	weather	-0.461907
-3.944701	play	-0.2934225
-4.421822	firework	-0.2934225
-4.421822	hello	-0.2934225
-4.421822	happy	-0.2934225
-4.421822	katy	-0.2934225
-4.421822	adele	-0.2934225
-4.421822	pharrell	-0.2934225
-4.421822	perry	-0.2934225
-4.421822	williams	-0.2934225
-3.725905	on	-0.5310021
-3.944701	spot	-0.5905982
-3.944701	if	-0.5905982
-3.944701	eye	-0.5905982
-4.128467	pause	-0.2896696
-3.721252	song	-0.7667229
-4.128467	skip	-0.2896696
-4.113116	rewind	-0.2972093
-4.113116	restart	-0.2972093
-4.113116	start	-0.4720195
-4.113116	over	-0.2972093
-3.827437	turn	-0.680648
-3.070257	light	-0.6125981
-3.827437	lights	-0.354969
-4.128467	off	-0.461907
-4.128467	brighten	-0.461907
-4.128467	dim	-0.461907
-3.630878	make	-0.6001426
-3.630878	to	-0.4754173
-3.630878	red	-0.842906
-3.630878	green	-0.842906
-3.630878	blue	-0.842906
-2.20455	a	-2.204641
-1.90094	timer	-2.207222
-2.380641	seconds	-2.029903
-2.380641	minutes	-2.029903
-2.380641	hours	-2.029903

\2-grams:
-2.927815	<s> what	-0.3560487
-3.524131	<s> tell	-0.2934225
-3.524131	<s> what's	-0.2934225
-0.007211762	<s> set	-2.728352
-3.554833	<s> stop	-0.2786142
-3.554833	<s> snooze	-0.2786142
-3.062226	<s> cancel	-0.2860157
-3.531807	<s> get	-0.2896696
-3.04701	<s> play	-0.2934225
-3.230777	<s> pause	-0.2896697
-3.230777	<s> skip	-0.2896697
-3.215426	<s> rewind	-0.2972093
-3.215426	<s> restart	-0.2972093
-3.215426	<s> start	-0.4720194
-2.929747	<s> turn	-0.6806479
-3.230777	<s> brighten	-0.461907
-3.230777	<s> dim	-0.461907
-2.733188	<s> make	-0.6001426
-0.8483672	what time	-0.2934225
-0.5550631	what is	-0.4619071
-0.8561447	what day	-0.2896696
-0.3087561	tell me	-0.2934225
-0.3083118	what's the	-0.2934225
-0.3508832	time </s>
-0.7050411	time is	-0.2934225
-0.3083118	me the	-0.2934225
-1.234675	the time	-0.466948
-1.54344	the date	-0.2896696
-1.543321	the weather	-0.2896696
-0.8351951	the song	-0.7667229
-0.4151415	the light	-0.450262
-0.9413804	the lights	-0.3549689
-1.50505	the timer	-0.2896696
-0.4857292	is the	-0.2896696
-0.4823101	is it	-0.4644349
-0.154894	it </s>
-0.3126271	day is	-0.2896696
-0.2585404	date </s>
-2.726287	set the	-0.842906
-0.04832821	set alarm	-3.453992
-2.726351	set light	-0.3964068
-1.300246	set a	-2.204641
-1.30016	set timer	-2.204641
-2.984725	alarm </s>
-0.0006790944	alarm for	-2.376494
-1.117831	for one	-0.9710905
-1.117831	for two	-0.9710905
-1.117831	for three	-0.9710905
-1.117831	for four	-0.9710905
-1.117831	for five	-0.9710905
-1.117831	for six	-0.9710905
-1.117831	for seven	-0.9710905
-1.117831	for eight	-0.9710905
-1.117831	for nine	-0.9710905
-1.118175	for ten	-0.9711086
-1.118175	for eleven	-0.9711086
-1.118175	for twelve	-0.9711086
-2.767138	for thirteen	-0.4469688
-2.767138	for fourteen	-0.4469688
-2.767138	for fifteen	-0.4469688
-2.767138	for sixteen	-0.4469688
-2.767138	for seventeen	-0.4469688
-2.767138	for eighteen	-0.4469688
-2.767138	for nineteen	-0.4469688
-1.767138	for twenty	-0.7401195
-1.767138	for thirty	-0.7401195
-1.767138	for forty	-0.7401195
-1.767138	for fifty	-0.7401195
-2.317032	one one	-0.3000716
-2.317032	one two	-0.3000716
-2.317032	one three	-0.3000716
-2.317032	one four	-0.3000716
-2.317032	one five	-0.3000716
-2.317032	one six	-0.3000716
-2.317032	one seven	-0.3000716
-2.317032	one eight	-0.3000716
-2.317032	one nine	-0.3000716
-2.360098	one ten	-0.3000717
-2.360098	one eleven	-0.3000717
-2.360098	one twelve	-0.3000717
-0.6499584	one o	-0.7858783
-0.6391516	one am	-2.084457
-0.6391516	one pm	-2.084457
-2.4137	one thirteen	-0.3000717
-2.4137	one fourteen	-0.3000717
-2.4137	one fifteen	-0.3000717
-2.4137	one sixteen	-0.3000717
-2.4137	one seventeen	-0.3000717
-2.4137	one eighteen	-0.3000717
-2.4137	one nineteen	-0.3000717
-1.4137	one twenty	-0.4487367
-1.4137	one thirty	-0.4487367
-1.4137	one forty	-0.4487367
-1.4137	one fifty	-0.4487367
-1.766071	one seconds	-0.999735
-1.766071	one minutes	-0.999735
-1.766071	one hours	-0.999735
-2.317032	two one	-0.3000716
-2.317032	two two	-0.3000716
-2.317032	two three	-0.3000716
-2.317032	two four	-0.3000716
-2.317032	two five	-0.3000716
-2.317032	two six	-0.3000716
-2.317032	two seven	-0.3000716
-2.317032	two eight	-0.3000716
-2.317032	two nine	-0.3000716
-2.360098	two ten	-0.3000717
-2.360098	two eleven	-0.3000717
-2.360098	two twelve	-0.3000717
-0.6499584	two o	-0.7858783
-0.6391516	two am	-2.084457
-0.6391516	two pm	-2.084457
-2.4137	two thirteen	-0.3000717
-2.4137	two fourteen	-0.3000717
-2.4137	two fifteen	-0.3000717
-2.4137	two sixteen	-0.3000717
-2.4137	two seventeen	-0.3000717
-2.4137	two eighteen	-0.3000717
-2.4137	two nineteen	-0.3000717
-1.4137	two twenty	-0.4487367
-1.4137	two thirty	-0.4487367
-1.4137	two forty	-0.4487367
-1.4137	two fifty	-0.4487367
-1.766071	two seconds	-0.999735
-1.766071	two minutes	-0.999735
-1.766071	two hours	-0.999735
-2.317032	three one	-0.3000716
-2.317032	three two	-0.3000716
-2.317032	three three	-0.3000716
-2.317032	three four	-0.3000716
-2.317032	three five	-0.3000716
-2.317032	three six	-0.3000716
-2.317032	three seven	-0.3000716
-2.317032	three eight	-0.3000716
-2.317032	three nine	-0.3000716
-2.360098	three ten	-0.3000717
-2.360098	three eleven	-0.3000717
-2.360098	three twelve	-0.3000717
-0.6499584	three o	-0.7858783
-0.6391516	three am	-2.084457
-0.6391516	three pm	-2.084457
-2.4137	three thirteen	-0.3000717
-2.4137	three fourteen	-0.3000717
-2.4137	three fifteen	-0.3000717
-2.4137	three sixteen	-0.3000717
-2.4137	three seventeen	-0.3000717
-2.4137	three eighteen	-0.3000717
-2.4137	three nineteen	-0.3000717
-1.4137	three twenty	-0.4487367
-1.4137	three thirty	-0.4487367
-1.4137	three forty	-0.4487367
-1.4137	three fifty	-0.4487367
-1.766071	three seconds	-0.999735
-1.766071	three minutes	-0.999735
-1.766071	three hours	-0.999735
-2.317032	four one	-0.3000716
-2.317032	four two	-0.3000716
-2.317032	four three	-0.3000716
-2.317032	four four	-0.3000716
-2.317032	four five	-0.3000716
-2.317032	four six	-0.3000716
-2.317032	four seven	-0.3000716
-2.317032	four eight	-0.3000716
-2.317032	four nine	-0.3000716
-2.360098	four ten	-0.3000717
-2.360098	four eleven	-0.3000717
-2.360098	four twelve	-0.3000717
-0.6499584	four o	-0.7858783
-0.6391516	four am	-2.084457
-0.6391516	four pm	-2.084457
-2.4137	four thirteen	-0.3000717
-2.4137	four fourteen	-0.3000717
-2.4137	four fifteen	-0.3000717
-2.4137	four sixteen	-0.3000717
-2.4137	four seventeen	-0.3000717
-2.4137	four eighteen	-0.3000717
-2.4137	four nineteen	-0.3000717
-1.4137	four twenty	-0.4487367
-1.4137	four thirty	-0.4487367
-1.4137	four forty	-0.4487367
-1.4137	four fifty	-0.4487367
-1.766071	four seconds	-0.999735
-1.766071	four minutes	-0.999735
-1.766071	four hours	-0.999735
-2.317032	five one	-0.3000716
-2.317032	five two	-0.3000716
-2.317032	five three	-0.3000716
-2.317032	five four	-0.3000716
-2.317032	five five	-0.3000716
-2.317032	five six	-0.3000716
-2.317032	five seven	-0.3000716
-2.317032	five eight	-0.3000716
-2.317032	five nine	-0.3000716
-2.360098	five ten	-0.3000717
-2.360098	five eleven	-0.3000717
-2.360098	five twelve	-0.3000717
-0.6499584	five o	-0.7858783
-0.6391516	five am	-2.084457
-0.6391516	five pm	-2.084457
-2.4137	five thirteen	-0.3000717
-2.4137	five fourteen	-0.3000717
-2.4137	five fifteen	-0.3000717
-2.4137	five sixteen	-0.3000717
-2.4137	five seventeen	-0.3000717
-2.4137	five eighteen	-0.3000717
-2.4137	five nineteen	-0.3000717
-1.4137	five twenty	-0.4487367
-1.4137	five thirty	-0.4487367
-1.4137	five forty	-0.4487367
-1.4137	five fifty	-0.4487367
-1.766071	five seconds	-0.999735
-1.766071	five minutes	-0.999735
-1.766071	five hours	-0.999735
-2.317032	six one	-0.3000716
-2.317032	six two	-0.3000716
-2.317032	six three	-0.3000716
-2.317032	six four	-0.3000716
-2.317032	six five	-0.3000716
-2.317032	six six	-0.3000716
-2.317032	six seven	-0.3000716
-2.317032	six eight	-0.3000716
-2.317032	six nine	-0.3000716
-2.360098	six ten	-0.3000717
-2.360098	six eleven	-0.3000717
-2.360098	six twelve	-0.3000717
-0.6499584	six o	-0.7858783
-0.6391516	six am	-2.084457
-0.6391516	six pm	-2.084457
-2.4137	six thirteen	-0.3000717
-2.4137	six fourteen	-0.3000717
-2.4137	six fifteen	-0.3000717
-2.4137	six sixteen	-0.3000717
-2.4137	six seventeen	-0.3000717
-2.4137	six eighteen	-0.3000717
-2.4137	six nineteen	-0.3000717
-1.4137	six twenty	-0.4487367
-1.4137	six thirty	-0.4487367
-1.4137	six forty	-0.4487367
-1.4137	six fifty	-0.4487367
-1.766071	six seconds	-0.999735
-1.766071	six minutes	-0.999735
-1.766071	six hours	-0.999735
-2.317032	seven one	-0.3000716
-2.317032	seven two	-0.3000716
-2.317032	seven three	-0.3000716
-2.317032	seven four	-0.3000716
-2.317032	seven five	-0.3000716
-2.317032	seven six	-0.3000716
-2.317032	seven seven	-0.3000716
-2.317032	seven eight	-0.3000716
-2.317032	seven nine	-0.3000716
-2.360098	seven ten	-0.3000717
-2.360098	seven eleven	-0.3000717
-2.360098	seven twelve	-0.3000717
-0.6499584	seven o	-0.7858783
-0.6391516	seven am	-2.084457
-0.6391516	seven pm	-2.084457
-2.4137	seven thirteen	-0.3000717
-2.4137	seven fourteen	-0.3000717
-2.4137	seven fifteen	-0.3000717
-2.4137	seven sixteen	-0.3000717
-2.4137	seven seventeen	-0.3000717
-2.4137	seven eighteen	-0.3000717
-2.4137	seven nineteen	-0.3000717
-1.4137	seven twenty	-0.4487367
-1.4137	seven thirty	-0.4487367
-1.4137	seven forty	-0.4487367
-1.4137	seven fifty	-0.4487367
-1.766071	seven seconds	-0.999735
-1.766071	seven minutes	-0.999735
-1.766071	seven hours	-0.999735
-2.317032	eight one	-0.3000716
-2.317032	eight two	-0.3000716
-2.317032	eight three	-0.3000716
-2.317032	eight four	-0.3000716
-2.317032	eight five	-0.3000716
-2.317032	eight six	-0.3000716
-2.317032	eight seven	-0.3000716
-2.317032	eight eight	-0.3000716
-2.317032	eight nine	-0.3000716
-2.360098	eight ten	-0.3000717
-2.360098	eight eleven	-0.3000717
-2.360098	eight twelve	-0.3000717
-0.6499584	eight o	-0.7858783
-0.6391516	eight am	-2.084457
-0.6391516	eight pm	-2.084457
-2.4137	eight thirteen	-0.3000717
-2.4137	eight fourteen	-0.3000717
-2.4137	eight fifteen	-0.3000717
-2.4137	eight sixteen	-0.3000717
-2.4137	eight seventeen	-0.3000717
-2.4137	eight eighteen	-0.3000717
-2.4137	eight nineteen	-0.3000717
-1.4137	eight twenty	-0.4487367
-1.4137	eight thirty	-0.4487367
-1.4137	eight forty	-0.4487367
-1.4137	eight fifty	-0.4487367
-1.766071	eight seconds	-0.999735
-1.766071	eight minutes	-0.999735
-1.766071	eight hours	-0.999735
-2.317032	nine one	-0.3000716
-2.317032	nine two	-0.3000716
-2.317032	nine three	-0.3000716
-2.317032	nine four	-0.3000716
-2.317032	nine five	-0.3000716
-2.317032	nine six	-0.3000716
-2.317032	nine seven	-0.3000716
-2.317032	nine eight	-0.3000716
-2.317032	nine nine	-0.3000716
-2.360098	nine ten	-0.3000717
-2.360098	nine eleven	-0.3000717
-2.360098	nine twelve	-0.3000717
-0.6499584	nine o	-0.7858783
-0.6391516	nine am	-2.084457
-0.6391516	nine pm	-2.084457
-2.4137	nine thirteen	-0.3000717
-2.4137	nine fourteen	-0.3000717
-2.4137	nine fifteen	-0.3000717
-2.4137	nine sixteen	-0.3000717
-2.4137	nine seventeen	-0.3000717
-2.4137	nine eighteen	-0.3000717
-2.4137	nine nineteen	-0.3000717
-1.4137	nine twenty	-0.4487367
-1.4137	nine thirty	-0.4487367
-1.4137	nine forty	-0.4487367
-1.4137	nine fifty	-0.4487367
-1.766071	nine seconds	-0.999735
-1.766071	nine minutes	-0.999735
-1.766071	nine hours	-0.999735
-2.095198	ten one	-0.3000716
-2.095198	ten two	-0.3000716
-2.095198	ten three	-0.3000716
-2.095198	ten four	-0.3000716
-2.095198	ten five	-0.3000716
-2.095198	ten six	-0.3000716
-2.095198	ten seven	-0.3000716
-2.095198	ten eight	-0.3000716
-2.095198	ten nine	-0.3000716
-2.138264	ten ten	-0.3000717
-2.138264	ten eleven	-0.3000717
-2.138264	ten twelve	-0.3000717
-0.4281243	ten o	-0.7858783
-1.080616	ten am	-1.413128
-1.080616	ten pm	-1.413128
-2.191866	ten thirteen	-0.3000717
-2.191866	ten fourteen	-0.3000717
-2.191866	ten fifteen	-0.3000717
-2.191866	ten sixteen	-0.3000717
-2.191866	ten seventeen	-0.3000717
-2.191866	ten eighteen	-0.3000717
-2.191866	ten nineteen	-0.3000717
-1.191866	ten twenty	-0.4487367
-1.191866	ten thirty	-0.4487367
-1.191866	ten forty	-0.4487367
-1.191866	ten fifty	-0.4487367
-2.220788	ten seconds	-0.4469688
-2.220788	ten minutes	-0.4469688
-2.220788	ten hours	-0.4469688
-2.095198	eleven one	-0.3000716
-2.095198	eleven two	-0.3000716
-2.095198	eleven three	-0.3000716
-2.095198	eleven four	-0.3000716
-2.095198	eleven five	-0.3000716
-2.095198	eleven six	-0.3000716
-2.095198	eleven seven	-0.3000716
-2.095198	eleven eight	-0.3000716
-2.095198	eleven nine	-0.3000716
-2.138264	eleven ten	-0.3000717
-2.138264	eleven eleven	-0.3000717
-2.138264	eleven twelve	-0.3000717
-0.4281243	eleven o	-0.7858783
-1.080616	eleven am	-1.413128
-1.080616	eleven pm	-1.413128
-2.191866	eleven thirteen	-0.3000717
-2.191866	eleven fourteen	-0.3000717
-2.191866	eleven fifteen	-0.3000717
-2.191866	eleven sixteen	-0.3000717
-2.191866	eleven seventeen	-0.3000717
-2.191866	eleven eighteen	-0.3000717
-2.191866	eleven nineteen	-0.3000717
-1.191866	eleven twenty	-0.4487367
-1.191866	eleven thirty	-0.4487367
-1.191866	eleven forty	-0.4487367
-1.191866	eleven fifty	-0.4487367
-2.220788	eleven seconds	-0.4469688
-2.220788	eleven minutes	-0.4469688
-2.220788	eleven hours	-0.4469688
-2.095198	twelve one	-0.3000716
-2.095198	twelve two	-0.3000716
-2.095198	twelve three	-0.3000716
-2.095198	twelve four	-0.3000716
-2.095198	twelve five	-0.3000716
-2.095198	twelve six	-0.3000716
-2.095198	twelve seven	-0.3000716
-2.095198	twelve eight	-0.3000716
-2.095198	twelve nine	-0.3000716
-2.138264	twelve ten	-0.3000717
-2.138264	twelve eleven	-0.3000717
-2.138264	twelve twelve	-0.3000717
-0.4281243	twelve o	-0.7858783
-1.080616	twelve am	-1.413128
-1.080616	twelve pm	-1.413128
-2.191866	twelve thirteen	-0.3000717
-2.191866	twelve fourteen	-0.3000717
-2.191866	twelve fifteen	-0.3000717
-2.191866	twelve sixteen	-0.3000717
-2.191866	twelve seventeen	-0.3000717
-2.191866	twelve eighteen	-0.3000717
-2.191866	twelve nineteen	-0.3000717
-1.191866	twelve twenty	-0.4487367
-1.191866	twelve thirty	-0.4487367
-1.191866	twelve forty	-0.4487367
-1.191866	twelve fifty	-0.4487367
-2.220788	twelve seconds	-0.4469688
-2.220788	twelve minutes	-0.4469688
-2.220788	twelve hours	-0.4469688
-1.769712	o one	-1.112173
-1.769712	o two	-1.112173
-1.769712	o three	-1.112173
-1.769712	o four	-1.112173
-1.769712	o five	-1.112173
-1.769712	o six	-1.112173
-1.769712	o seven	-1.112173
-1.769712	o eight	-1.112173
-1.769712	o nine	-1.112173
-1.773149	o ten	-1.112172
-1.773149	o eleven	-1.112172
-1.773149	o twelve	-1.112172
-1.777009	o thirteen	-1.112172
-1.777009	o fourteen	-1.112172
-1.777009	o fifteen	-1.112172
-1.777009	o sixteen	-1.112172
-1.777009	o seventeen	-1.112172
-1.777009	o eighteen	-1.112172
-1.777009	o nineteen	-1.112172
-0.7770092	o twenty	-1.356461
-0.7770092	o thirty	-1.356461
-0.7770092	o forty	-1.356461
-0.7770092	o fifty	-1.356461
-0.0002668951	am </s>
-0.0002668951	pm </s>
-0.3814784	thirteen am	-1.396098
-0.3814784	thirteen pm	-1.396098
-1.504835	thirteen seconds	-0.4469688
-1.504835	thirteen minutes	-0.4469688
-1.504835	thirteen hours	-0.4469688
-0.3814784	fourteen am	-1.396098
-0.3814784	fourteen pm	-1.396098
-1.504835	fourteen seconds	-0.4469688
-1.504835	fourteen minutes	-0.4469688
-1.504835	fourteen hours	-0.4469688
-0.3814784	fifteen am	-1.396098
-0.3814784	fifteen pm	-1.396098
-1.504835	fifteen seconds	-0.4469688
-1.504835	fifteen minutes	-0.4469688
-1.504835	fifteen hours	-0.4469688
-0.3814784	sixteen am	-1.396098
-0.3814784	sixteen pm	-1.396098
-1.504835	sixteen seconds	-0.4469688
-1.504835	sixteen minutes	-0.4469688
-1.504835	sixteen hours	-0.4469688
-0.3814784	seventeen am	-1.396098
-0.3814784	seventeen pm	-1.396098
-1.504835	seventeen seconds	-0.4469688
-1.504835	seventeen minutes	-0.4469688
-1.504835	seventeen hours	-0.4469688
-0.3814784	eighteen am	-1.396098
-0.3814784	eighteen pm	-1.396098
-1.504835	eighteen seconds	-0.4469688
-1.504835	eighteen minutes	-0.4469688
-1.504835	eighteen hours	-0.4469688
-0.3814784	nineteen am	-1.396098
-0.3814784	nineteen pm	-1.396098
-1.504835	nineteen seconds	-0.4469688
-1.504835	nineteen minutes	-0.4469688
-1.504835	nineteen hours	-0.4469688
-1.009035	twenty one	-1.065839
-1.009035	twenty two	-1.065839
-1.009035	twenty three	-1.065839
-1.009035	twenty four	-1.065839
-1.009035	twenty five	-1.065839
-1.009035	twenty six	-1.065839
-1.009035	twenty seven	-1.065839
-1.009035	twenty eight	-1.065839
-1.009035	twenty nine	-1.065839
-1.344816	twenty am	-1.396098
-1.344816	twenty pm	-1.396098
-2.468246	twenty seconds	-0.4469688
-2.468246	twenty minutes	-0.4469688
-2.468246	twenty hours	-0.4469688
-1.009035	thirty one	-1.065839
-1.009035	thirty two	-1.065839
-1.009035	thirty three	-1.065839
-1.009035	thirty four	-1.065839
-1.009035	thirty five	-1.065839
-1.009035	thirty six	-1.065839
-1.009035	thirty seven	-1.065839
-1.009035	thirty eight	-1.065839
-1.009035	thirty nine	-1.065839
-1.344816	thirty am	-1.396098
-1.344816	thirty pm	-1.396098
-2.468246	thirty seconds	-0.4469688
-2.468246	thirty minutes	-0.4469688
-2.468246	thirty hours	-0.4469688
-1.009035	forty one	-1.065839
-1.009035	forty two	-1.065839
-1.009035	forty three	-1.065839
-1.009035	forty four	-1.065839
-1.009035	forty five	-1.065839
-1.009035	forty six	-1.065839
-1.009035	forty seven	-1.065839
-1.009035	forty eight	-1.065839
-1.009035	forty nine	-1.065839
-1.344816	forty am	-1.396098
-1.344816	forty pm	-1.396098
-2.468246	forty seconds	-0.4469688
-2.468246	forty minutes	-0.4469688
-2.468246	forty hours	-0.4469688
-1.009035	fifty one	-1.065839
-1.009035	fifty two	-1.065839
-1.009035	fifty three	-1.065839
-1.009035	fifty four	-1.065839
-1.009035	fifty five	-1.065839
-1.009035	fifty six	-1.065839
-1.009035	fifty seven	-1.065839
-1.009035	fifty eight	-1.065839
-1.009035	fifty nine	-1.065839
-1.344816	fifty am	-1.396098
-1.344816	fifty pm	-1.396098
-2.468246	fifty seconds	-0.4469688
-2.468246	fifty minutes	-0.4469688
-2.468246	fifty hours	-0.4469688
-0.2738544	stop alarm	-0.2786142
-0.2738544	snooze alarm	-0.2786142
-0.7847559	cancel the	-0.2896696
-0.6717233	cancel alarm	-0.2786142
-0.7692389	cancel timer	-0.2896696
-0.3126615	get weather	-0.2896696
-0.1559819	weather </s>
-0.7858433	play firework	-0.2934225
-0.7858433	play hello	-0.2934225
-0.7858433	play happy	-0.2934225
-0.3087561	firework katy	-0.2934225
-0.3087561	hello adele	-0.2934225
-0.3087561	happy pharrell	-0.2934225
-0.3087561	katy perry	-0.2934225
-0.3086886	adele on	-0.2934225
-0.3087561	pharrell williams	-0.2934225
-0.3086886	perry on	-0.2934225
-0.3086886	williams on	-0.2934225
-0.4998728	on </s>
-0.3702274	on spot	-0.5905982
-0.1288105	spot if	-0.5905982
-0.1288105	if eye	-0.5905982
-0.1103381	eye </s>
-0.5114257	pause </s>
-0.612787	pause the	-0.2896696
-0.07035621	song </s>
-0.5114257	skip </s>
-0.612787	skip the	-0.2896696
-0.5067916	rewind </s>
-0.6050087	rewind the	-0.2972093
-0.5067916	restart </s>
-0.6050087	restart the	-0.2972093
-0.1786478	start over	-0.2972093
-0.5067916	over </s>
-0.6050087	over the	-0.2972093
-0.1014965	turn the	-0.461907
-1.013908	light </s>
-1.48012	light on	-0.2896696
-1.480484	light off	-0.2896696
-0.681984	light to	-0.4754172
-0.8580156	light red	-0.6969245
-0.8580156	light green	-0.6969245
-0.8580156	light blue	-0.6969245
-0.4751918	lights </s>
-0.854858	lights on	-0.2896696
-0.8550139	lights off	-0.2896696
-0.1559819	off </s>
-0.1836682	brighten the	-0.2896696
-0.1836682	dim the	-0.2896696
-0.4263111	make the	-0.6001426
-0.4263621	make light	-0.2997526
-0.6539137	to red	-0.4754173
-0.6539137	to green	-0.4754173
-0.6539137	to blue	-0.4754173
-0.05823846	red </s>
-0.05823846	green </s>
-0.05823846	blue </s>
-0.002685314	a timer	-2.204641
-2.176075	timer </s>
-0.004944827	timer for	-1.171723
-0.003557924	seconds </s>
-0.003557924	minutes </s>
-0.003557924	hours </s>

\3-grams:
-0.6899586	<s> what time
-0.3966194	<s> what is
-0.6976652	<s> what day
-0.1301254	<s> tell me
-0.1299756	<s> what's the
-2.725977	<s> set the
-0.04773073	<s> set alarm
-2.725977	<s> set light
-1.299649	<s> set a
-1.299649	<s> set timer
-0.1227692	<s> stop alarm
-0.1227692	<s> snooze alarm
-0.6045285	<s> cancel the
-0.5761131	<s> cancel alarm
-0.5991624	<s> cancel timer
-0.1327728	<s> get weather
-0.6072352	<s> play firework
-0.6072352	<s> play hello
-0.6072352	<s> play happy
-0.3963531	<s> pause </s>
-0.4334958	<s> pause the
-0.3963531	<s> skip </s>
-0.4334958	<s> skip the
-0.3927307	<s> rewind </s>
-0.4282421	<s> rewind the
-0.3927307	<s> restart </s>
-0.4282421	<s> restart the
-0.05244069	<s> start over
-0.01930453	<s> turn the
-0.05505019	<s> brighten the
-0.05505019	<s> dim the
-0.3292556	<s> make the
-0.3292659	<s> make light
-0.2280314	what time is
-0.114867	what is the
-0.1327612	what day is
-0.1299756	tell me the
-0.283324	what's the time
-0.1812716	time is it
-0.283324	me the time
-0.09104335	the time </s>
-0.1136499	the date </s>
-0.07307532	the weather </s>
-0.01125884	the song </s>
-0.8846399	the light </s>
-1.223445	the light on
-1.223516	the light off
-0.6481512	the light to
-0.8242228	the light red
-0.8242228	the light green
-0.8242228	the light blue
-0.3695161	the lights </s>
-0.6961917	the lights on
-0.6962395	the lights off
-0.3096532	the timer </s>
-0.5882798	is the date
-0.588273	is the weather
-0.04718812	is it </s>
-0.1832284	day is it
-0.04018535	set the light
-2.385605e-07	set alarm for
-0.4170532	set light to
-0.808469	set light red
-0.808469	set light green
-0.808469	set light blue
-1.67117e-05	set a timer
-3.069414e-05	set timer for
-1.079337	alarm for one
-1.079337	alarm for two
-1.079337	alarm for three
-1.079337	alarm for four
-1.079337	alarm for five
-1.079337	alarm for six
-1.079337	alarm for seven
-1.079337	alarm for eight
-1.079337	alarm for nine
-1.079338	alarm for ten
-1.079338	alarm for eleven
-1.079338	alarm for twelve
-2.104955	for one one
-2.104955	for one two
-2.104955	for one three
-2.104955	for one four
-2.104955	for one five
-2.104955	for one six
-2.104955	for one seven
-2.104955	for one eight
-2.104955	for one nine
-2.107652	for one ten
-2.107652	for one eleven
-2.107652	for one twelve
-0.3401992	for one o
-1.549745	for one am
-1.549745	for one pm
-2.110676	for one thirteen
-2.110676	for one fourteen
-2.110676	for one fifteen
-2.110676	for one sixteen
-2.110676	for one seventeen
-2.110676	for one eighteen
-2.110676	for one nineteen
-1.110676	for one twenty
-1.110676	for one thirty
-1.110676	for one forty
-1.110676	for one fifty
-2.072601	for one seconds
-2.072601	for one minutes
-2.072601	for one hours
-2.104955	for two one
-2.104955	for two two
-2.104955	for two three
-2.104955	for two four
-2.104955	for two five
-2.104955	for two six
-2.104955	for two seven
-2.104955	for two eight
-2.104955	for two nine
-2.107652	for two ten
-2.107652	for two eleven
-2.107652	for two twelve
-0.3401992	for two o
-1.549745	for two am
-1.549745	for two pm
-2.110676	for two thirteen
-2.110676	for two fourteen
-2.110676	for two fifteen
-2.110676	for two sixteen
-2.110676	for two seventeen
-2.110676	for two eighteen
-2.110676	for two nineteen
-1.110676	for two twenty
-1.110676	for two thirty
-1.110676	for two forty
-1.110676	for two fifty
-2.072601	for two seconds
-2.072601	for two minutes
-2.072601	for two hours
-2.104955	for three one
-2.104955	for three two
-2.104955	for three three
-2.104955	for three four
-2.104955	for three five
-2.104955	for three six
-2.104955	for three seven
-2.104955	for three eight
-2.104955	for three nine
-2.107652	for three ten
-2.107652	for three eleven
-2.107652	for three twelve
-0.3401992	for three o
-1.549745	for three am
-1.549745	for three pm
-2.110676	for three thirteen
-2.110676	for three fourteen
-2.110676	for three fifteen
-2.110676	for three sixteen
-2.110676	for three seventeen
-2.110676	for three eighteen
-2.110676	for three nineteen
-1.110676	for three twenty
-1.110676	for three thirty
-1.110676	for three forty
-1.110676	for three fifty
-2.072601	for three seconds
-2.072601	for three minutes
-2.072601	for three hours
-2.104955	for four one
-2.104955	for four two
-2.104955	for four three
-2.104955	for four four
-2.104955	for four five
-2.104955	for four six
-2.104955	for four seven
-2.104955	for four eight
-2.104955	for four nine
-2.107652	for four ten
-2.107652	for four eleven
-2.107652	for four twelve
-0.3401992	for four o
-1.549745	for four am
-1.549745	for four pm
-2.110676	for four thirteen
-2.110676	for four fourteen
-2.110676	for four fifteen
-2.110676	for four sixteen
-2.110676	for four seventeen
-2.110676	for four eighteen
-2.110676	for four nineteen
-1.110676	for four twenty
-1.110676	for four thirty
-1.110676	for four forty
-1.110676	for four fifty
-2.072601	for four seconds
-2.072601	for four minutes
-2.072601	for four hours
-2.104955	for five one
-2.104955	for five two
-2.104955	for five three
-2.104955	for five four
-2.104955	for five five
-2.104955	for five six
-2.104955	for five seven
-2.104955	for five eight
-2.104955	for five nine
-2.107652	for five ten
-2.107652	for five eleven
-2.107652	for five twelve
-0.3401992	for five o
-1.549745	for five am
-1.549745	for five pm
-2.110676	for five thirteen
-2.110676	for five fourteen
-2.110676	for five fifteen
-2.110676	for five sixteen
-2.110676	for five seventeen
-2.110676	for five eighteen
-2.110676	for five nineteen
-1.110676	for five twenty
-1.110676	for five thirty
-1.110676	for five forty
-1.110676	for five fifty
-2.072601	for five seconds
-2.072601	for five minutes
-2.072601	for five hours
-2.104955	for six one
-2.104955	for six two
-2.104955	for six three
-2.104955	for six four
-2.104955	for six five
-2.104955	for six six
-2.104955	for six seven
-2.104955	for six eight
-2.104955	for six nine
-2.107652	for six ten
-2.107652	for six eleven
-2.107652	for six twelve
-0.3401992	for six o
-1.549745	for six am
-1.549745	for six pm
-2.110676	for six thirteen
-2.110676	for six fourteen
-2.110676	for six fifteen
-2.110676	for six sixteen
-2.110676	for six seventeen
-2.110676	for six eighteen
-2.110676	for six nineteen
-1.110676	for six twenty
-1.110676	for six thirty
-1.110676	for six forty
-1.110676	for six fifty
-2.072601	for six seconds
-2.072601	for six minutes
-2.072601	for six hours
-2.104955	for seven one
-2.104955	for seven two
-2.104955	for seven three
-2.104955	for seven four
-2.104955	for seven five
-2.104955	for seven six
-2.104955	for seven seven
-2.104955	for seven eight
-2.104955	for seven nine
-2.107652	for seven ten
-2.107652	for seven eleven
-2.107652	for seven twelve
-0.3401992	for seven o
-1.549745	for seven am
-1.549745	for seven pm
-2.110676	for seven thirteen
-2.110676	for seven fourteen
-2.110676	for seven fifteen
-2.110676	for seven sixteen
-2.110676	for seven seventeen
-2.110676	for seven eighteen
-2.110676	for seven nineteen
-1.110676	for seven twenty
-1.110676	for seven thirty
-1.110676	for seven forty
-1.110676	for seven fifty
-2.072601	for seven seconds
-2.072601	for seven minutes
-2.072601	for seven hours
-2.104955	for eight one
-2.104955	for eight two
-2.104955	for eight three
-2.104955	for eight four
-2.104955	for eight five
-2.104955	for eight six
-2.104955	for eight seven
-2.104955	for eight eight
-2.104955	for eight nine
-2.107652	for eight ten
-2.107652	for eight eleven
-2.107652	for eight twelve
-0.3401992	for eight o
-1.549745	for eight am
-1.549745	for eight pm
-2.110676	for eight thirteen
-2.110676	for eight fourteen
-2.110676	for eight fifteen
-2.110676	for eight sixteen
-2.110676	for eight seventeen
-2.110676	for eight eighteen
-2.110676	for eight nineteen
-1.110676	for eight twenty
-1.110676	for eight thirty
-1.110676	for eight forty
-1.110676	for eight fifty
-2.072601	for eight seconds
-2.072601	for eight minutes
-2.072601	for eight hours
-2.104955	for nine one
-2.104955	for nine two
-2.104955	for nine three
-2.104955	for nine four
-2.104955	for nine five
-2.104955	for nine six
-2.104955	for nine seven
-2.104955	for nine eight
-2.104955	for nine nine
-2.107652	for nine ten
-2.107652	for nine eleven
-2.107652	for nine twelve
-0.3401992	for nine o
-1.549745	for nine am
-1.549745	for nine pm
-2.110676	for nine thirteen
-2.110676	for nine fourteen
-2.110676	for nine fifteen
-2.110676	for nine sixteen
-2.110676	for nine seventeen
-2.110676	for nine eighteen
-2.110676	for nine nineteen
-1.110676	for nine twenty
-1.110676	for nine thirty
-1.110676	for nine forty
-1.110676	for nine fifty
-2.072601	for nine seconds
-2.072601	for nine minutes
-2.072601	for nine hours
-2.086371	for ten one
-2.086371	for ten two
-2.086371	for ten three
-2.086371	for ten four
-2.086371	for ten five
-2.086371	for ten six
-2.086371	for ten seven
-2.086371	for ten eight
-2.086371	for ten nine
-2.090686	for ten ten
-2.090686	for ten eleven
-2.090686	for ten twelve
-0.3252954	for ten o
-1.901499	for ten am
-1.901499	for ten pm
-2.095543	for ten thirteen
-2.095543	for ten fourteen
-2.095543	for ten fifteen
-2.095543	for ten sixteen
-2.095543	for ten seventeen
-2.095543	for ten eighteen
-2.095543	for ten nineteen
-1.095543	for ten twenty
-1.095543	for ten thirty
-1.095543	for ten forty
-1.095543	for ten fifty
-2.138353	for ten seconds
-2.138353	for ten minutes
-2.138353	for ten hours
-2.086371	for eleven one
-2.086371	for eleven two
-2.086371	for eleven three
-2.086371	for eleven four
-2.086371	for eleven five
-2.086371	for eleven six
-2.086371	for eleven seven
-2.086371	for eleven eight
-2.086371	for eleven nine
-2.090686	for eleven ten
-2.090686	for eleven eleven
-2.090686	for eleven twelve
-0.3252954	for eleven o
-1.901499	for eleven am
-1.901499	for eleven pm
-2.095543	for eleven thirteen
-2.095543	for eleven fourteen
-2.095543	for eleven fifteen
-2.095543	for eleven sixteen
-2.095543	for eleven seventeen
-2.095543	for eleven eighteen
-2.095543	for eleven nineteen
-1.095543	for eleven twenty
-1.095543	for eleven thirty
-1.095543	for eleven forty
-1.095543	for eleven fifty
-2.138353	for eleven seconds
-2.138353	for eleven minutes
-2.138353	for eleven hours
-2.086371	for twelve one
-2.086371	for twelve two
-2.086371	for twelve three
-2.086371	for twelve four
-2.086371	for twelve five
-2.086371	for twelve six
-2.086371	for twelve seven
-2.086371	for twelve eight
-2.086371	for twelve nine
-2.090686	for twelve ten
-2.090686	for twelve eleven
-2.090686	for twelve twelve
-0.3252954	for twelve o
-1.901499	for twelve am
-1.901499	for twelve pm
-2.095543	for twelve thirteen
-2.095543	for twelve fourteen
-2.095543	for twelve fifteen
-2.095543	for twelve sixteen
-2.095543	for twelve seventeen
-2.095543	for twelve eighteen
-2.095543	for twelve nineteen
-1.095543	for twelve twenty
-1.095543	for twelve thirty
-1.095543	for twelve forty
-1.095543	for twelve fifty
-2.138353	for twelve seconds
-2.138353	for twelve minutes
-2.138353	for twelve hours
-0.6470316	for thirteen seconds
-0.6470316	for thirteen minutes
-0.6470316	for thirteen hours
-0.6470316	for fourteen seconds
-0.6470316	for fourteen minutes
-0.6470316	for fourteen hours
-0.6470316	for fifteen seconds
-0.6470316	for fifteen minutes
-0.6470316	for fifteen hours
-0.6470316	for sixteen seconds
-0.6470316	for sixteen minutes
-0.6470316	for sixteen hours
-0.6470316	for seventeen seconds
-0.6470316	for seventeen minutes
-0.6470316	for seventeen hours
-0.6470316	for eighteen seconds
-0.6470316	for eighteen minutes
-0.6470316	for eighteen hours
-0.6470316	for nineteen seconds
-0.6470316	for nineteen minutes
-0.6470316	for nineteen hours
-1.00163	for twenty one
-1.00163	for twenty two
-1.00163	for twenty three
-1.00163	for twenty four
-1.00163	for twenty five
-1.00163	for twenty six
-1.00163	for twenty seven
-1.00163	for twenty eight
-1.00163	for twenty nine
-1.554578	for twenty seconds
-1.554578	for twenty minutes
-1.554578	for twenty hours
-1.00163	for thirty one
-1.00163	for thirty two
-1.00163	for thirty three
-1.00163	for thirty four
-1.00163	for thirty five
-1.00163	for thirty six
-1.00163	for thirty seven
-1.00163	for thirty eight
-1.00163	for thirty nine
-1.554578	for thirty seconds
-1.554578	for thirty minutes
-1.554578	for thirty hours
-1.00163	for forty one
-1.00163	for forty two
-1.00163	for forty three
-1.00163	for forty four
-1.00163	for forty five
-1.00163	for forty six
-1.00163	for forty seven
-1.00163	for forty eight
-1.00163	for forty nine
-1.554578	for forty seconds
-1.554578	for forty minutes
-1.554578	for forty hours
-1.00163	for fifty one
-1.00163	for fifty two
-1.00163	for fifty three
-1.00163	for fifty four
-1.00163	for fifty five
-1.00163	for fifty six
-1.00163	for fifty seven
-1.00163	for fifty eight
-1.00163	for fifty nine
-1.554578	for fifty seconds
-1.554578	for fifty minutes
-1.554578	for fifty hours
-0.4383399	one one am
-0.4383399	one one pm
-0.4383399	one two am
-0.4383399	one two pm
-0.4383399	one three am
-0.4383399	one three pm
-0.4383399	one four am
-0.4383399	one four pm
-0.4383399	one five am
-0.4383399	one five pm
-0.4383399	one six am
-0.4383399	one six pm
-0.4383399	one seven am
-0.4383399	one seven pm
-0.4383399	one eight am
-0.4383399	one eight pm
-0.4383399	one nine am
-0.4383399	one nine pm
-0.5360045	one ten am
-0.5360045	one ten pm
-0.5360045	one eleven am
-0.5360045	one eleven pm
-0.5360045	one twelve am
-0.5360045	one twelve pm
-1.770665	one o one
-1.770665	one o two
-1.770665	one o three
-1.770665	one o four
-1.770665	one o five
-1.770665	one o six
-1.770665	one o seven
-1.770665	one o eight
-1.770665	one o nine
-1.771227	one o ten
-1.771227	one o eleven
-1.771227	one o twelve
-1.771854	one o thirteen
-1.771854	one o fourteen
-1.771854	one o fifteen
-1.771854	one o sixteen
-1.771854	one o seventeen
-1.771854	one o eighteen
-1.771854	one o nineteen
-0.7718541	one o twenty
-0.7718541	one o thirty
-0.7718541	one o forty
-0.7718541	one o fifty
-2.196603e-06	one am </s>
-2.196603e-06	one pm </s>
-0.3394827	one thirteen am
-0.3394827	one thirteen pm
-0.3394827	one fourteen am
-0.3394827	one fourteen pm
-0.3394827	one fifteen am
-0.3394827	one fifteen pm
-0.3394827	one sixteen am
-0.3394827	one sixteen pm
-0.3394827	one seventeen am
-0.3394827	one seventeen pm
-0.3394827	one eighteen am
-0.3394827	one eighteen pm
-0.3394827	one nineteen am
-0.3394827	one nineteen pm
-1.003194	one twenty one
-1.003194	one twenty two
-1.003194	one twenty three
-1.003194	one twenty four
-1.003194	one twenty five
-1.003194	one twenty six
-1.003194	one twenty seven
-1.003194	one twenty eight
-1.003194	one twenty nine
-1.31611	one twenty am
-1.31611	one twenty pm
-1.003194	one thirty one
-1.003194	one thirty two
-1.003194	one thirty three
-1.003194	one thirty four
-1.003194	one thirty five
-1.003194	one thirty six
-1.003194	one thirty seven
-1.003194	one thirty eight
-1.003194	one thirty nine
-1.31611	one thirty am
-1.31611	one thirty pm
-1.003194	one forty one
-1.003194	one forty two
-1.003194	one forty three
-1.003194	one forty four
-1.003194	one forty five
-1.003194	one forty six
-1.003194	one forty seven
-1.003194	one forty eight
-1.003194	one forty nine
-1.31611	one forty am
-1.31611	one forty pm
-1.003194	one fifty one
-1.003194	one fifty two
-1.003194	one fifty three
-1.003194	one fifty four
-1.003194	one fifty five
-1.003194	one fifty six
-1.003194	one fifty seven
-1.003194	one fifty eight
-1.003194	one fifty nine
-1.31611	one fifty am
-1.31611	one fifty pm
-0.0003547	one seconds </s>
-0.0003547	one minutes </s>
-0.0003547	one hours </s>
-0.4383399	two one am
-0.4383399	two one pm
-0.4383399	two two am
-0.4383399	two two pm
-0.4383399	two three am
-0.4383399	two three pm
-0.4383399	two four am
-0.4383399	two four pm
-0.4383399	two five am
-0.4383399	two five pm
-0.4383399	two six am
-0.4383399	two six pm
-0.4383399	two seven am
-0.4383399	two seven pm
-0.4383399	two eight am
-0.4383399	two eight pm
-0.4383399	two nine am
-0.4383399	two nine pm
-0.5360045	two ten am
-0.5360045	two ten pm
-0.5360045	two eleven am
-0.5360045	two eleven pm
-0.5360045	two twelve am
-0.5360045	two twelve pm
-1.770665	two o one
-1.770665	two o two
-1.770665	two o three
-1.770665	two o four
-1.770665	two o five
-1.770665	two o six
-1.770665	two o seven
-1.770665	two o eight
-1.770665	two o nine
-1.771227	two o ten
-1.771227	two o eleven
-1.771227	two o twelve
-1.771854	two o thirteen
-1.771854	two o fourteen
-1.771854	two o fifteen
-1.771854	two o sixteen
-1.771854	two o seventeen
-1.771854	two o eighteen
-1.771854	two o nineteen
-0.7718541	two o twenty
-0.7718541	two o thirty
-0.7718541	two o forty
-0.7718541	two o fifty
-2.196603e-06	two am </s>
-2.196603e-06	two pm </s>
-0.3394827	two thirteen am
-0.3394827	two thirteen pm
-0.3394827	two fourteen am
-0.3394827	two fourteen pm
-0.3394827	two fifteen am
-0.3394827	two fifteen pm
-0.3394827	two sixteen am
-0.3394827	two sixteen pm
-0.3394827	two seventeen am
-0.3394827	two seventeen pm
-0.3394827	two eighteen am
-0.3394827	two eighteen pm
-0.3394827	two nineteen am
-0.3394827	two nineteen pm
-1.003194	two twenty one
-1.003194	two twenty two
-1.003194	two twenty three
-1.003194	two twenty four
-1.003194	two twenty five
-1.003194	two twenty six
-1.003194	two twenty seven
-1.003194	two twenty eight
-1.003194	two twenty nine
-1.31611	two twenty am
-1.31611	two twenty pm
-1.003194	two thirty one
-1.003194	two thirty two
-1.003194	two thirty three
-1.003194	two thirty four
-1.003194	two thirty five
-1.003194	two thirty six
-1.003194	two thirty seven
-1.003194	two thirty eight
-1.003194	two thirty nine
-1.31611	two thirty am
-1.31611	two thirty pm
-1.003194	two forty one
-1.003194	two forty two
-1.003194	two forty three
-1.003194	two forty four
-1.003194	two forty five
-1.003194	two forty six
-1.003194	two forty seven
-1.003194	two forty eight
-1.003194	two forty nine
-1.31611	two forty am
-1.31611	two forty pm
-1.003194	two fifty one
-1.003194	two fifty two
-1.003194	two fifty three
-1.003194	two fifty four
-1.003194	two fifty five
-1.003194	two fifty six
-1.003194	two fifty seven
-1.003194	two fifty eight
-1.003194	two fifty nine
-1.31611	two fifty am
-1.31611	two fifty pm
-0.0003547	two seconds </s>
-0.0003547	two minutes </s>
-0.0003547	two hours </s>
-0.4383399	three one am
-0.4383399	three one pm
-0.4383399	three two am
-0.4383399	three two pm
-0.4383399	three three am
-0.4383399	three three pm
-0.4383399	three four am
-0.4383399	three four pm
-0.4383399	three five am
-0.4383399	three five pm
-0.4383399	three six am
-0.4383399	three six pm
-0.4383399	three seven am
-0.4383399	three seven pm
-0.4383399	three eight am
-0.4383399	three eight pm
-0.4383399	three nine am
-0.4383399	three nine pm
-0.5360045	three ten am
-0.5360045	three ten pm
-0.5360045	three eleven am
-0.5360045	three eleven pm
-0.5360045	three twelve am
-0.5360045	three twelve pm
-1.770665	three o one
-1.770665	three o two
-1.770665	three o three
-1.770665	three o four
-1.770665	three o five
-1.770665	three o six
-1.770665	three o seven
-1.770665	three o eight
-1.770665	three o nine
-1.771227	three o ten
-1.771227	three o eleven
-1.771227	three o twelve
-1.771854	three o thirteen
-1.771854	three o fourteen
-1.771854	three o fifteen
-1.771854	three o sixteen
-1.771854	three o seventeen
-1.771854	three o eighteen
-1.771854	three o nineteen
-0.7718541	three o twenty
-0.7718541	three o thirty
-0.7718541	three o forty
-0.7718541	three o fifty
-2.196603e-06	three am </s>
-2.196603e-06	three pm </s>
-0.3394827	three thirteen am
-0.3394827	three thirteen pm
-0.3394827	three fourteen am
-0.3394827	three fourteen pm
-0.3394827	three fifteen am
-0.3394827	three fifteen pm
-0.3394827	three sixteen am
-0.3394827	three sixteen pm
-0.3394827	three seventeen am
-0.3394827	three seventeen pm
-0.3394827	three eighteen am
-0.3394827	three eighteen pm
-0.3394827	three nineteen am
-0.3394827	three nineteen pm
-1.003194	three twenty one
-1.003194	three twenty two
-1.003194	three twenty three
-1.003194	three twenty four
-1.003194	three twenty five
-1.003194	three twenty six
-1.003194	three twenty seven
-1.003194	three twenty eight
-1.003194	three twenty nine
-1.31611	three twenty am
-1.31611	three twenty pm
-1.003194	three thirty one
-1.003194	three thirty two
-1.003194	three thirty three
-1.003194	three thirty four
-1.003194	three thirty five
-1.003194	three thirty six
-1.003194	three thirty seven
-1.003194	three thirty eight
-1.003194	three thirty nine
-1.31611	three thirty am
-1.31611	three thirty pm
-1.003194	three forty one
-1.003194	three forty two
-1.003194	three forty three
-1.003194	three forty four
-1.003194	three forty five
-1.003194	three forty six
-1.003194	three forty seven
-1.003194	three forty eight
-1.003194	three forty nine
-1.31611	three forty am
-1.31611	three forty pm
-1.003194	three fifty one
-1.003194	three fifty two
-1.003194	three fifty three
-1.003194	three fifty four
-1.003194	three fifty five
-1.003194	three fifty six
-1.003194	three fifty seven
-1.003194	three fifty eight
-1.003194	three fifty nine
-1.31611	three fifty am
-1.31611	three fifty pm
-0.0003547	three seconds </s>
-0.0003547	three minutes </s>
-0.0003547	three hours </s>
-0.4383399	four one am
-0.4383399	four one pm
-0.4383399	four two am
-0.4383399	four two pm
-0.4383399	four three am
-0.4383399	four three pm
-0.4383399	four four am
-0.4383399	four four pm
-0.4383399	four five am
-0.4383399	four five pm
-0.4383399	four six am
-0.4383399	four six pm
-0.4383399	four seven am
-0.4383399	four seven pm
-0.4383399	four eight am
-0.4383399	four eight pm
-0.4383399	four nine am
-0.4383399	four nine pm
-0.5360045	four ten am
-0.5360045	four ten pm
-0.5360045	four eleven am
-0.5360045	four eleven pm
-0.5360045	four twelve am
-0.5360045	four twelve pm
-1.770665	four o one
-1.770665	four o two
-1.770665	four o three
-1.770665	four o four
-1.770665	four o five
-1.770665	four o six
-1.770665	four o seven
-1.770665	four o eight
-1.770665	four o nine
-1.771227	four o ten
-1.771227	four o eleven
-1.771227	four o twelve
-1.771854	four o thirteen
-1.771854	four o fourteen
-1.771854	four o fifteen
-1.771854	four o sixteen
-1.771854	four o seventeen
-1.771854	four o eighteen
-1.771854	four o nineteen
-0.7718541	four o twenty
-0.7718541	four o thirty
-0.7718541	four o forty
-0.7718541	four o fifty
-2.196603e-06	four am </s>
-2.196603e-06	four pm </s>
-0.3394827	four thirteen am
-0.3394827	four thirteen pm
-0.3394827	four fourteen am
-0.3394827	four fourteen pm
-0.3394827	four fifteen am
-0.3394827	four fifteen pm
-0.3394827	four sixteen am
-0.3394827	four sixteen pm
-0.3394827	four seventeen am
-0.3394827	four seventeen pm
-0.3394827	four eighteen am
-0.3394827	four eighteen pm
-0.3394827	four nineteen am
-0.3394827	four nineteen pm
-1.003194	four twenty one
-1.003194	four twenty two
-1.003194	four twenty three
-1.003194	four twenty four
-1.003194	four twenty five
-1.003194	four twenty six
-1.003194	four twenty seven
-1.003194	four twenty eight
-1.003194	four twenty nine
-1.31611	four twenty am
-1.31611	four twenty pm
-1.003194	four thirty one
-1.003194	four thirty two
-1.003194	four thirty three
-1.003194	four thirty four
-1.003194	four thirty five
-1.003194	four thirty six
-1.003194	four thirty seven
-1.003194	four thirty eight
-1.003194	four thirty nine
-1.31611	four thirty am
-1.31611	four thirty pm
-1.003194	four forty one
-1.003194	four forty two
-1.003194	four forty three
-1.003194	four forty four
-1.003194	four forty five
-1.003194	four forty six
-1.003194	four forty seven
-1.003194	four forty eight
-1.003194	four forty nine
-1.31611	four forty am
-1.31611	four forty pm
-1.003194	four fifty one
-1.003194	four fifty two
-1.003194	four fifty three
-1.003194	four fifty four
-1.003194	four fifty five
-1.003194	four fifty six
-1.003194	four fifty seven
-1.003194	four fifty eight
-1.003194	four fifty nine
-1.31611	four fifty am
-1.31611	four fifty pm
-0.0003547	four seconds </s>
-0.0003547	four minutes </s>
-0.0003547	four hours </s>
-0.4383399	five one am
-0.4383399	five one pm
-0.4383399	five two am
-0.4383399	five two pm
-0.4383399	five three am
-0.4383399	five three pm
-0.4383399	five four am
-0.4383399	five four pm
-0.4383399	five five am
-0.4383399	five five pm
-0.4383399	five six am
-0.4383399	five six pm
-0.4383399	five seven am
-0.4383399	five seven pm
-0.4383399	five eight am
-0.4383399	five eight pm
-0.4383399	five nine am
-0.4383399	five nine pm
-0.5360045	five ten am
-0.5360045	five ten pm
-0.5360045	five eleven am
-0.5360045	five eleven pm
-0.5360045	five twelve am
-0.5360045	five twelve pm
-1.770665	five o one
-1.770665	five o two
-1.770665	five o three
-1.770665	five o four
-1.770665	five o five
-1.770665	five o six
-1.770665	five o seven
-1.770665	five o eight
-1.770665	five o nine
-1.771227	five o ten
-1.771227	five o eleven
-1.771227	five o twelve
-1.771854	five o thirteen
-1.771854	five o fourteen
-1.771854	five o fifteen
-1.771854	five o sixteen
-1.771854	five o seventeen
-1.771854	five o eighteen
-1.771854	five o nineteen
-0.7718541	five o twenty
-0.7718541	five o thirty
-0.7718541	five o forty
-0.7718541	five o fifty
-2.196603e-06	five am </s>
-2.196603e-06	five pm </s>
-0.3394827	five thirteen am
-0.3394827	five thirteen pm
-0.3394827	five fourteen am
-0.3394827	five fourteen pm
-0.3394827	five fifteen am
-0.3394827	five fifteen pm
-0.3394827	five sixteen am
-0.3394827	five sixteen pm
-0.3394827	five seventeen am
-0.3394827	five seventeen pm
-0.3394827	five eighteen am
-0.3394827	five eighteen pm
-0.3394827	five nineteen am
-0.3394827	five nineteen pm
-1.003194	five twenty one
-1.003194	five twenty two
-1.003194	five twenty three
-1.003194	five twenty four
-1.003194	five twenty five
-1.003194	five twenty six
-1.003194	five twenty seven
-1.003194	five twenty eight
-1.003194	five twenty nine
-1.31611	five twenty am
-1.31611	five twenty pm
-1.003194	five thirty one
-1.003194	five thirty two
-1.003194	five thirty three
-1.003194	five thirty four
-1.003194	five thirty five
-1.003194	five thirty six
-1.003194	five thirty seven
-1.003194	five thirty eight
-1.003194	five thirty nine
-1.31611	five thirty am
-1.31611	five thirty pm
-1.003194	five forty one
-1.003194	five forty two
-1.003194	five forty three
-1.003194	five forty four
-1.003194	five forty five
-1.003194	five forty six
-1.003194	five forty seven
-1.003194	five forty eight
-1.003194	five forty nine
-1.31611	five forty am
-1.31611	five forty pm
-1.003194	five fifty one
-1.003194	five fifty two
-1.003194	five fifty three
-1.003194	five fifty four
-1.003194	five fifty five
-1.003194	five fifty six
-1.003194	five fifty seven
-1.003194	five fifty eight
-1.003194	five fifty nine
-1.31611	five fifty am
-1.31611	five fifty pm
-0.0003547	five seconds </s>
-0.0003547	five minutes </s>
-0.0003547	five hours </s>
-0.4383399	six one am
-0.4383399	six one pm
-0.4383399	six two am
-0.4383399	six two pm
-0.4383399	six three am
-0.4383399	six three pm
-0.4383399	six four am
-0.4383399	six four pm
-0.4383399	six five am
-0.4383399	six five pm
-0.4383399	six six am
-0.4383399	six six pm
-0.4383399	six seven am
-0.4383399	six seven pm
-0.4383399	six eight am
-0.4383399	six eight pm
-0.4383399	six nine am
-0.4383399	six nine pm
-0.5360045	six ten am
-0.5360045	six ten pm
-0.5360045	six eleven am
-0.5360045	six eleven pm
-0.5360045	six twelve am
-0.5360045	six twelve pm
-1.770665	six o one
-1.770665	six o two
-1.770665	six o three
-1.770665	six o four
-1.770665	six o five
-1.770665	six o six
-1.770665	six o seven
-1.770665	six o eight
-1.770665	six o nine
-1.771227	six o ten
-1.771227	six o eleven
-1.771227	six o twelve
-1.771854	six o thirteen
-1.771854	six o fourteen
-1.771854	six o fifteen
-1.771854	six o sixteen
-1.771854	six o seventeen
-1.771854	six o eighteen
-1.771854	six o nineteen
-0.7718541	six o twenty
-0.7718541	six o thirty
-0.7718541	six o forty
-0.7718541	six o fifty
-2.196603e-06	six am </s>
-2.196603e-06	six pm </s>
-0.3394827	six thirteen am
-0.3394827	six thirteen pm
-0.3394827	six fourteen am
-0.3394827	six fourteen pm
-0.3394827	six fifteen am
-0.3394827	six fifteen pm
-0.3394827	six sixteen am
-0.3394827	six sixteen pm
-0.3394827	six seventeen am
-0.3394827	six seventeen pm
-0.3394827	six eighteen am
-0.3394827	six eighteen pm
-0.3394827	six nineteen am
-0.3394827	six nineteen pm
-1.003194	six twenty one
-1.003194	six twenty two
-1.003194	six twenty three
-1.003194	six twenty four
-1.003194	six twenty five
-1.003194	six twenty six
-1.003194	six twenty seven
-1.003194	six twenty eight
-1.003194	six twenty nine
-1.31611	six twenty am
-1.31611	six twenty pm
-1.003194	six thirty one
-1.003194	six thirty two
-1.003194	six thirty three
-1.003194	six thirty four
-1.003194	six thirty five
-1.003194	six thirty six
-1.003194	six thirty seven
-1.003194	six thirty eight
-1.003194	six thirty nine
-1.31611	six thirty am
-1.31611	six thirty pm
-1.003194	six forty one
-1.003194	six forty two
-1.003194	six forty three
-1.003194	six forty four
-1.003194	six forty five
-1.003194	six forty six
-1.003194	six forty seven
-1.003194	six forty eight
-1.003194	six forty nine
-1.31611	six forty am
-1.31611	six forty pm
-1.003194	six fifty one
-1.003194	six fifty two
-1.003194	six fifty three
-1.003194	six fifty four
-1.003194	six fifty five
-1.003194	six fifty six
-1.003194	six fifty seven
-1.003194	six fifty eight
-1.003194	six fifty nine
-1.31611	six fifty am
-1.31611	six fifty pm
-0.0003547	six seconds </s>
-0.0003547	six minutes </s>
-0.0003547	six hours </s>
-0.4383399	seven one am
-0.4383399	seven one pm
-0.4383399	seven two am
-0.4383399	seven two pm
-0.4383399	seven three am
-0.4383399	seven three pm
-0.4383399	seven four am
-0.4383399	seven four pm
-0.4383399	seven five am
-0.4383399	seven five pm
-0.4383399	seven six am
-0.4383399	seven six pm
-0.4383399	seven seven am
-0.4383399	seven seven pm
-0.4383399	seven eight am
-0.4383399	seven eight pm
-0.4383399	seven nine am
-0.4383399	seven nine pm
-0.5360045	seven ten am
-0.5360045	seven ten pm
-0.5360045	seven eleven am
-0.5360045	seven eleven pm
-0.5360045	seven twelve am
-0.5360045	seven twelve pm
-1.770665	seven o one
-1.770665	seven o two
-1.770665	seven o three
-1.770665	seven o four
-1.770665	seven o five
-1.770665	seven o six
-1.770665	seven o seven
-1.770665	seven o eight
-1.770665	seven o nine
-1.771227	seven o ten
-1.771227	seven o eleven
-1.771227	seven o twelve
-1.771854	seven o thirteen
-1.771854	seven o fourteen
-1.771854	seven o fifteen
-1.771854	seven o sixteen
-1.771854	seven o seventeen
-1.771854	seven o eighteen
-1.771854	seven o nineteen
-0.7718541	seven o twenty
-0.7718541	seven o thirty
-0.7718541	seven o forty
-0.7718541	seven o fifty
-2.196603e-06	seven am </s>
-2.196603e-06	seven pm </s>
-0.3394827	seven thirteen am
-0.3394827	seven thirteen pm
-0.3394827	seven fourteen am
-0.3394827	seven fourteen pm
-0.3394827	seven fifteen am
-0.3394827	seven fifteen pm
-0.3394827	seven sixteen am
-0.3394827	seven sixteen pm
-0.3394827	seven seventeen am
-0.3394827	seven seventeen pm
-0.3394827	seven eighteen am
-0.3394827	seven eighteen pm
-0.3394827	seven nineteen am
-0.3394827	seven nineteen pm
-1.003194	seven twenty one
-1.003194	seven twenty two
-1.003194	seven twenty three
-1.003194	seven twenty four
-1.003194	seven twenty five
-1.003194	seven twenty six
-1.003194	seven twenty seven
-1.003194	seven twenty eight
-1.003194	seven twenty nine
-1.31611	seven twenty am
-1.31611	seven twenty pm
-1.003194	seven thirty one
-1.003194	seven thirty two
-1.003194	seven thirty three
-1.003194	seven thirty four
-1.003194	seven thirty five
-1.003194	seven thirty six
-1.003194	seven thirty seven
-1.003194	seven thirty eight
-1.003194	seven thirty nine
-1.31611	seven thirty am
-1.31611	seven thirty pm
-1.003194	seven forty one
-1.003194	seven forty two
-1.003194	seven forty three
-1.003194	seven forty four
-1.003194	seven forty five
-1.003194	seven forty six
-1.003194	seven forty seven
-1.003194	seven forty eight
-1.003194	seven forty nine
-1.31611	seven forty am
-1.31611	seven forty pm
-1.003194	seven fifty one
-1.003194	seven fifty two
-1.003194	seven fifty three
-1.003194	seven fifty four
-1.003194	seven fifty five
-1.003194	seven fifty six
-1.003194	seven fifty seven
-1.003194	seven fifty eight
-1.003194	seven fifty nine
-1.31611	seven fifty am
-1.31611	seven fifty pm
-0.0003547	seven seconds </s>
-0.0003547	seven minutes </s>
-0.0003547	seven hours </s>
-0.4383399	eight one am
-0.4383399	eight one pm
-0.4383399	eight two am
-0.4383399	eight two pm
-0.4383399	eight three am
-0.4383399	eight three pm
-0.4383399	eight four am
-0.4383399	eight four pm
-0.4383399	eight five am
-0.4383399	eight five pm
-0.4383399	eight six am
-0.4383399	eight six pm
-0.4383399	eight seven am
-0.4383399	eight seven pm
-0.4383399	eight eight am
-0.4383399	eight eight pm
-0.4383399	eight nine am
-0.4383399	eight nine pm
-0.5360045	eight ten am
-0.5360045	eight ten pm
-0.5360045	eight eleven am
-0.5360045	eight eleven pm
-0.5360045	eight twelve am
-0.5360045	eight twelve pm
-1.770665	eight o one
-1.770665	eight o two
-1.770665	eight o three
-1.770665	eight o four
-1.770665	eight o five
-1.770665	eight o six
-1.770665	eight o seven
-1.770665	eight o eight
-1.770665	eight o nine
-1.771227	eight o ten
-1.771227	eight o eleven
-1.771227	eight o twelve
-1.771854	eight o thirteen
-1.771854	eight o fourteen
-1.771854	eight o fifteen
-1.771854	eight o sixteen
-1.771854	eight o seventeen
-1.771854	eight o eighteen
-1.771854	eight o nineteen
-0.7718541	eight o twenty
-0.7718541	eight o thirty
-0.7718541	eight o forty
-0.7718541	eight o fifty
-2.196603e-06	eight am </s>
-2.196603e-06	eight pm </s>
-0.3394827	eight thirteen am
-0.3394827	eight thirteen pm
-0.3394827	eight fourteen am
-0.3394827	eight fourteen pm
-0.3394827	eight fifteen am
-0.3394827	eight fifteen pm
-0.3394827	eight sixteen am
-0.3394827	eight sixteen pm
-0.3394827	eight seventeen am
-0.3394827	eight seventeen pm
-0.3394827	eight eighteen am
-0.3394827	eight eighteen pm
-0.3394827	eight nineteen am
-0.3394827	eight nineteen pm
-1.003194	eight twenty one
-1.003194	eight twenty two
-1.003194	eight twenty three
-1.003194	eight twenty four
-1.003194	eight twenty five
-1.003194	eight twenty six
-1.003194	eight twenty seven
-1.003194	eight twenty eight
-1.003194	eight twenty nine
-1.31611	eight twenty am
-1.31611	eight twenty pm
-1.003194	eight thirty one
-1.003194	eight thirty two
-1.003194	eight thirty three
-1.003194	eight thirty four
-1.003194	eight thirty five
-1.003194	eight thirty six
-1.003194	eight thirty seven
-1.003194	eight thirty eight
-1.003194	eight thirty nine
-1.31611	eight thirty am
-1.31611	eight thirty pm
-1.003194	eight forty one
-1.003194	eight forty two
-1.003194	eight forty three
-1.003194	eight forty four
-1.003194	eight forty five
-1.003194	eight forty six
-1.003194	eight forty seven
-1.003194	eight forty eight
-1.003194	eight forty nine
-1.31611	eight forty am
-1.31611	eight forty pm
-1.003194	eight fifty one
-1.003194	eight fifty two
-1.003194	eight fifty three
-1.003194	eight fifty four
-1.003194	eight fifty five
-1.003194	eight fifty six
-1.003194	eight fifty seven
-1.003194	eight fifty eight
-1.003194	eight fifty nine
-1.31611	eight fifty am
-1.31611	eight fifty pm
-0.0003547	eight seconds </s>
-0.0003547	eight minutes </s>
-0.0003547	eight hours </s>
-0.4383399	nine one am
-0.4383399	nine one pm
-0.4383399	nine two am
-0.4383399	nine two pm
-0.4383399	nine three am
-0.4383399	nine three pm
-0.4383399	nine four am
-0.4383399	nine four pm
-0.4383399	nine five am
-0.4383399	nine five pm
-0.4383399	nine six am
-0.4383399	nine six pm
-0.4383399	nine seven am
-0.4383399	nine seven pm
-0.4383399	nine eight am
-0.4383399	nine eight pm
-0.4383399	nine nine am
-0.4383399	nine nine pm
-0.5360045	nine ten am
-0.5360045	nine ten pm
-0.5360045	nine eleven am
-0.5360045	nine eleven pm
-0.5360045	nine twelve am
-0.5360045	nine twelve pm
-1.770665	nine o one
-1.770665	nine o two
-1.770665	nine o three
-1.770665	nine o four
-1.770665	nine o five
-1.770665	nine o six
-1.770665	nine o seven
-1.770665	nine o eight
-1.770665	nine o nine
-1.771227	nine o ten
-1.771227	nine o eleven
-1.771227	nine o twelve
-1.771854	nine o thirteen
-1.771854	nine o fourteen
-1.771854	nine o fifteen
-1.771854	nine o sixteen
-1.771854	nine o seventeen
-1.771854	nine o eighteen
-1.771854	nine o nineteen
-0.7718541	nine o twenty
-0.7718541	nine o thirty
-0.7718541	nine o forty
-0.7718541	nine o fifty
-2.196603e-06	nine am </s>
-2.196603e-06	nine pm </s>
-0.3394827	nine thirteen am
-0.3394827	nine thirteen pm
-0.3394827	nine fourteen am
-0.3394827	nine fourteen pm
-0.3394827	nine fifteen am
-0.3394827	nine fifteen pm
-0.3394827	nine sixteen am
-0.3394827	nine sixteen pm
-0.3394827	nine seventeen am
-0.3394827	nine seventeen pm
-0.3394827	nine eighteen am
-0.3394827	nine eighteen pm
-0.3394827	nine nineteen am
-0.3394827	nine nineteen pm
-1.003194	nine twenty one
-1.003194	nine twenty two
-1.003194	nine twenty three
-1.003194	nine twenty four
-1.003194	nine twenty five
-1.003194	nine twenty six
-1.003194	nine twenty seven
-1.003194	nine twenty eight
-1.003194	nine twenty nine
-1.31611	nine twenty am
-1.31611	nine twenty pm
-1.003194	nine thirty one
-1.003194	nine thirty two
-1.003194	nine thirty three
-1.003194	nine thirty four
-1.003194	nine thirty five
-1.003194	nine thirty six
-1.003194	nine thirty seven
-1.003194	nine thirty eight
-1.003194	nine thirty nine
-1.31611	nine thirty am
-1.31611	nine thirty pm
-1.003194	nine forty one
-1.003194	nine forty two
-1.003194	nine forty three
-1.003194	nine forty four
-1.003194	nine forty five
-1.003194	nine forty six
-1.003194	nine forty seven
-1.003194	nine forty eight
-1.003194	nine forty nine
-1.31611	nine forty am
-1.31611	nine forty pm
-1.003194	nine fifty one
-1.003194	nine fifty two
-1.003194	nine fifty three
-1.003194	nine fifty four
-1.003194	nine fifty five
-1.003194	nine fifty six
-1.003194	nine fifty seven
-1.003194	nine fifty eight
-1.003194	nine fifty nine
-1.31611	nine fifty am
-1.31611	nine fifty pm
-0.0003547	nine seconds </s>
-0.0003547	nine minutes </s>
-0.0003547	nine hours </s>
-0.4383399	ten one am
-0.4383399	ten one pm
-0.4383399	ten two am
-0.4383399	ten two pm
-0.4383399	ten three am
-0.4383399	ten three pm
-0.4383399	ten four am
-0.4383399	ten four pm
-0.4383399	ten five am
-0.4383399	ten five pm
-0.4383399	ten six am
-0.4383399	ten six pm
-0.4383399	ten seven am
-0.4383399	ten seven pm
-0.4383399	ten eight am
-0.4383399	ten eight pm
-0.4383399	ten nine am
-0.4383399	ten nine pm
-0.5360045	ten ten am
-0.5360045	ten ten pm
-0.5360045	ten eleven am
-0.5360045	ten eleven pm
-0.5360045	ten twelve am
-0.5360045	ten twelve pm
-1.770665	ten o one
-1.770665	ten o two
-1.770665	ten o three
-1.770665	ten o four
-1.770665	ten o five
-1.770665	ten o six
-1.770665	ten o seven
-1.770665	ten o eight
-1.770665	ten o nine
-1.771227	ten o ten
-1.771227	ten o eleven
-1.771227	ten o twelve
-1.771854	ten o thirteen
-1.771854	ten o fourteen
-1.771854	ten o fifteen
-1.771854	ten o sixteen
-1.771854	ten o seventeen
-1.771854	ten o eighteen
-1.771854	ten o nineteen
-0.7718541	ten o twenty
-0.7718541	ten o thirty
-0.7718541	ten o forty
-0.7718541	ten o fifty
-1.030585e-05	ten am </s>
-1.030585e-05	ten pm </s>
-0.3394827	ten thirteen am
-0.3394827	ten thirteen pm
-0.3394827	ten fourteen am
-0.3394827	ten fourteen pm
-0.3394827	ten fifteen am
-0.3394827	ten fifteen pm
-0.3394827	ten sixteen am
-0.3394827	ten sixteen pm
-0.3394827	ten seventeen am
-0.3394827	ten seventeen pm
-0.3394827	ten eighteen am
-0.3394827	ten eighteen pm
-0.3394827	ten nineteen am
-0.3394827	ten nineteen pm
-1.003194	ten twenty one
-1.003194	ten twenty two
-1.003194	ten twenty three
-1.003194	ten twenty four
-1.003194	ten twenty five
-1.003194	ten twenty six
-1.003194	ten twenty seven
-1.003194	ten twenty eight
-1.003194	ten twenty nine
-1.31611	ten twenty am
-1.31611	ten twenty pm
-1.003194	ten thirty one
-1.003194	ten thirty two
-1.003194	ten thirty three
-1.003194	ten thirty four
-1.003194	ten thirty five
-1.003194	ten thirty six
-1.003194	ten thirty seven
-1.003194	ten thirty eight
-1.003194	ten thirty nine
-1.31611	ten thirty am
-1.31611	ten thirty pm
-1.003194	ten forty one
-1.003194	ten forty two
-1.003194	ten forty three
-1.003194	ten forty four
-1.003194	ten forty five
-1.003194	ten forty six
-1.003194	ten forty seven
-1.003194	ten forty eight
-1.003194	ten forty nine
-1.31611	ten forty am
-1.31611	ten forty pm
-1.003194	ten fifty one
-1.003194	ten fifty two
-1.003194	ten fifty three
-1.003194	ten fifty four
-1.003194	ten fifty five
-1.003194	ten fifty six
-1.003194	ten fifty seven
-1.003194	ten fifty eight
-1.003194	ten fifty nine
-1.31611	ten fifty am
-1.31611	ten fifty pm
-0.001267897	ten seconds </s>
-0.001267897	ten minutes </s>
-0.001267897	ten hours </s>
-0.4383399	eleven one am
-0.4383399	eleven one pm
-0.4383399	eleven two am
-0.4383399	eleven two pm
-0.4383399	eleven three am
-0.4383399	eleven three pm
-0.4383399	eleven four am
-0.4383399	eleven four pm
-0.4383399	eleven five am
-0.4383399	eleven five pm
-0.4383399	eleven six am
-0.4383399	eleven six pm
-0.4383399	eleven seven am
-0.4383399	eleven seven pm
-0.4383399	eleven eight am
-0.4383399	eleven eight pm
-0.4383399	eleven nine am
-0.4383399	eleven nine pm
-0.5360045	eleven ten am
-0.5360045	eleven ten pm
-0.5360045	eleven eleven am
-0.5360045	eleven eleven pm
-0.5360045	eleven twelve am
-0.5360045	eleven twelve pm
-1.770665	eleven o one
-1.770665	eleven o two
-1.770665	eleven o three
-1.770665	eleven o four
-1.770665	eleven o five
-1.770665	eleven o six
-1.770665	eleven o seven
-1.770665	eleven o eight
-1.770665	eleven o nine
-1.771227	eleven o ten
-1.771227	eleven o eleven
-1.771227	eleven o twelve
-1.771854	eleven o thirteen
-1.771854	eleven o fourteen
-1.771854	eleven o fifteen
-1.771854	eleven o sixteen
-1.771854	eleven o seventeen
-1.771854	eleven o eighteen
-1.771854	eleven o nineteen
-0.7718541	eleven o twenty
-0.7718541	eleven o thirty
-0.7718541	eleven o forty
-0.7718541	eleven o fifty
-1.030585e-05	eleven am </s>
-1.030585e-05	eleven pm </s>
-0.3394827	eleven thirteen am
-0.3394827	eleven thirteen pm
-0.3394827	eleven fourteen am
-0.3394827	eleven fourteen pm
-0.3394827	eleven fifteen am
-0.3394827	eleven fifteen pm
-0.3394827	eleven sixteen am
-0.3394827	eleven sixteen pm
-0.3394827	eleven seventeen am
-0.3394827	eleven seventeen pm
-0.3394827	eleven eighteen am
-0.3394827	eleven eighteen pm
-0.3394827	eleven nineteen am
-0.3394827	eleven nineteen pm
-1.003194	eleven twenty one
-1.003194	eleven twenty two
-1.003194	eleven twenty three
-1.003194	eleven twenty four
-1.003194	eleven twenty five
-1.003194	eleven twenty six
-1.003194	eleven twenty seven
-1.003194	eleven twenty eight
-1.003194	eleven twenty nine
-1.31611	eleven twenty am
-1.31611	eleven twenty pm
-1.003194	eleven thirty one
-1.003194	eleven thirty two
-1.003194	eleven thirty three
-1.003194	eleven thirty four
-1.003194	eleven thirty five
-1.003194	eleven thirty six
-1.003194	eleven thirty seven
-1.003194	eleven thirty eight
-1.003194	eleven thirty nine
-1.31611	eleven thirty am
-1.31611	eleven thirty pm
-1.003194	eleven forty one
-1.003194	eleven forty two
-1.003194	eleven forty three
-1.003194	eleven forty four
-1.003194	eleven forty five
-1.003194	eleven forty six
-1.003194	eleven forty seven
-1.003194	eleven forty eight
-1.003194	eleven forty nine
-1.31611	eleven forty am
-1.31611	eleven forty pm
-1.003194	eleven fifty one
-1.003194	eleven fifty two
-1.003194	eleven fifty three
-1.003194	eleven fifty four
-1.003194	eleven fifty five
-1.003194	eleven fifty six
-1.003194	eleven fifty seven
-1.003194	eleven fifty eight
-1.003194	eleven fifty nine
-1.31611	eleven fifty am
-1.31611	eleven fifty pm
-0.001267897	eleven seconds </s>
-0.001267897	eleven minutes </s>
-0.001267897	eleven hours </s>
-0.4383399	twelve one am
-0.4383399	twelve one pm
-0.4383399	twelve two am
-0.4383399	twelve two pm
-0.4383399	twelve three am
-0.4383399	twelve three pm
-0.4383399	twelve four am
-0.4383399	twelve four pm
-0.4383399	twelve five am
-0.4383399	twelve five pm
-0.4383399	twelve six am
-0.4383399	twelve six pm
-0.4383399	twelve seven am
-0.4383399	twelve seven pm
-0.4383399	twelve eight am
-0.4383399	twelve eight pm
-0.4383399	twelve nine am
-0.4383399	twelve nine pm
-0.5360045	twelve ten am
-0.5360045	twelve ten pm
-0.5360045	twelve eleven am
-0.5360045	twelve eleven pm
-0.5360045	twelve twelve am
-0.5360045	twelve twelve pm
-1.770665	twelve o one
-1.770665	twelve o two
-1.770665	twelve o three
-1.770665	twelve o four
-1.770665	twelve o five
-1.770665	twelve o six
-1.770665	twelve o seven
-1.770665	twelve o eight
-1.770665	twelve o nine
-1.771227	twelve o ten
-1.771227	twelve o eleven
-1.771227	twelve o twelve
-1.771854	twelve o thirteen
-1.771854	twelve o fourteen
-1.771854	twelve o fifteen
-1.771854	twelve o sixteen
-1.771854	twelve o seventeen
-1.771854	twelve o eighteen
-1.771854	twelve o nineteen
-0.7718541	twelve o twenty
-0.7718541	twelve o thirty
-0.7718541	twelve o forty
-0.7718541	twelve o fifty
-1.030585e-05	twelve am </s>
-1.030585e-05	twelve pm </s>
-0.3394827	twelve thirteen am
-0.3394827	twelve thirteen pm
-0.3394827	twelve fourteen am
-0.3394827	twelve fourteen pm
-0.3394827	twelve fifteen am
-0.3394827	twelve fifteen pm
-0.3394827	twelve sixteen am
-0.3394827	twelve sixteen pm
-0.3394827	twelve seventeen am
-0.3394827	twelve seventeen pm
-0.3394827	twelve eighteen am
-0.3394827	twelve eighteen pm
-0.3394827	twelve nineteen am
-0.3394827	twelve nineteen pm
-1.003194	twelve twenty one
-1.003194	twelve twenty two
-1.003194	twelve twenty three
-1.003194	twelve twenty four
-1.003194	twelve twenty five
-1.003194	twelve twenty six
-1.003194	twelve twenty seven
-1.003194	twelve twenty eight
-1.003194	twelve twenty nine
-1.31611	twelve twenty am
-1.31611	twelve twenty pm
-1.003194	twelve thirty one
-1.003194	twelve thirty two
-1.003194	twelve thirty three
-1.003194	twelve thirty four
-1.003194	twelve thirty five
-1.003194	twelve thirty six
-1.003194	twelve thirty seven
-1.003194	twelve thirty eight
-1.003194	twelve thirty nine
-1.31611	twelve thirty am
-1.31611	twelve thirty pm
-1.003194	twelve forty one
-1.003194	twelve forty two
-1.003194	twelve forty three
-1.003194	twelve forty four
-1.003194	twelve forty five
-1.003194	twelve forty six
-1.003194	twelve forty seven
-1.003194	twelve forty eight
-1.003194	twelve forty nine
-1.31611	twelve forty am
-1.31611	twelve forty pm
-1.003194	twelve fifty one
-1.003194	twelve fifty two
-1.003194	twelve fifty three
-1.003194	twelve fifty four
-1.003194	twelve fifty five
-1.003194	twelve fifty six
-1.003194	twelve fifty seven
-1.003194	twelve fifty eight
-1.003194	twelve fifty nine
-1.31611	twelve fifty am
-1.31611	twelve fifty pm
-0.001267897	twelve seconds </s>
-0.001267897	twelve minutes </s>
-0.001267897	twelve hours </s>
-0.3195648	o one am
-0.3195648	o one pm
-0.3195648	o two am
-0.3195648	o two pm
-0.3195648	o three am
-0.3195648	o three pm
-0.3195648	o four am
-0.3195648	o four pm
-0.3195648	o five am
-0.3195648	o five pm
-0.3195648	o six am
-0.3195648	o six pm
-0.3195648	o seven am
-0.3195648	o seven pm
-0.3195648	o eight am
-0.3195648	o eight pm
-0.3195648	o nine am
-0.3195648	o nine pm
-0.329943	o ten am
-0.329943	o ten pm
-0.329943	o eleven am
-0.329943	o eleven pm
-0.329943	o twelve am
-0.329943	o twelve pm
-0.3067394	o thirteen am
-0.3067394	o thirteen pm
-0.3067394	o fourteen am
-0.3067394	o fourteen pm
-0.3067394	o fifteen am
-0.3067394	o fifteen pm
-0.3067394	o sixteen am
-0.3067394	o sixteen pm
-0.3067394	o seventeen am
-0.3067394	o seventeen pm
-0.3067394	o eighteen am
-0.3067394	o eighteen pm
-0.3067394	o nineteen am
-0.3067394	o nineteen pm
-1.000394	o twenty one
-1.000394	o twenty two
-1.000394	o twenty three
-1.000394	o twenty four
-1.000394	o twenty five
-1.000394	o twenty six
-1.000394	o twenty seven
-1.000394	o twenty eight
-1.000394	o twenty nine
-1.302867	o twenty am
-1.302867	o twenty pm
-1.000394	o thirty one
-1.000394	o thirty two
-1.000394	o thirty three
-1.000394	o thirty four
-1.000394	o thirty five
-1.000394	o thirty six
-1.000394	o thirty seven
-1.000394	o thirty eight
-1.000394	o thirty nine
-1.302867	o thirty am
-1.302867	o thirty pm
-1.000394	o forty one
-1.000394	o forty two
-1.000394	o forty three
-1.000394	o forty four
-1.000394	o forty five
-1.000394	o forty six
-1.000394	o forty seven
-1.000394	o forty eight
-1.000394	o forty nine
-1.302867	o forty am
-1.302867	o forty pm
-1.000394	o fifty one
-1.000394	o fifty two
-1.000394	o fifty three
-1.000394	o fifty four
-1.000394	o fifty five
-1.000394	o fifty six
-1.000394	o fifty seven
-1.000394	o fifty eight
-1.000394	o fifty nine
-1.302867	o fifty am
-1.302867	o fifty pm
-1.071802e-05	thirteen am </s>
-1.071802e-05	thirteen pm </s>
-0.001267897	thirteen seconds </s>
-0.001267897	thirteen minutes </s>
-0.001267897	thirteen hours </s>
-1.071802e-05	fourteen am </s>
-1.071802e-05	fourteen pm </s>
-0.001267897	fourteen seconds </s>
-0.001267897	fourteen minutes </s>
-0.001267897	fourteen hours </s>
-1.071802e-05	fifteen am </s>
-1.071802e-05	fifteen pm </s>
-0.001267897	fifteen seconds </s>
-0.001267897	fifteen minutes </s>
-0.001267897	fifteen hours </s>
-1.071802e-05	sixteen am </s>
-1.071802e-05	sixteen pm </s>
-0.001267897	sixteen seconds </s>
-0.001267897	sixteen minutes </s>
-0.001267897	sixteen hours </s>
-1.071802e-05	seventeen am </s>
-1.071802e-05	seventeen pm </s>
-0.001267897	seventeen seconds </s>
-0.001267897	seventeen minutes </s>
-0.001267897	seventeen hours </s>
-1.071802e-05	eighteen am </s>
-1.071802e-05	eighteen pm </s>
-0.001267897	eighteen seconds </s>
-0.001267897	eighteen minutes </s>
-0.001267897	eighteen hours </s>
-1.071802e-05	nineteen am </s>
-1.071802e-05	nineteen pm </s>
-0.001267897	nineteen seconds </s>
-0.001267897	nineteen minutes </s>
-0.001267897	nineteen hours </s>
-0.3661423	twenty one am
-0.3661423	twenty one pm
-1.489621	twenty one seconds
-1.489621	twenty one minutes
-1.489621	twenty one hours
-0.3661423	twenty two am
-0.3661423	twenty two pm
-1.489621	twenty two seconds
-1.489621	twenty two minutes
-1.489621	twenty two hours
-0.3661423	twenty three am
-0.3661423	twenty three pm
-1.489621	twenty three seconds
-1.489621	twenty three minutes
-1.489621	twenty three hours
-0.3661423	twenty four am
-0.3661423	twenty four pm
-1.489621	twenty four seconds
-1.489621	twenty four minutes
-1.489621	twenty four hours
-0.3661423	twenty five am
-0.3661423	twenty five pm
-1.489621	twenty five seconds
-1.489621	twenty five minutes
-1.489621	twenty five hours
-0.3661423	twenty six am
-0.3661423	twenty six pm
-1.489621	twenty six seconds
-1.489621	twenty six minutes
-1.489621	twenty six hours
-0.3661423	twenty seven am
-0.3661423	twenty seven pm
-1.489621	twenty seven seconds
-1.489621	twenty seven minutes
-1.489621	twenty seven hours
-0.3661423	twenty eight am
-0.3661423	twenty eight pm
-1.489621	twenty eight seconds
-1.489621	twenty eight minutes
-1.489621	twenty eight hours
-0.3661423	twenty nine am
-0.3661423	twenty nine pm
-1.489621	twenty nine seconds
-1.489621	twenty nine minutes
-1.489621	twenty nine hours
-1.071802e-05	twenty am </s>
-1.071802e-05	twenty pm </s>
-0.001267897	twenty seconds </s>
-0.001267897	twenty minutes </s>
-0.001267897	twenty hours </s>
-0.3661423	thirty one am
-0.3661423	thirty one pm
-1.489621	thirty one seconds
-1.489621	thirty one minutes
-1.489621	thirty one hours
-0.3661423	thirty two am
-0.3661423	thirty two pm
-1.489621	thirty two seconds
-1.489621	thirty two minutes
-1.489621	thirty two hours
-0.3661423	thirty three am
-0.3661423	thirty three pm
-1.489621	thirty three seconds
-1.489621	thirty three minutes
-1.489621	thirty three hours
-0.3661423	thirty four am
-0.3661423	thirty four pm
-1.489621	thirty four seconds
-1.489621	thirty four minutes
-1.489621	thirty four hours
-0.3661423	thirty five am
-0.3661423	thirty five pm
-1.489621	thirty five seconds
-1.489621	thirty five minutes
-1.489621	thirty five hours
-0.3661423	thirty six am
-0.3661423	thirty six pm
-1.489621	thirty six seconds
-1.489621	thirty six minutes
-1.489621	thirty six hours
-0.3661423	thirty seven am
-0.3661423	thirty seven pm
-1.489621	thirty seven seconds
-1.489621	thirty seven minutes
-1.489621	thirty seven hours
-0.3661423	thirty eight am
-0.3661423	thirty eight pm
-1.489621	thirty eight seconds
-1.489621	thirty eight minutes
-1.489621	thirty eight hours
-0.3661423	thirty nine am
-0.3661423	thirty nine pm
-1.489621	thirty nine seconds
-1.489621	thirty nine minutes
-1.489621	thirty nine hours
-1.071802e-05	thirty am </s>
-1.071802e-05	thirty pm </s>
-0.001267897	thirty seconds </s>
-0.001267897	thirty minutes </s>
-0.001267897	thirty hours </s>
-0.3661423	forty one am
-0.3661423	forty one pm
-1.489621	forty one seconds
-1.489621	forty one minutes
-1.489621	forty one hours
-0.3661423	forty two am
-0.3661423	forty two pm
-1.489621	forty two seconds
-1.489621	forty two minutes
-1.489621	forty two hours
-0.3661423	forty three am
-0.3661423	forty three pm
-1.489621	forty three seconds
-1.489621	forty three minutes
-1.489621	forty three hours
-0.3661423	forty four am
-0.3661423	forty four pm
-1.489621	forty four seconds
-1.489621	forty four minutes
-1.489621	forty four hours
-0.3661423	forty five am
-0.3661423	forty five pm
-1.489621	forty five seconds
-1.489621	forty five minutes
-1.489621	forty five hours
-0.3661423	forty six am
-0.3661423	forty six pm
-1.489621	forty six seconds
-1.489621	forty six minutes
-1.489621	forty six hours
-0.3661423	forty seven am
-0.3661423	forty seven pm
-1.489621	forty seven seconds
-1.489621	forty seven minutes
-1.489621	forty seven hours
-0.3661423	forty eight am
-0.3661423	forty eight pm
-1.489621	forty eight seconds
-1.489621	forty eight minutes
-1.489621	forty eight hours
-0.3661423	forty nine am
-0.3661423	forty nine pm
-1.489621	forty nine seconds
-1.489621	forty nine minutes
-1.489621	forty nine hours
-1.071802e-05	forty am </s>
-1.071802e-05	forty pm </s>
-0.001267897	forty seconds </s>
-0.001267897	forty minutes </s>
-0.001267897	forty hours </s>
-0.3661423	fifty one am
-0.3661423	fifty one pm
-1.489621	fifty one seconds
-1.489621	fifty one minutes
-1.489621	fifty one hours
-0.3661423	fifty two am
-0.3661423	fifty two pm
-1.489621	fifty two seconds
-1.489621	fifty two minutes
-1.489621	fifty two hours
-0.3661423	fifty three am
-0.3661423	fifty three pm
-1.489621	fifty three seconds
-1.489621	fifty three minutes
-1.489621	fifty three hours
-0.3661423	fifty four am
-0.3661423	fifty four pm
-1.489621	fifty four seconds
-1.489621	fifty four minutes
-1.489621	fifty four hours
-0.3661423	fifty five am
-0.3661423	fifty five pm
-1.489621	fifty five seconds
-1.489621	fifty five minutes
-1.489621	fifty five hours
-0.3661423	fifty six am
-0.3661423	fifty six pm
-1.489621	fifty six seconds
-1.489621	fifty six minutes
-1.489621	fifty six hours
-0.3661423	fifty seven am
-0.3661423	fifty seven pm
-1.489621	fifty seven seconds
-1.489621	fifty seven minutes
-1.489621	fifty seven hours
-0.3661423	fifty eight am
-0.3661423	fifty eight pm
-1.489621	fifty eight seconds
-1.489621	fifty eight minutes
-1.489621	fifty eight hours
-0.3661423	fifty nine am
-0.3661423	fifty nine pm
-1.489621	fifty nine seconds
-1.489621	fifty nine minutes
-1.489621	fifty nine hours
-1.071802e-05	fifty am </s>
-1.071802e-05	fifty pm </s>
-0.001267897	fifty seconds </s>
-0.001267897	fifty minutes </s>
-0.001267897	fifty hours </s>
-0.3241662	stop alarm </s>
-0.3241662	snooze alarm </s>
-0.2986124	cancel the timer
-0.3241662	cancel alarm </s>
-0.3096532	cancel timer </s>
-0.07307532	get weather </s>
-0.1301254	play firework katy
-0.1301254	play hello adele
-0.1301254	play happy pharrell
-0.1301254	firework katy perry
-0.1301027	hello adele on
-0.1301254	happy pharrell williams
-0.1301027	katy perry on
-0.1498995	adele on spot
-0.1301027	pharrell williams on
-0.1498995	perry on spot
-0.1498995	williams on spot
-0.02959738	on spot if
-0.02959738	spot if eye
-0.02575976	if eye </s>
-0.2504483	pause the song
-0.2504483	skip the song
-0.2446561	rewind the song
-0.2446561	restart the song
-0.3927307	start over </s>
-0.4282421	start over the
-0.2446561	over the song
-0.3371328	turn the light
-0.4354503	turn the lights
-0.1876882	light on </s>
-0.07307532	light off </s>
-0.5286632	light to red
-0.5286632	light to green
-0.5286632	light to blue
-0.01109241	light red </s>
-0.01109241	light green </s>
-0.01109241	light blue </s>
-0.1876882	lights on </s>
-0.07307532	lights off </s>
-0.3558547	brighten the light
-0.5198258	brighten the lights
-0.3558547	dim the light
-0.5198258	dim the lights
-0.07291941	make the light
-0.6276123	make light red
-0.6276123	make light green
-0.6276123	make light blue
-0.01863296	to red </s>
-0.01863296	to green </s>
-0.01863296	to blue </s>
-3.069414e-05	a timer for
-1.678949	timer for one
-1.678949	timer for two
-1.678949	timer for three
-1.678949	timer for four
-1.678949	timer for five
-1.678949	timer for six
-1.678949	timer for seven
-1.678949	timer for eight
-1.678949	timer for nine
-1.679033	timer for ten
-1.679033	timer for eleven
-1.679033	timer for twelve
-1.797991	timer for thirteen
-1.797991	timer for fourteen
-1.797991	timer for fifteen
-1.797991	timer for sixteen
-1.797991	timer for seventeen
-1.797991	timer for eighteen
-1.797991	timer for nineteen
-0.797991	timer for twenty
-0.797991	timer for thirty
-0.797991	timer for forty
-0.797991	timer for fifty

\end\
