
\data\
ngram 1=77
ngram 2=504
ngram 3=1892

\1-grams:
-99	<s>	-2.208065
-0.9049559	</s>
-3.788605	what	-0.3538224
-4.383838	tell	-0.2919988
-4.383838	what's	-0.2919988
-3.906717	time	-0.3870799
-4.383838	me	-0.2919988
-2.966616	the	-0.7140397
-3.788605	is	-0.4605624
-4.087347	it	-0.4620592
-4.392965	day	-0.2875552
-4.392965	date	-0.2875552
-0.9102894	set	-2.978573
-0.9117032	alarm	-3.153249
-0.9121072	for	-2.376116
-1.688438	one	-1.285292
-1.688438	two	-1.285292
-1.688438	three	-1.285292
-1.688438	four	-1.285292
-1.688438	five	-1.285292
-1.688438	six	-1.285292
-1.688438	seven	-1.285292
-1.688438	eight	-1.285292
-1.688438	nine	-1.285292
-1.911499	ten	-1.07709
-1.911499	eleven	-1.07709
-1.911499	twelve	-1.07709
-1.216802	o	-1.79408
-1.213137	am	-3.152752
-1.213137	pm	-3.152752
-2.686624	thirteen	-1.39575
-2.686624	fourteen	-1.39575
-2.686624	fifteen	-1.39575
-2.686624	sixteen	-1.39575
-2.686624	seventeen	-1.39575
-2.686624	eighteen	-1.39575
-2.686624	nineteen	-1.39575
-1.686624	twenty	-1.647462
-1.686624	thirty	-1.647462
-1.686624	forty	-1.647462
-1.686624	fifty	-1.647462
-4.420346	stop	-0.2745115
-4.420346	snooze	-0.2745115
-4.420346	cancel	-0.2745115
-4.392965	get	-0.2875552
-4.091935	weather	-0.4590603
-3.906717	play	-0.2919988
-4.383838	firework	-0.2919988
-4.383838	hello	-0.2919988
-4.383838	happy	-0.2919988
-4.383838	katy	-0.2919988
-4.383838	adele	-0.2919989
-4.383838	pharrell	-0.2919988
-4.383838	perry	-0.2919989
-4.383838	williams	-0.2919989
-3.688495	on	-0.5285514
-3.906717	spot	-0.5884419
-3.906717	if	-0.5884419
-3.906717	eye	-0.5884419
-4.091935	pause	-0.2875552
-3.68295	song	-0.7645803
-4.091935	skip	-0.2875552
-4.073681	rewind	-0.2964905
-4.073681	restart	-0.2964905
-4.073681	start	-0.4710579
-4.073681	over	-0.2964905
-3.790905	turn	-0.677205
-3.030528	light	-0.6117225
-3.790905	lights	-0.3525424
-4.091935	off	-0.4590603
-4.091935	brighten	-0.4590603
-4.091935	dim	-0.4590603
-3.590475	make	-0.5997803
-3.590475	to	-0.4750954
-3.590475	red	-0.8424916
-3.590475	green	-0.8424916
-3.590475	blue	-0.8424916

\2-grams:
-2.886011	<s> what	-0.3538224
-3.481243	<s> tell	-0.2919989
-3.481243	<s> what's	-0.2919988
-0.007695029	<s> set	-2.927872
-3.517752	<s> stop	-0.2745115
-3.517752	<s> snooze	-0.2745115
-3.517752	<s> cancel	-0.2745115
-3.49037	<s> get	-0.2875552
-3.004122	<s> play	-0.2919989
-3.18934	<s> pause	-0.2875552
-3.18934	<s> skip	-0.2875552
-3.171086	<s> rewind	-0.2964905
-3.171086	<s> restart	-0.2964905
-3.171086	<s> start	-0.4710579
-2.88831	<s> turn	-0.677205
-3.18934	<s> brighten	-0.4590603
-3.18934	<s> dim	-0.4590603
-2.68788	<s> make	-0.5997803
-0.8490294	what time	-0.2919989
-0.557182	what is	-0.4590603
-0.8582686	what day	-0.2875552
-0.3102342	tell me	-0.2919988
-0.3097641	what's the	-0.2919989
-0.3523297	time </s>
-0.7062166	time is	-0.2919989
-0.3097641	me the	-0.2919989
-1.209247	the time	-0.4650375
-1.51946	the date	-0.2875552
-1.519348	the weather	-0.2875552
-0.8094455	the song	-0.7645803
-0.3884433	the light	-0.4492086
-0.9173999	the lights	-0.3525425
-0.4874442	is the	-0.2875552
-0.4833185	is it	-0.4620592
-0.1562345	it </s>
-0.3148611	day is	-0.2875552
-0.2608736	date </s>
-2.680406	set the	-0.8424916
-0.002218061	set alarm	-3.453629
-2.680438	set light	-0.3961172
-2.992759	alarm </s>
-0.0006719371	alarm for	-2.375676
-1.080561	for one	-1.004549
-1.080561	for two	-1.004549
-1.080561	for three	-1.004549
-1.080561	for four	-1.004549
-1.080561	for five	-1.004549
-1.080561	for six	-1.004549
-1.080561	for seven	-1.004549
-1.080561	for eight	-1.004549
-1.080561	for nine	-1.004549
-1.080742	for ten	-1.004564
-1.080742	for eleven	-1.004564
-1.080742	for twelve	-1.004564
-2.298473	one one	-0.2998907
-2.298473	one two	-0.2998907
-2.298473	one three	-0.2998907
-2.298473	one four	-0.2998907
-2.298473	one five	-0.2998907
-2.298473	one six	-0.2998907
-2.298473	one seven	-0.2998907
-2.298473	one eight	-0.2998907
-2.298473	one nine	-0.2998907
-2.336977	one ten	-0.2998906
-2.336977	one eleven	-0.2998906
-2.336977	one twelve	-0.2998906
-0.6248663	one o	-0.7856356
-0.6140581	one am	-2.084097
-0.6140581	one pm	-2.084097
-2.389994	one thirteen	-0.2998915
-2.389994	one fourteen	-0.2998915
-2.389994	one fifteen	-0.2998915
-2.389994	one sixteen	-0.2998915
-2.389994	one seventeen	-0.2998915
-2.389994	one eighteen	-0.2998915
-2.389994	one nineteen	-0.2998915
-1.389994	one twenty	-0.4484937
-1.389994	one thirty	-0.4484937
-1.389994	one forty	-0.4484937
-1.389994	one fifty	-0.4484937
-2.298473	two one	-0.2998907
-2.298473	two two	-0.2998907
-2.298473	two three	-0.2998907
-2.298473	two four	-0.2998907
-2.298473	two five	-0.2998907
-2.298473	two six	-0.2998907
-2.298473	two seven	-0.2998907
-2.298473	two eight	-0.2998907
-2.298473	two nine	-0.2998907
-2.336977	two ten	-0.2998906
-2.336977	two eleven	-0.2998906
-2.336977	two twelve	-0.2998906
-0.6248663	two o	-0.7856356
-0.6140581	two am	-2.084097
-0.6140581	two pm	-2.084097
-2.389994	two thirteen	-0.2998915
-2.389994	two fourteen	-0.2998915
-2.389994	two fifteen	-0.2998915
-2.389994	two sixteen	-0.2998915
-2.389994	two seventeen	-0.2998915
-2.389994	two eighteen	-0.2998915
-2.389994	two nineteen	-0.2998915
-1.389994	two twenty	-0.4484937
-1.389994	two thirty	-0.4484937
-1.389994	two forty	-0.4484937
-1.389994	two fifty	-0.4484937
-2.298473	three one	-0.2998907
-2.298473	three two	-0.2998907
-2.298473	three three	-0.2998907
-2.298473	three four	-0.2998907
-2.298473	three five	-0.2998907
-2.298473	three six	-0.2998907
-2.298473	three seven	-0.2998907
-2.298473	three eight	-0.2998907
-2.298473	three nine	-0.2998907
-2.336977	three ten	-0.2998906
-2.336977	three eleven	-0.2998906
-2.336977	three twelve	-0.2998906
-0.6248663	three o	-0.7856356
-0.6140581	three am	-2.084097
-0.6140581	three pm	-2.084097
-2.389994	three thirteen	-0.2998915
-2.389994	three fourteen	-0.2998915
-2.389994	three fifteen	-0.2998915
-2.389994	three sixteen	-0.2998915
-2.389994	three seventeen	-0.2998915
-2.389994	three eighteen	-0.2998915
-2.389994	three nineteen	-0.2998915
-1.389994	three twenty	-0.4484937
-1.389994	three thirty	-0.4484937
-1.389994	three forty	-0.4484937
-1.389994	three fifty	-0.4484937
-2.298473	four one	-0.2998907
-2.298473	four two	-0.2998907
-2.298473	four three	-0.2998907
-2.298473	four four	-0.2998907
-2.298473	four five	-0.2998907
-2.298473	four six	-0.2998907
-2.298473	four seven	-0.2998907
-2.298473	four eight	-0.2998907
-2.298473	four nine	-0.2998907
-2.336977	four ten	-0.2998906
-2.336977	four eleven	-0.2998906
-2.336977	four twelve	-0.2998906
-0.6248663	four o	-0.7856356
-0.6140581	four am	-2.084097
-0.6140581	four pm	-2.084097
-2.389994	four thirteen	-0.2998915
-2.389994	four fourteen	-0.2998915
-2.389994	four fifteen	-0.2998915
-2.389994	four sixteen	-0.2998915
-2.389994	four seventeen	-0.2998915
-2.389994	four eighteen	-0.2998915
-2.389994	four nineteen	-0.2998915
-1.389994	four twenty	-0.4484937
-1.389994	four thirty	-0.4484937
-1.389994	four forty	-0.4484937
-1.389994	four fifty	-0.4484937
-2.298473	five one	-0.2998907
-2.298473	five two	-0.2998907
-2.298473	five three	-0.2998907
-2.298473	five four	-0.2998907
-2.298473	five five	-0.2998907
-2.298473	five six	-0.2998907
-2.298473	five seven	-0.2998907
-2.298473	five eight	-0.2998907
-2.298473	five nine	-0.2998907
-2.336977	five ten	-0.2998906
-2.336977	five eleven	-0.2998906
-2.336977	five twelve	-0.2998906
-0.6248663	five o	-0.7856356
-0.6140581	five am	-2.084097
-0.6140581	five pm	-2.084097
-2.389994	five thirteen	-0.2998915
-2.389994	five fourteen	-0.2998915
-2.389994	five fifteen	-0.2998915
-2.389994	five sixteen	-0.2998915
-2.389994	five seventeen	-0.2998915
-2.389994	five eighteen	-0.2998915
-2.389994	five nineteen	-0.2998915
-1.389994	five twenty	-0.4484937
-1.389994	five thirty	-0.4484937
-1.389994	five forty	-0.4484937
-1.389994	five fifty	-0.4484937
-2.298473	six one	-0.2998907
-2.298473	six two	-0.2998907
-2.298473	six three	-0.2998907
-2.298473	six four	-0.2998907
-2.298473	six five	-0.2998907
-2.298473	six six	-0.2998907
-2.298473	six seven	-0.2998907
-2.298473	six eight	-0.2998907
-2.298473	six nine	-0.2998907
-2.336977	six ten	-0.2998906
-2.336977	six eleven	-0.2998906
-2.336977	six twelve	-0.2998906
-0.6248663	six o	-0.7856356
-0.6140581	six am	-2.084097
-0.6140581	six pm	-2.084097
-2.389994	six thirteen	-0.2998915
-2.389994	six fourteen	-0.2998915
-2.389994	six fifteen	-0.2998915
-2.389994	six sixteen	-0.2998915
-2.389994	six seventeen	-0.2998915
-2.389994	six eighteen	-0.2998915
-2.389994	six nineteen	-0.2998915
-1.389994	six twenty	-0.4484937
-1.389994	six thirty	-0.4484937
-1.389994	six forty	-0.4484937
-1.389994	six fifty	-0.4484937
-2.298473	seven one	-0.2998907
-2.298473	seven two	-0.2998907
-2.298473	seven three	-0.2998907
-2.298473	seven four	-0.2998907
-2.298473	seven five	-0.2998907
-2.298473	seven six	-0.2998907
-2.298473	seven seven	-0.2998907
-2.298473	seven eight	-0.2998907
-2.298473	seven nine	-0.2998907
-2.336977	seven ten	-0.2998906
-2.336977	seven eleven	-0.2998906
-2.336977	seven twelve	-0.2998906
-0.6248663	seven o	-0.7856356
-0.6140581	seven am	-2.084097
-0.6140581	seven pm	-2.084097
-2.389994	seven thirteen	-0.2998915
-2.389994	seven fourteen	-0.2998915
-2.389994	seven fifteen	-0.2998915
-2.389994	seven sixteen	-0.2998915
-2.389994	seven seventeen	-0.2998915
-2.389994	seven eighteen	-0.2998915
-2.389994	seven nineteen	-0.2998915
-1.389994	seven twenty	-0.4484937
-1.389994	seven thirty	-0.4484937
-1.389994	seven forty	-0.4484937
-1.389994	seven fifty	-0.4484937
-2.298473	eight one	-0.2998907
-2.298473	eight two	-0.2998907
-2.298473	eight three	-0.2998907
-2.298473	eight four	-0.2998907
-2.298473	eight five	-0.2998907
-2.298473	eight six	-0.2998907
-2.298473	eight seven	-0.2998907
-2.298473	eight eight	-0.2998907
-2.298473	eight nine	-0.2998907
-2.336977	eight ten	-0.2998906
-2.336977	eight eleven	-0.2998906
-2.336977	eight twelve	-0.2998906
-0.6248663	eight o	-0.7856356
-0.6140581	eight am	-2.084097
-0.6140581	eight pm	-2.084097
-2.389994	eight thirteen	-0.2998915
-2.389994	eight fourteen	-0.2998915
-2.389994	eight fifteen	-0.2998915
-2.389994	eight sixteen	-0.2998915
-2.389994	eight seventeen	-0.2998915
-2.389994	eight eighteen	-0.2998915
-2.389994	eight nineteen	-0.2998915
-1.389994	eight twenty	-0.4484937
-1.389994	eight thirty	-0.4484937
-1.389994	eight forty	-0.4484937
-1.389994	eight fifty	-0.4484937
-2.298473	nine one	-0.2998907
-2.298473	nine two	-0.2998907
-2.298473	nine three	-0.2998907
-2.298473	nine four	-0.2998907
-2.298473	nine five	-0.2998907
-2.298473	nine six	-0.2998907
-2.298473	nine seven	-0.2998907
-2.298473	nine eight	-0.2998907
-2.298473	nine nine	-0.2998907
-2.336977	nine ten	-0.2998906
-2.336977	nine eleven	-0.2998906
-2.336977	nine twelve	-0.2998906
-0.6248663	nine o	-0.7856356
-0.6140581	nine am	-2.084097
-0.6140581	nine pm	-2.084097
-2.389994	nine thirteen	-0.2998915
-2.389994	nine fourteen	-0.2998915
-2.389994	nine fifteen	-0.2998915
-2.389994	nine sixteen	-0.2998915
-2.389994	nine seventeen	-0.2998915
-2.389994	nine eighteen	-0.2998915
-2.389994	nine nineteen	-0.2998915
-1.389994	nine twenty	-0.4484937
-1.389994	nine thirty	-0.4484937
-1.389994	nine forty	-0.4484937
-1.389994	nine fifty	-0.4484937
-2.090269	ten one	-0.2998907
-2.090269	ten two	-0.2998907
-2.090269	ten three	-0.2998907
-2.090269	ten four	-0.2998907
-2.090269	ten five	-0.2998907
-2.090269	ten six	-0.2998907
-2.090269	ten seven	-0.2998907
-2.090269	ten eight	-0.2998907
-2.090269	ten nine	-0.2998907
-2.128774	ten ten	-0.2998906
-2.128774	ten eleven	-0.2998906
-2.128774	ten twelve	-0.2998906
-0.4166629	ten o	-0.7856356
-1.069464	ten am	-1.41278
-1.069464	ten pm	-1.41278
-2.181791	ten thirteen	-0.2998915
-2.181791	ten fourteen	-0.2998915
-2.181791	ten fifteen	-0.2998915
-2.181791	ten sixteen	-0.2998915
-2.181791	ten seventeen	-0.2998915
-2.181791	ten eighteen	-0.2998915
-2.181791	ten nineteen	-0.2998915
-1.181791	ten twenty	-0.4484937
-1.181791	ten thirty	-0.4484937
-1.181791	ten forty	-0.4484937
-1.181791	ten fifty	-0.4484937
-2.090269	eleven one	-0.2998907
-2.090269	eleven two	-0.2998907
-2.090269	eleven three	-0.2998907
-2.090269	eleven four	-0.2998907
-2.090269	eleven five	-0.2998907
-2.090269	eleven six	-0.2998907
-2.090269	eleven seven	-0.2998907
-2.090269	eleven eight	-0.2998907
-2.090269	eleven nine	-0.2998907
-2.128774	eleven ten	-0.2998906
-2.128774	eleven eleven	-0.2998906
-2.128774	eleven twelve	-0.2998906
-0.4166629	eleven o	-0.7856356
-1.069464	eleven am	-1.41278
-1.069464	eleven pm	-1.41278
-2.181791	eleven thirteen	-0.2998915
-2.181791	eleven fourteen	-0.2998915
-2.181791	eleven fifteen	-0.2998915
-2.181791	eleven sixteen	-0.2998915
-2.181791	eleven seventeen	-0.2998915
-2.181791	eleven eighteen	-0.2998915
-2.181791	eleven nineteen	-0.2998915
-1.181791	eleven twenty	-0.4484937
-1.181791	eleven thirty	-0.4484937
-1.181791	eleven forty	-0.4484937
-1.181791	eleven fifty	-0.4484937
-2.090269	twelve one	-0.2998907
-2.090269	twelve two	-0.2998907
-2.090269	twelve three	-0.2998907
-2.090269	twelve four	-0.2998907
-2.090269	twelve five	-0.2998907
-2.090269	twelve six	-0.2998907
-2.090269	twelve seven	-0.2998907
-2.090269	twelve eight	-0.2998907
-2.090269	twelve nine	-0.2998907
-2.128774	twelve ten	-0.2998906
-2.128774	twelve eleven	-0.2998906
-2.128774	twelve twelve	-0.2998906
-0.4166629	twelve o	-0.7856356
-1.069464	twelve am	-1.41278
-1.069464	twelve pm	-1.41278
-2.181791	twelve thirteen	-0.2998915
-2.181791	twelve fourteen	-0.2998915
-2.181791	twelve fifteen	-0.2998915
-2.181791	twelve sixteen	-0.2998915
-2.181791	twelve seventeen	-0.2998915
-2.181791	twelve eighteen	-0.2998915
-2.181791	twelve nineteen	-0.2998915
-1.181791	twelve twenty	-0.4484937
-1.181791	twelve thirty	-0.4484937
-1.181791	twelve forty	-0.4484937
-1.181791	twelve fifty	-0.4484937
-1.769397	o one	-1.111838
-1.769397	o two	-1.111838
-1.769397	o three	-1.111838
-1.769397	o four	-1.111838
-1.769397	o five	-1.111838
-1.769397	o six	-1.111838
-1.769397	o seven	-1.111838
-1.769397	o eight	-1.111838
-1.769397	o nine	-1.111838
-1.772787	o ten	-1.111838
-1.772787	o eleven	-1.111838
-1.772787	o twelve	-1.111838
-1.777026	o thirteen	-1.111836
-1.777026	o fourteen	-1.111836
-1.777026	o fifteen	-1.111836
-1.777026	o sixteen	-1.111836
-1.777026	o seventeen	-1.111836
-1.777026	o eighteen	-1.111836
-1.777026	o nineteen	-1.111836
-0.7770261	o twenty	-1.356218
-0.7770261	o thirty	-1.356218
-0.7770261	o forty	-1.356218
-0.7770261	o fifty	-1.356218
-0.0002675716	am </s>
-0.0002675716	pm </s>
-0.3166288	thirteen am	-1.39575
-0.3166288	thirteen pm	-1.39575
-0.3166288	fourteen am	-1.39575
-0.3166288	fourteen pm	-1.39575
-0.3166288	fifteen am	-1.39575
-0.3166288	fifteen pm	-1.39575
-0.3166288	sixteen am	-1.39575
-0.3166288	sixteen pm	-1.39575
-0.3166288	seventeen am	-1.39575
-0.3166288	seventeen pm	-1.39575
-0.3166288	eighteen am	-1.39575
-0.3166288	eighteen pm	-1.39575
-0.3166288	nineteen am	-1.39575
-0.3166288	nineteen pm	-1.39575
-1.007846	twenty one	-1.39575
-1.007846	twenty two	-1.39575
-1.007846	twenty three	-1.39575
-1.007846	twenty four	-1.39575
-1.007846	twenty five	-1.39575
-1.007846	twenty six	-1.39575
-1.007846	twenty seven	-1.39575
-1.007846	twenty eight	-1.39575
-1.007846	twenty nine	-1.39575
-1.298842	twenty am	-1.39575
-1.298842	twenty pm	-1.39575
-1.007846	thirty one	-1.39575
-1.007846	thirty two	-1.39575
-1.007846	thirty three	-1.39575
-1.007846	thirty four	-1.39575
-1.007846	thirty five	-1.39575
-1.007846	thirty six	-1.39575
-1.007846	thirty seven	-1.39575
-1.007846	thirty eight	-1.39575
-1.007846	thirty nine	-1.39575
-1.298842	thirty am	-1.39575
-1.298842	thirty pm	-1.39575
-1.007846	forty one	-1.39575
-1.007846	forty two	-1.39575
-1.007846	forty three	-1.39575
-1.007846	forty four	-1.39575
-1.007846	forty five	-1.39575
-1.007846	forty six	-1.39575
-1.007846	forty seven	-1.39575
-1.007846	forty eight	-1.39575
-1.007846	forty nine	-1.39575
-1.298842	forty am	-1.39575
-1.298842	forty pm	-1.39575
-1.007846	fifty one	-1.39575
-1.007846	fifty two	-1.39575
-1.007846	fifty three	-1.39575
-1.007846	fifty four	-1.39575
-1.007846	fifty five	-1.39575
-1.007846	fifty six	-1.39575
-1.007846	fifty seven	-1.39575
-1.007846	fifty eight	-1.39575
-1.007846	fifty nine	-1.39575
-1.298842	fifty am	-1.39575
-1.298842	fifty pm	-1.39575
-0.2727446	stop alarm	-0.2745115
-0.2727446	snooze alarm	-0.2745115
-0.2727446	cancel alarm	-0.2745115
-0.3148989	get weather	-0.2875552
-0.1575394	weather </s>
-0.7873181	play firework	-0.2919989
-0.7873181	play hello	-0.2919989
-0.7873181	play happy	-0.2919989
-0.3102342	firework katy	-0.2919989
-0.3102342	hello adele	-0.2919989
-0.3102342	happy pharrell	-0.2919989
-0.3102342	katy perry	-0.2919989
-0.3101601	adele on	-0.2919989
-0.3102342	pharrell williams	-0.2919989
-0.3101601	perry on	-0.2919989
-0.3101601	williams on	-0.2919989
-0.5018698	on </s>
-0.3706768	on spot	-0.5884419
-0.129556	spot if	-0.5884419
-0.129556	if eye	-0.5884419
-0.1111784	eye </s>
-0.5138319	pause </s>
-0.6149684	pause the	-0.2875552
-0.07086447	song </s>
-0.5138319	skip </s>
-0.6149684	skip the	-0.2875552
-0.5082755	rewind </s>
-0.6056906	rewind the	-0.2964905
-0.5082755	restart </s>
-0.6056906	restart the	-0.2964905
-0.1791362	start over	-0.2964905
-0.5082755	over </s>
-0.6056906	over the	-0.2964905
-0.1024012	turn the	-0.4590603
-1.017638	light </s>
-1.483539	light on	-0.2875552
-1.48394	light off	-0.2875552
-0.6815806	light to	-0.4750956
-0.8576063	light red	-0.6965379
-0.8576063	light green	-0.6965379
-0.8576063	light blue	-0.6965379
-0.4772515	lights </s>
-0.8567606	lights on	-0.2875552
-0.8569325	lights off	-0.2875552
-0.1575394	off </s>
-0.1851617	brighten the	-0.2875552
-0.1851617	dim the	-0.2875552
-0.4264166	make the	-0.5997803
-0.4264596	make light	-0.2995114
-0.6540606	to red	-0.4750954
-0.6540606	to green	-0.4750954
-0.6540606	to blue	-0.4750954
-0.05840384	red </s>
-0.05840384	green </s>
-0.05840384	blue </s>

\3-grams:
-0.6899492	<s> what time
-0.3980633	<s> what is
-0.6991107	<s> what day
-0.1311241	<s> tell me
-0.1309651	<s> what's the
-2.680186	<s> set the
-0.001818236	<s> set alarm
-2.680186	<s> set light
-0.1236997	<s> stop alarm
-0.1236997	<s> snooze alarm
-0.1236997	<s> cancel alarm
-0.1342941	<s> get weather
-0.6082327	<s> play firework
-0.6082327	<s> play hello
-0.6082327	<s> play happy
-0.3978253	<s> pause </s>
-0.434997	<s> pause the
-0.3978253	<s> skip </s>
-0.434997	<s> skip the
-0.393476	<s> rewind </s>
-0.4287163	<s> rewind the
-0.393476	<s> restart </s>
-0.4287163	<s> restart the
-0.05268771	<s> start over
-0.01961904	<s> turn the
-0.05582215	<s> brighten the
-0.05582215	<s> dim the
-0.3293011	<s> make the
-0.3293098	<s> make light
-0.2292176	what time is
-0.1159864	what is the
-0.1342812	what day is
-0.1309651	tell me the
-0.2831407	what's the time
-0.1822685	time is it
-0.2831407	me the time
-0.09176261	the time </s>
-0.1151462	the date </s>
-0.07412751	the weather </s>
-0.0113915	the song </s>
-0.8877772	the light </s>
-1.226563	the light on
-1.226642	the light off
-0.6472906	the light to
-0.8233603	the light red
-0.8233603	the light green
-0.8233603	the light blue
-0.3706486	the lights </s>
-0.6973672	the lights on
-0.6974201	the lights off
-0.5888575	is the date
-0.5888507	is the weather
-0.04782243	is it </s>
-0.1846039	day is it
-0.03855961	set the light
-2.362455e-07	set alarm for
-0.4170539	set light to
-0.8083432	set light red
-0.8083432	set light green
-0.8083432	set light blue
-1.079187	alarm for one
-1.079187	alarm for two
-1.079187	alarm for three
-1.079187	alarm for four
-1.079187	alarm for five
-1.079187	alarm for six
-1.079187	alarm for seven
-1.079187	alarm for eight
-1.079187	alarm for nine
-1.079188	alarm for ten
-1.079188	alarm for eleven
-1.079188	alarm for twelve
-2.093153	for one one
-2.093153	for one two
-2.093153	for one three
-2.093153	for one four
-2.093153	for one five
-2.093153	for one six
-2.093153	for one seven
-2.093153	for one eight
-2.093153	for one nine
-2.095431	for one ten
-2.095431	for one eleven
-2.095431	for one twelve
-0.3277078	for one o
-1.555176	for one am
-1.555176	for one pm
-2.098272	for one thirteen
-2.098272	for one fourteen
-2.098272	for one fifteen
-2.098272	for one sixteen
-2.098272	for one seventeen
-2.098272	for one eighteen
-2.098272	for one nineteen
-1.098272	for one twenty
-1.098272	for one thirty
-1.098272	for one forty
-1.098272	for one fifty
-2.093153	for two one
-2.093153	for two two
-2.093153	for two three
-2.093153	for two four
-2.093153	for two five
-2.093153	for two six
-2.093153	for two seven
-2.093153	for two eight
-2.093153	for two nine
-2.095431	for two ten
-2.095431	for two eleven
-2.095431	for two twelve
-0.3277078	for two o
-1.555176	for two am
-1.555176	for two pm
-2.098272	for two thirteen
-2.098272	for two fourteen
-2.098272	for two fifteen
-2.098272	for two sixteen
-2.098272	for two seventeen
-2.098272	for two eighteen
-2.098272	for two nineteen
-1.098272	for two twenty
-1.098272	for two thirty
-1.098272	for two forty
-1.098272	for two fifty
-2.093153	for three one
-2.093153	for three two
-2.093153	for three three
-2.093153	for three four
-2.093153	for three five
-2.093153	for three six
-2.093153	for three seven
-2.093153	for three eight
-2.093153	for three nine
-2.095431	for three ten
-2.095431	for three eleven
-2.095431	for three twelve
-0.3277078	for three o
-1.555176	for three am
-1.555176	for three pm
-2.098272	for three thirteen
-2.098272	for three fourteen
-2.098272	for three fifteen
-2.098272	for three sixteen
-2.098272	for three seventeen
-2.098272	for three eighteen
-2.098272	for three nineteen
-1.098272	for three twenty
-1.098272	for three thirty
-1.098272	for three forty
-1.098272	for three fifty
-2.093153	for four one
-2.093153	for four two
-2.093153	for four three
-2.093153	for four four
-2.093153	for four five
-2.093153	for four six
-2.093153	for four seven
-2.093153	for four eight
-2.093153	for four nine
-2.095431	for four ten
-2.095431	for four eleven
-2.095431	for four twelve
-0.3277078	for four o
-1.555176	for four am
-1.555176	for four pm
-2.098272	for four thirteen
-2.098272	for four fourteen
-2.098272	for four fifteen
-2.098272	for four sixteen
-2.098272	for four seventeen
-2.098272	for four eighteen
-2.098272	for four nineteen
-1.098272	for four twenty
-1.098272	for four thirty
-1.098272	for four forty
-1.098272	for four fifty
-2.093153	for five one
-2.093153	for five two
-2.093153	for five three
-2.093153	for five four
-2.093153	for five five
-2.093153	for five six
-2.093153	for five seven
-2.093153	for five eight
-2.093153	for five nine
-2.095431	for five ten
-2.095431	for five eleven
-2.095431	for five twelve
-0.3277078	for five o
-1.555176	for five am
-1.555176	for five pm
-2.098272	for five thirteen
-2.098272	for five fourteen
-2.098272	for five fifteen
-2.098272	for five sixteen
-2.098272	for five seventeen
-2.098272	for five eighteen
-2.098272	for five nineteen
-1.098272	for five twenty
-1.098272	for five thirty
-1.098272	for five forty
-1.098272	for five fifty
-2.093153	for six one
-2.093153	for six two
-2.093153	for six three
-2.093153	for six four
-2.093153	for six five
-2.093153	for six six
-2.093153	for six seven
-2.093153	for six eight
-2.093153	for six nine
-2.095431	for six ten
-2.095431	for six eleven
-2.095431	for six twelve
-0.3277078	for six o
-1.555176	for six am
-1.555176	for six pm
-2.098272	for six thirteen
-2.098272	for six fourteen
-2.098272	for six fifteen
-2.098272	for six sixteen
-2.098272	for six seventeen
-2.098272	for six eighteen
-2.098272	for six nineteen
-1.098272	for six twenty
-1.098272	for six thirty
-1.098272	for six forty
-1.098272	for six fifty
-2.093153	for seven one
-2.093153	for seven two
-2.093153	for seven three
-2.093153	for seven four
-2.093153	for seven five
-2.093153	for seven six
-2.093153	for seven seven
-2.093153	for seven eight
-2.093153	for seven nine
-2.095431	for seven ten
-2.095431	for seven eleven
-2.095431	for seven twelve
-0.3277078	for seven o
-1.555176	for seven am
-1.555176	for seven pm
-2.098272	for seven thirteen
-2.098272	for seven fourteen
-2.098272	for seven fifteen
-2.098272	for seven sixteen
-2.098272	for seven seventeen
-2.098272	for seven eighteen
-2.098272	for seven nineteen
-1.098272	for seven twenty
-1.098272	for seven thirty
-1.098272	for seven forty
-1.098272	for seven fifty
-2.093153	for eight one
-2.093153	for eight two
-2.093153	for eight three
-2.093153	for eight four
-2.093153	for eight five
-2.093153	for eight six
-2.093153	for eight seven
-2.093153	for eight eight
-2.093153	for eight nine
-2.095431	for eight ten
-2.095431	for eight eleven
-2.095431	for eight twelve
-0.3277078	for eight o
-1.555176	for eight am
-1.555176	for eight pm
-2.098272	for eight thirteen
-2.098272	for eight fourteen
-2.098272	for eight fifteen
-2.098272	for eight sixteen
-2.098272	for eight seventeen
-2.098272	for eight eighteen
-2.098272	for eight nineteen
-1.098272	for eight twenty
-1.098272	for eight thirty
-1.098272	for eight forty
-1.098272	for eight fifty
-2.093153	for nine one
-2.093153	for nine two
-2.093153	for nine three
-2.093153	for nine four
-2.093153	for nine five
-2.093153	for nine six
-2.093153	for nine seven
-2.093153	for nine eight
-2.093153	for nine nine
-2.095431	for nine ten
-2.095431	for nine eleven
-2.095431	for nine twelve
-0.3277078	for nine o
-1.555176	for nine am
-1.555176	for nine pm
-2.098272	for nine thirteen
-2.098272	for nine fourteen
-2.098272	for nine fifteen
-2.098272	for nine sixteen
-2.098272	for nine seventeen
-2.098272	for nine eighteen
-2.098272	for nine nineteen
-1.098272	for nine twenty
-1.098272	for nine thirty
-1.098272	for nine forty
-1.098272	for nine fifty
-2.076982	for ten one
-2.076982	for ten two
-2.076982	for ten three
-2.076982	for ten four
-2.076982	for ten five
-2.076982	for ten six
-2.076982	for ten seven
-2.076982	for ten eight
-2.076982	for ten nine
-2.080532	for ten ten
-2.080532	for ten eleven
-2.080532	for ten twelve
-0.314573	for ten o
-1.912981	for ten am
-1.912981	for ten pm
-2.084975	for ten thirteen
-2.084975	for ten fourteen
-2.084975	for ten fifteen
-2.084975	for ten sixteen
-2.084975	for ten seventeen
-2.084975	for ten eighteen
-2.084975	for ten nineteen
-1.084974	for ten twenty
-1.084974	for ten thirty
-1.084974	for ten forty
-1.084974	for ten fifty
-2.076982	for eleven one
-2.076982	for eleven two
-2.076982	for eleven three
-2.076982	for eleven four
-2.076982	for eleven five
-2.076982	for eleven six
-2.076982	for eleven seven
-2.076982	for eleven eight
-2.076982	for eleven nine
-2.080532	for eleven ten
-2.080532	for eleven eleven
-2.080532	for eleven twelve
-0.314573	for eleven o
-1.912981	for eleven am
-1.912981	for eleven pm
-2.084975	for eleven thirteen
-2.084975	for eleven fourteen
-2.084975	for eleven fifteen
-2.084975	for eleven sixteen
-2.084975	for eleven seventeen
-2.084975	for eleven eighteen
-2.084975	for eleven nineteen
-1.084974	for eleven twenty
-1.084974	for eleven thirty
-1.084974	for eleven forty
-1.084974	for eleven fifty
-2.076982	for twelve one
-2.076982	for twelve two
-2.076982	for twelve three
-2.076982	for twelve four
-2.076982	for twelve five
-2.076982	for twelve six
-2.076982	for twelve seven
-2.076982	for twelve eight
-2.076982	for twelve nine
-2.080532	for twelve ten
-2.080532	for twelve eleven
-2.080532	for twelve twelve
-0.314573	for twelve o
-1.912981	for twelve am
-1.912981	for twelve pm
-2.084975	for twelve thirteen
-2.084975	for twelve fourteen
-2.084975	for twelve fifteen
-2.084975	for twelve sixteen
-2.084975	for twelve seventeen
-2.084975	for twelve eighteen
-2.084975	for twelve nineteen
-1.084974	for twelve twenty
-1.084974	for twelve thirty
-1.084974	for twelve forty
-1.084974	for twelve fifty
-0.4303258	one one am
-0.4303258	one one pm
-0.4303258	one two am
-0.4303258	one two pm
-0.4303258	one three am
-0.4303258	one three pm
-0.4303258	one four am
-0.4303258	one four pm
-0.4303258	one five am
-0.4303258	one five pm
-0.4303258	one six am
-0.4303258	one six pm
-0.4303258	one seven am
-0.4303258	one seven pm
-0.4303258	one eight am
-0.4303258	one eight pm
-0.4303258	one nine am
-0.4303258	one nine pm
-0.534521	one ten am
-0.534521	one ten pm
-0.534521	one eleven am
-0.534521	one eleven pm
-0.534521	one twelve am
-0.534521	one twelve pm
-1.770613	one o one
-1.770613	one o two
-1.770613	one o three
-1.770613	one o four
-1.770613	one o five
-1.770613	one o six
-1.770613	one o seven
-1.770613	one o eight
-1.770613	one o nine
-1.771168	one o ten
-1.771168	one o eleven
-1.771168	one o twelve
-1.771857	one o thirteen
-1.771857	one o fourteen
-1.771857	one o fifteen
-1.771857	one o sixteen
-1.771857	one o seventeen
-1.771857	one o eighteen
-1.771857	one o nineteen
-0.7718575	one o twenty
-0.7718575	one o thirty
-0.7718575	one o forty
-0.7718575	one o fifty
-2.203995e-06	one am </s>
-2.203995e-06	one pm </s>
-0.3087798	one thirteen am
-0.3087798	one thirteen pm
-0.3087798	one fourteen am
-0.3087798	one fourteen pm
-0.3087798	one fifteen am
-0.3087798	one fifteen pm
-0.3087798	one sixteen am
-0.3087798	one sixteen pm
-0.3087798	one seventeen am
-0.3087798	one seventeen pm
-0.3087798	one eighteen am
-0.3087798	one eighteen pm
-0.3087798	one nineteen am
-0.3087798	one nineteen pm
-1.002777	one twenty one
-1.002777	one twenty two
-1.002777	one twenty three
-1.002777	one twenty four
-1.002777	one twenty five
-1.002777	one twenty six
-1.002777	one twenty seven
-1.002777	one twenty eight
-1.002777	one twenty nine
-1.30025	one twenty am
-1.30025	one twenty pm
-1.002777	one thirty one
-1.002777	one thirty two
-1.002777	one thirty three
-1.002777	one thirty four
-1.002777	one thirty five
-1.002777	one thirty six
-1.002777	one thirty seven
-1.002777	one thirty eight
-1.002777	one thirty nine
-1.30025	one thirty am
-1.30025	one thirty pm
-1.002777	one forty one
-1.002777	one forty two
-1.002777	one forty three
-1.002777	one forty four
-1.002777	one forty five
-1.002777	one forty six
-1.002777	one forty seven
-1.002777	one forty eight
-1.002777	one forty nine
-1.30025	one forty am
-1.30025	one forty pm
-1.002777	one fifty one
-1.002777	one fifty two
-1.002777	one fifty three
-1.002777	one fifty four
-1.002777	one fifty five
-1.002777	one fifty six
-1.002777	one fifty seven
-1.002777	one fifty eight
-1.002777	one fifty nine
-1.30025	one fifty am
-1.30025	one fifty pm
-0.4303258	two one am
-0.4303258	two one pm
-0.4303258	two two am
-0.4303258	two two pm
-0.4303258	two three am
-0.4303258	two three pm
-0.4303258	two four am
-0.4303258	two four pm
-0.4303258	two five am
-0.4303258	two five pm
-0.4303258	two six am
-0.4303258	two six pm
-0.4303258	two seven am
-0.4303258	two seven pm
-0.4303258	two eight am
-0.4303258	two eight pm
-0.4303258	two nine am
-0.4303258	two nine pm
-0.534521	two ten am
-0.534521	two ten pm
-0.534521	two eleven am
-0.534521	two eleven pm
-0.534521	two twelve am
-0.534521	two twelve pm
-1.770613	two o one
-1.770613	two o two
-1.770613	two o three
-1.770613	two o four
-1.770613	two o five
-1.770613	two o six
-1.770613	two o seven
-1.770613	two o eight
-1.770613	two o nine
-1.771168	two o ten
-1.771168	two o eleven
-1.771168	two o twelve
-1.771857	two o thirteen
-1.771857	two o fourteen
-1.771857	two o fifteen
-1.771857	two o sixteen
-1.771857	two o seventeen
-1.771857	two o eighteen
-1.771857	two o nineteen
-0.7718575	two o twenty
-0.7718575	two o thirty
-0.7718575	two o forty
-0.7718575	two o fifty
-2.203995e-06	two am </s>
-2.203995e-06	two pm </s>
-0.3087798	two thirteen am
-0.3087798	two thirteen pm
-0.3087798	two fourteen am
-0.3087798	two fourteen pm
-0.3087798	two fifteen am
-0.3087798	two fifteen pm
-0.3087798	two sixteen am
-0.3087798	two sixteen pm
-0.3087798	two seventeen am
-0.3087798	two seventeen pm
-0.3087798	two eighteen am
-0.3087798	two eighteen pm
-0.3087798	two nineteen am
-0.3087798	two nineteen pm
-1.002777	two twenty one
-1.002777	two twenty two
-1.002777	two twenty three
-1.002777	two twenty four
-1.002777	two twenty five
-1.002777	two twenty six
-1.002777	two twenty seven
-1.002777	two twenty eight
-1.002777	two twenty nine
-1.30025	two twenty am
-1.30025	two twenty pm
-1.002777	two thirty one
-1.002777	two thirty two
-1.002777	two thirty three
-1.002777	two thirty four
-1.002777	two thirty five
-1.002777	two thirty six
-1.002777	two thirty seven
-1.002777	two thirty eight
-1.002777	two thirty nine
-1.30025	two thirty am
-1.30025	two thirty pm
-1.002777	two forty one
-1.002777	two forty two
-1.002777	two forty three
-1.002777	two forty four
-1.002777	two forty five
-1.002777	two forty six
-1.002777	two forty seven
-1.002777	two forty eight
-1.002777	two forty nine
-1.30025	two forty am
-1.30025	two forty pm
-1.002777	two fifty one
-1.002777	two fifty two
-1.002777	two fifty three
-1.002777	two fifty four
-1.002777	two fifty five
-1.002777	two fifty six
-1.002777	two fifty seven
-1.002777	two fifty eight
-1.002777	two fifty nine
-1.30025	two fifty am
-1.30025	two fifty pm
-0.4303258	three one am
-0.4303258	three one pm
-0.4303258	three two am
-0.4303258	three two pm
-0.4303258	three three am
-0.4303258	three three pm
-0.4303258	three four am
-0.4303258	three four pm
-0.4303258	three five am
-0.4303258	three five pm
-0.4303258	three six am
-0.4303258	three six pm
-0.4303258	three seven am
-0.4303258	three seven pm
-0.4303258	three eight am
-0.4303258	three eight pm
-0.4303258	three nine am
-0.4303258	three nine pm
-0.534521	three ten am
-0.534521	three ten pm
-0.534521	three eleven am
-0.534521	three eleven pm
-0.534521	three twelve am
-0.534521	three twelve pm
-1.770613	three o one
-1.770613	three o two
-1.770613	three o three
-1.770613	three o four
-1.770613	three o five
-1.770613	three o six
-1.770613	three o seven
-1.770613	three o eight
-1.770613	three o nine
-1.771168	three o ten
-1.771168	three o eleven
-1.771168	three o twelve
-1.771857	three o thirteen
-1.771857	three o fourteen
-1.771857	three o fifteen
-1.771857	three o sixteen
-1.771857	three o seventeen
-1.771857	three o eighteen
-1.771857	three o nineteen
-0.7718575	three o twenty
-0.7718575	three o thirty
-0.7718575	three o forty
-0.7718575	three o fifty
-2.203995e-06	three am </s>
-2.203995e-06	three pm </s>
-0.3087798	three thirteen am
-0.3087798	three thirteen pm
-0.3087798	three fourteen am
-0.3087798	three fourteen pm
-0.3087798	three fifteen am
-0.3087798	three fifteen pm
-0.3087798	three sixteen am
-0.3087798	three sixteen pm
-0.3087798	three seventeen am
-0.3087798	three seventeen pm
-0.3087798	three eighteen am
-0.3087798	three eighteen pm
-0.3087798	three nineteen am
-0.3087798	three nineteen pm
-1.002777	three twenty one
-1.002777	three twenty two
-1.002777	three twenty three
-1.002777	three twenty four
-1.002777	three twenty five
-1.002777	three twenty six
-1.002777	three twenty seven
-1.002777	three twenty eight
-1.002777	three twenty nine
-1.30025	three twenty am
-1.30025	three twenty pm
-1.002777	three thirty one
-1.002777	three thirty two
-1.002777	three thirty three
-1.002777	three thirty four
-1.002777	three thirty five
-1.002777	three thirty six
-1.002777	three thirty seven
-1.002777	three thirty eight
-1.002777	three thirty nine
-1.30025	three thirty am
-1.30025	three thirty pm
-1.002777	three forty one
-1.002777	three forty two
-1.002777	three forty three
-1.002777	three forty four
-1.002777	three forty five
-1.002777	three forty six
-1.002777	three forty seven
-1.002777	three forty eight
-1.002777	three forty nine
-1.30025	three forty am
-1.30025	three forty pm
-1.002777	three fifty one
-1.002777	three fifty two
-1.002777	three fifty three
-1.002777	three fifty four
-1.002777	three fifty five
-1.002777	three fifty six
-1.002777	three fifty seven
-1.002777	three fifty eight
-1.002777	three fifty nine
-1.30025	three fifty am
-1.30025	three fifty pm
-0.4303258	four one am
-0.4303258	four one pm
-0.4303258	four two am
-0.4303258	four two pm
-0.4303258	four three am
-0.4303258	four three pm
-0.4303258	four four am
-0.4303258	four four pm
-0.4303258	four five am
-0.4303258	four five pm
-0.4303258	four six am
-0.4303258	four six pm
-0.4303258	four seven am
-0.4303258	four seven pm
-0.4303258	four eight am
-0.4303258	four eight pm
-0.4303258	four nine am
-0.4303258	four nine pm
-0.534521	four ten am
-0.534521	four ten pm
-0.534521	four eleven am
-0.534521	four eleven pm
-0.534521	four twelve am
-0.534521	four twelve pm
-1.770613	four o one
-1.770613	four o two
-1.770613	four o three
-1.770613	four o four
-1.770613	four o five
-1.770613	four o six
-1.770613	four o seven
-1.770613	four o eight
-1.770613	four o nine
-1.771168	four o ten
-1.771168	four o eleven
-1.771168	four o twelve
-1.771857	four o thirteen
-1.771857	four o fourteen
-1.771857	four o fifteen
-1.771857	four o sixteen
-1.771857	four o seventeen
-1.771857	four o eighteen
-1.771857	four o nineteen
-0.7718575	four o twenty
-0.7718575	four o thirty
-0.7718575	four o forty
-0.7718575	four o fifty
-2.203995e-06	four am </s>
-2.203995e-06	four pm </s>
-0.3087798	four thirteen am
-0.3087798	four thirteen pm
-0.3087798	four fourteen am
-0.3087798	four fourteen pm
-0.3087798	four fifteen am
-0.3087798	four fifteen pm
-0.3087798	four sixteen am
-0.3087798	four sixteen pm
-0.3087798	four seventeen am
-0.3087798	four seventeen pm
-0.3087798	four eighteen am
-0.3087798	four eighteen pm
-0.3087798	four nineteen am
-0.3087798	four nineteen pm
-1.002777	four twenty one
-1.002777	four twenty two
-1.002777	four twenty three
-1.002777	four twenty four
-1.002777	four twenty five
-1.002777	four twenty six
-1.002777	four twenty seven
-1.002777	four twenty eight
-1.002777	four twenty nine
-1.30025	four twenty am
-1.30025	four twenty pm
-1.002777	four thirty one
-1.002777	four thirty two
-1.002777	four thirty three
-1.002777	four thirty four
-1.002777	four thirty five
-1.002777	four thirty six
-1.002777	four thirty seven
-1.002777	four thirty eight
-1.002777	four thirty nine
-1.30025	four thirty am
-1.30025	four thirty pm
-1.002777	four forty one
-1.002777	four forty two
-1.002777	four forty three
-1.002777	four forty four
-1.002777	four forty five
-1.002777	four forty six
-1.002777	four forty seven
-1.002777	four forty eight
-1.002777	four forty nine
-1.30025	four forty am
-1.30025	four forty pm
-1.002777	four fifty one
-1.002777	four fifty two
-1.002777	four fifty three
-1.002777	four fifty four
-1.002777	four fifty five
-1.002777	four fifty six
-1.002777	four fifty seven
-1.002777	four fifty eight
-1.002777	four fifty nine
-1.30025	four fifty am
-1.30025	four fifty pm
-0.4303258	five one am
-0.4303258	five one pm
-0.4303258	five two am
-0.4303258	five two pm
-0.4303258	five three am
-0.4303258	five three pm
-0.4303258	five four am
-0.4303258	five four pm
-0.4303258	five five am
-0.4303258	five five pm
-0.4303258	five six am
-0.4303258	five six pm
-0.4303258	five seven am
-0.4303258	five seven pm
-0.4303258	five eight am
-0.4303258	five eight pm
-0.4303258	five nine am
-0.4303258	five nine pm
-0.534521	five ten am
-0.534521	five ten pm
-0.534521	five eleven am
-0.534521	five eleven pm
-0.534521	five twelve am
-0.534521	five twelve pm
-1.770613	five o one
-1.770613	five o two
-1.770613	five o three
-1.770613	five o four
-1.770613	five o five
-1.770613	five o six
-1.770613	five o seven
-1.770613	five o eight
-1.770613	five o nine
-1.771168	five o ten
-1.771168	five o eleven
-1.771168	five o twelve
-1.771857	five o thirteen
-1.771857	five o fourteen
-1.771857	five o fifteen
-1.771857	five o sixteen
-1.771857	five o seventeen
-1.771857	five o eighteen
-1.771857	five o nineteen
-0.7718575	five o twenty
-0.7718575	five o thirty
-0.7718575	five o forty
-0.7718575	five o fifty
-2.203995e-06	five am </s>
-2.203995e-06	five pm </s>
-0.3087798	five thirteen am
-0.3087798	five thirteen pm
-0.3087798	five fourteen am
-0.3087798	five fourteen pm
-0.3087798	five fifteen am
-0.3087798	five fifteen pm
-0.3087798	five sixteen am
-0.3087798	five sixteen pm
-0.3087798	five seventeen am
-0.3087798	five seventeen pm
-0.3087798	five eighteen am
-0.3087798	five eighteen pm
-0.3087798	five nineteen am
-0.3087798	five nineteen pm
-1.002777	five twenty one
-1.002777	five twenty two
-1.002777	five twenty three
-1.002777	five twenty four
-1.002777	five twenty five
-1.002777	five twenty six
-1.002777	five twenty seven
-1.002777	five twenty eight
-1.002777	five twenty nine
-1.30025	five twenty am
-1.30025	five twenty pm
-1.002777	five thirty one
-1.002777	five thirty two
-1.002777	five thirty three
-1.002777	five thirty four
-1.002777	five thirty five
-1.002777	five thirty six
-1.002777	five thirty seven
-1.002777	five thirty eight
-1.002777	five thirty nine
-1.30025	five thirty am
-1.30025	five thirty pm
-1.002777	five forty one
-1.002777	five forty two
-1.002777	five forty three
-1.002777	five forty four
-1.002777	five forty five
-1.002777	five forty six
-1.002777	five forty seven
-1.002777	five forty eight
-1.002777	five forty nine
-1.30025	five forty am
-1.30025	five forty pm
-1.002777	five fifty one
-1.002777	five fifty two
-1.002777	five fifty three
-1.002777	five fifty four
-1.002777	five fifty five
-1.002777	five fifty six
-1.002777	five fifty seven
-1.002777	five fifty eight
-1.002777	five fifty nine
-1.30025	five fifty am
-1.30025	five fifty pm
-0.4303258	six one am
-0.4303258	six one pm
-0.4303258	six two am
-0.4303258	six two pm
-0.4303258	six three am
-0.4303258	six three pm
-0.4303258	six four am
-0.4303258	six four pm
-0.4303258	six five am
-0.4303258	six five pm
-0.4303258	six six am
-0.4303258	six six pm
-0.4303258	six seven am
-0.4303258	six seven pm
-0.4303258	six eight am
-0.4303258	six eight pm
-0.4303258	six nine am
-0.4303258	six nine pm
-0.534521	six ten am
-0.534521	six ten pm
-0.534521	six eleven am
-0.534521	six eleven pm
-0.534521	six twelve am
-0.534521	six twelve pm
-1.770613	six o one
-1.770613	six o two
-1.770613	six o three
-1.770613	six o four
-1.770613	six o five
-1.770613	six o six
-1.770613	six o seven
-1.770613	six o eight
-1.770613	six o nine
-1.771168	six o ten
-1.771168	six o eleven
-1.771168	six o twelve
-1.771857	six o thirteen
-1.771857	six o fourteen
-1.771857	six o fifteen
-1.771857	six o sixteen
-1.771857	six o seventeen
-1.771857	six o eighteen
-1.771857	six o nineteen
-0.7718575	six o twenty
-0.7718575	six o thirty
-0.7718575	six o forty
-0.7718575	six o fifty
-2.203995e-06	six am </s>
-2.203995e-06	six pm </s>
-0.3087798	six thirteen am
-0.3087798	six thirteen pm
-0.3087798	six fourteen am
-0.3087798	six fourteen pm
-0.3087798	six fifteen am
-0.3087798	six fifteen pm
-0.3087798	six sixteen am
-0.3087798	six sixteen pm
-0.3087798	six seventeen am
-0.3087798	six seventeen pm
-0.3087798	six eighteen am
-0.3087798	six eighteen pm
-0.3087798	six nineteen am
-0.3087798	six nineteen pm
-1.002777	six twenty one
-1.002777	six twenty two
-1.002777	six twenty three
-1.002777	six twenty four
-1.002777	six twenty five
-1.002777	six twenty six
-1.002777	six twenty seven
-1.002777	six twenty eight
-1.002777	six twenty nine
-1.30025	six twenty am
-1.30025	six twenty pm
-1.002777	six thirty one
-1.002777	six thirty two
-1.002777	six thirty three
-1.002777	six thirty four
-1.002777	six thirty five
-1.002777	six thirty six
-1.002777	six thirty seven
-1.002777	six thirty eight
-1.002777	six thirty nine
-1.30025	six thirty am
-1.30025	six thirty pm
-1.002777	six forty one
-1.002777	six forty two
-1.002777	six forty three
-1.002777	six forty four
-1.002777	six forty five
-1.002777	six forty six
-1.002777	six forty seven
-1.002777	six forty eight
-1.002777	six forty nine
-1.30025	six forty am
-1.30025	six forty pm
-1.002777	six fifty one
-1.002777	six fifty two
-1.002777	six fifty three
-1.002777	six fifty four
-1.002777	six fifty five
-1.002777	six fifty six
-1.002777	six fifty seven
-1.002777	six fifty eight
-1.002777	six fifty nine
-1.30025	six fifty am
-1.30025	six fifty pm
-0.4303258	seven one am
-0.4303258	seven one pm
-0.4303258	seven two am
-0.4303258	seven two pm
-0.4303258	seven three am
-0.4303258	seven three pm
-0.4303258	seven four am
-0.4303258	seven four pm
-0.4303258	seven five am
-0.4303258	seven five pm
-0.4303258	seven six am
-0.4303258	seven six pm
-0.4303258	seven seven am
-0.4303258	seven seven pm
-0.4303258	seven eight am
-0.4303258	seven eight pm
-0.4303258	seven nine am
-0.4303258	seven nine pm
-0.534521	seven ten am
-0.534521	seven ten pm
-0.534521	seven eleven am
-0.534521	seven eleven pm
-0.534521	seven twelve am
-0.534521	seven twelve pm
-1.770613	seven o one
-1.770613	seven o two
-1.770613	seven o three
-1.770613	seven o four
-1.770613	seven o five
-1.770613	seven o six
-1.770613	seven o seven
-1.770613	seven o eight
-1.770613	seven o nine
-1.771168	seven o ten
-1.771168	seven o eleven
-1.771168	seven o twelve
-1.771857	seven o thirteen
-1.771857	seven o fourteen
-1.771857	seven o fifteen
-1.771857	seven o sixteen
-1.771857	seven o seventeen
-1.771857	seven o eighteen
-1.771857	seven o nineteen
-0.7718575	seven o twenty
-0.7718575	seven o thirty
-0.7718575	seven o forty
-0.7718575	seven o fifty
-2.203995e-06	seven am </s>
-2.203995e-06	seven pm </s>
-0.3087798	seven thirteen am
-0.3087798	seven thirteen pm
-0.3087798	seven fourteen am
-0.3087798	seven fourteen pm
-0.3087798	seven fifteen am
-0.3087798	seven fifteen pm
-0.3087798	seven sixteen am
-0.3087798	seven sixteen pm
-0.3087798	seven seventeen am
-0.3087798	seven seventeen pm
-0.3087798	seven eighteen am
-0.3087798	seven eighteen pm
-0.3087798	seven nineteen am
-0.3087798	seven nineteen pm
-1.002777	seven twenty one
-1.002777	seven twenty two
-1.002777	seven twenty three
-1.002777	seven twenty four
-1.002777	seven twenty five
-1.002777	seven twenty six
-1.002777	seven twenty seven
-1.002777	seven twenty eight
-1.002777	seven twenty nine
-1.30025	seven twenty am
-1.30025	seven twenty pm
-1.002777	seven thirty one
-1.002777	seven thirty two
-1.002777	seven thirty three
-1.002777	seven thirty four
-1.002777	seven thirty five
-1.002777	seven thirty six
-1.002777	seven thirty seven
-1.002777	seven thirty eight
-1.002777	seven thirty nine
-1.30025	seven thirty am
-1.30025	seven thirty pm
-1.002777	seven forty one
-1.002777	seven forty two
-1.002777	seven forty three
-1.002777	seven forty four
-1.002777	seven forty five
-1.002777	seven forty six
-1.002777	seven forty seven
-1.002777	seven forty eight
-1.002777	seven forty nine
-1.30025	seven forty am
-1.30025	seven forty pm
-1.002777	seven fifty one
-1.002777	seven fifty two
-1.002777	seven fifty three
-1.002777	seven fifty four
-1.002777	seven fifty five
-1.002777	seven fifty six
-1.002777	seven fifty seven
-1.002777	seven fifty eight
-1.002777	seven fifty nine
-1.30025	seven fifty am
-1.30025	seven fifty pm
-0.4303258	eight one am
-0.4303258	eight one pm
-0.4303258	eight two am
-0.4303258	eight two pm
-0.4303258	eight three am
-0.4303258	eight three pm
-0.4303258	eight four am
-0.4303258	eight four pm
-0.4303258	eight five am
-0.4303258	eight five pm
-0.4303258	eight six am
-0.4303258	eight six pm
-0.4303258	eight seven am
-0.4303258	eight seven pm
-0.4303258	eight eight am
-0.4303258	eight eight pm
-0.4303258	eight nine am
-0.4303258	eight nine pm
-0.534521	eight ten am
-0.534521	eight ten pm
-0.534521	eight eleven am
-0.534521	eight eleven pm
-0.534521	eight twelve am
-0.534521	eight twelve pm
-1.770613	eight o one
-1.770613	eight o two
-1.770613	eight o three
-1.770613	eight o four
-1.770613	eight o five
-1.770613	eight o six
-1.770613	eight o seven
-1.770613	eight o eight
-1.770613	eight o nine
-1.771168	eight o ten
-1.771168	eight o eleven
-1.771168	eight o twelve
-1.771857	eight o thirteen
-1.771857	eight o fourteen
-1.771857	eight o fifteen
-1.771857	eight o sixteen
-1.771857	eight o seventeen
-1.771857	eight o eighteen
-1.771857	eight o nineteen
-0.7718575	eight o twenty
-0.7718575	eight o thirty
-0.7718575	eight o forty
-0.7718575	eight o fifty
-2.203995e-06	eight am </s>
-2.203995e-06	eight pm </s>
-0.3087798	eight thirteen am
-0.3087798	eight thirteen pm
-0.3087798	eight fourteen am
-0.3087798	eight fourteen pm
-0.3087798	eight fifteen am
-0.3087798	eight fifteen pm
-0.3087798	eight sixteen am
-0.3087798	eight sixteen pm
-0.3087798	eight seventeen am
-0.3087798	eight seventeen pm
-0.3087798	eight eighteen am
-0.3087798	eight eighteen pm
-0.3087798	eight nineteen am
-0.3087798	eight nineteen pm
-1.002777	eight twenty one
-1.002777	eight twenty two
-1.002777	eight twenty three
-1.002777	eight twenty four
-1.002777	eight twenty five
-1.002777	eight twenty six
-1.002777	eight twenty seven
-1.002777	eight twenty eight
-1.002777	eight twenty nine
-1.30025	eight twenty am
-1.30025	eight twenty pm
-1.002777	eight thirty one
-1.002777	eight thirty two
-1.002777	eight thirty three
-1.002777	eight thirty four
-1.002777	eight thirty five
-1.002777	eight thirty six
-1.002777	eight thirty seven
-1.002777	eight thirty eight
-1.002777	eight thirty nine
-1.30025	eight thirty am
-1.30025	eight thirty pm
-1.002777	eight forty one
-1.002777	eight forty two
-1.002777	eight forty three
-1.002777	eight forty four
-1.002777	eight forty five
-1.002777	eight forty six
-1.002777	eight forty seven
-1.002777	eight forty eight
-1.002777	eight forty nine
-1.30025	eight forty am
-1.30025	eight forty pm
-1.002777	eight fifty one
-1.002777	eight fifty two
-1.002777	eight fifty three
-1.002777	eight fifty four
-1.002777	eight fifty five
-1.002777	eight fifty six
-1.002777	eight fifty seven
-1.002777	eight fifty eight
-1.002777	eight fifty nine
-1.30025	eight fifty am
-1.30025	eight fifty pm
-0.4303258	nine one am
-0.4303258	nine one pm
-0.4303258	nine two am
-0.4303258	nine two pm
-0.4303258	nine three am
-0.4303258	nine three pm
-0.4303258	nine four am
-0.4303258	nine four pm
-0.4303258	nine five am
-0.4303258	nine five pm
-0.4303258	nine six am
-0.4303258	nine six pm
-0.4303258	nine seven am
-0.4303258	nine seven pm
-0.4303258	nine eight am
-0.4303258	nine eight pm
-0.4303258	nine nine am
-0.4303258	nine nine pm
-0.534521	nine ten am
-0.534521	nine ten pm
-0.534521	nine eleven am
-0.534521	nine eleven pm
-0.534521	nine twelve am
-0.534521	nine twelve pm
-1.770613	nine o one
-1.770613	nine o two
-1.770613	nine o three
-1.770613	nine o four
-1.770613	nine o five
-1.770613	nine o six
-1.770613	nine o seven
-1.770613	nine o eight
-1.770613	nine o nine
-1.771168	nine o ten
-1.771168	nine o eleven
-1.771168	nine o twelve
-1.771857	nine o thirteen
-1.771857	nine o fourteen
-1.771857	nine o fifteen
-1.771857	nine o sixteen
-1.771857	nine o seventeen
-1.771857	nine o eighteen
-1.771857	nine o nineteen
-0.7718575	nine o twenty
-0.7718575	nine o thirty
-0.7718575	nine o forty
-0.7718575	nine o fifty
-2.203995e-06	nine am </s>
-2.203995e-06	nine pm </s>
-0.3087798	nine thirteen am
-0.3087798	nine thirteen pm
-0.3087798	nine fourteen am
-0.3087798	nine fourteen pm
-0.3087798	nine fifteen am
-0.3087798	nine fifteen pm
-0.3087798	nine sixteen am
-0.3087798	nine sixteen pm
-0.3087798	nine seventeen am
-0.3087798	nine seventeen pm
-0.3087798	nine eighteen am
-0.3087798	nine eighteen pm
-0.3087798	nine nineteen am
-0.3087798	nine nineteen pm
-1.002777	nine twenty one
-1.002777	nine twenty two
-1.002777	nine twenty three
-1.002777	nine twenty four
-1.002777	nine twenty five
-1.002777	nine twenty six
-1.002777	nine twenty seven
-1.002777	nine twenty eight
-1.002777	nine twenty nine
-1.30025	nine twenty am
-1.30025	nine twenty pm
-1.002777	nine thirty one
-1.002777	nine thirty two
-1.002777	nine thirty three
-1.002777	nine thirty four
-1.002777	nine thirty five
-1.002777	nine thirty six
-1.002777	nine thirty seven
-1.002777	nine thirty eight
-1.002777	nine thirty nine
-1.30025	nine thirty am
-1.30025	nine thirty pm
-1.002777	nine forty one
-1.002777	nine forty two
-1.002777	nine forty three
-1.002777	nine forty four
-1.002777	nine forty five
-1.002777	nine forty six
-1.002777	nine forty seven
-1.002777	nine forty eight
-1.002777	nine forty nine
-1.30025	nine forty am
-1.30025	nine forty pm
-1.002777	nine fifty one
-1.002777	nine fifty two
-1.002777	nine fifty three
-1.002777	nine fifty four
-1.002777	nine fifty five
-1.002777	nine fifty six
-1.002777	nine fifty seven
-1.002777	nine fifty eight
-1.002777	nine fifty nine
-1.30025	nine fifty am
-1.30025	nine fifty pm
-0.4303258	ten one am
-0.4303258	ten one pm
-0.4303258	ten two am
-0.4303258	ten two pm
-0.4303258	ten three am
-0.4303258	ten three pm
-0.4303258	ten four am
-0.4303258	ten four pm
-0.4303258	ten five am
-0.4303258	ten five pm
-0.4303258	ten six am
-0.4303258	ten six pm
-0.4303258	ten seven am
-0.4303258	ten seven pm
-0.4303258	ten eight am
-0.4303258	ten eight pm
-0.4303258	ten nine am
-0.4303258	ten nine pm
-0.534521	ten ten am
-0.534521	ten ten pm
-0.534521	ten eleven am
-0.534521	ten eleven pm
-0.534521	ten twelve am
-0.534521	ten twelve pm
-1.770613	ten o one
-1.770613	ten o two
-1.770613	ten o three
-1.770613	ten o four
-1.770613	ten o five
-1.770613	ten o six
-1.770613	ten o seven
-1.770613	ten o eight
-1.770613	ten o nine
-1.771168	ten o ten
-1.771168	ten o eleven
-1.771168	ten o twelve
-1.771857	ten o thirteen
-1.771857	ten o fourteen
-1.771857	ten o fifteen
-1.771857	ten o sixteen
-1.771857	ten o seventeen
-1.771857	ten o eighteen
-1.771857	ten o nineteen
-0.7718575	ten o twenty
-0.7718575	ten o thirty
-0.7718575	ten o forty
-0.7718575	ten o fifty
-1.034027e-05	ten am </s>
-1.034027e-05	ten pm </s>
-0.3087798	ten thirteen am
-0.3087798	ten thirteen pm
-0.3087798	ten fourteen am
-0.3087798	ten fourteen pm
-0.3087798	ten fifteen am
-0.3087798	ten fifteen pm
-0.3087798	ten sixteen am
-0.3087798	ten sixteen pm
-0.3087798	ten seventeen am
-0.3087798	ten seventeen pm
-0.3087798	ten eighteen am
-0.3087798	ten eighteen pm
-0.3087798	ten nineteen am
-0.3087798	ten nineteen pm
-1.002777	ten twenty one
-1.002777	ten twenty two
-1.002777	ten twenty three
-1.002777	ten twenty four
-1.002777	ten twenty five
-1.002777	ten twenty six
-1.002777	ten twenty seven
-1.002777	ten twenty eight
-1.002777	ten twenty nine
-1.30025	ten twenty am
-1.30025	ten twenty pm
-1.002777	ten thirty one
-1.002777	ten thirty two
-1.002777	ten thirty three
-1.002777	ten thirty four
-1.002777	ten thirty five
-1.002777	ten thirty six
-1.002777	ten thirty seven
-1.002777	ten thirty eight
-1.002777	ten thirty nine
-1.30025	ten thirty am
-1.30025	ten thirty pm
-1.002777	ten forty one
-1.002777	ten forty two
-1.002777	ten forty three
-1.002777	ten forty four
-1.002777	ten forty five
-1.002777	ten forty six
-1.002777	ten forty seven
-1.002777	ten forty eight
-1.002777	ten forty nine
-1.30025	ten forty am
-1.30025	ten forty pm
-1.002777	ten fifty one
-1.002777	ten fifty two
-1.002777	ten fifty three
-1.002777	ten fifty four
-1.002777	ten fifty five
-1.002777	ten fifty six
-1.002777	ten fifty seven
-1.002777	ten fifty eight
-1.002777	ten fifty nine
-1.30025	ten fifty am
-1.30025	ten fifty pm
-0.4303258	eleven one am
-0.4303258	eleven one pm
-0.4303258	eleven two am
-0.4303258	eleven two pm
-0.4303258	eleven three am
-0.4303258	eleven three pm
-0.4303258	eleven four am
-0.4303258	eleven four pm
-0.4303258	eleven five am
-0.4303258	eleven five pm
-0.4303258	eleven six am
-0.4303258	eleven six pm
-0.4303258	eleven seven am
-0.4303258	eleven seven pm
-0.4303258	eleven eight am
-0.4303258	eleven eight pm
-0.4303258	eleven nine am
-0.4303258	eleven nine pm
-0.534521	eleven ten am
-0.534521	eleven ten pm
-0.534521	eleven eleven am
-0.534521	eleven eleven pm
-0.534521	eleven twelve am
-0.534521	eleven twelve pm
-1.770613	eleven o one
-1.770613	eleven o two
-1.770613	eleven o three
-1.770613	eleven o four
-1.770613	eleven o five
-1.770613	eleven o six
-1.770613	eleven o seven
-1.770613	eleven o eight
-1.770613	eleven o nine
-1.771168	eleven o ten
-1.771168	eleven o eleven
-1.771168	eleven o twelve
-1.771857	eleven o thirteen
-1.771857	eleven o fourteen
-1.771857	eleven o fifteen
-1.771857	eleven o sixteen
-1.771857	eleven o seventeen
-1.771857	eleven o eighteen
-1.771857	eleven o nineteen
-0.7718575	eleven o twenty
-0.7718575	eleven o thirty
-0.7718575	eleven o forty
-0.7718575	eleven o fifty
-1.034027e-05	eleven am </s>
-1.034027e-05	eleven pm </s>
-0.3087798	eleven thirteen am
-0.3087798	eleven thirteen pm
-0.3087798	eleven fourteen am
-0.3087798	eleven fourteen pm
-0.3087798	eleven fifteen am
-0.3087798	eleven fifteen pm
-0.3087798	eleven sixteen am
-0.3087798	eleven sixteen pm
-0.3087798	eleven seventeen am
-0.3087798	eleven seventeen pm
-0.3087798	eleven eighteen am
-0.3087798	eleven eighteen pm
-0.3087798	eleven nineteen am
-0.3087798	eleven nineteen pm
-1.002777	eleven twenty one
-1.002777	eleven twenty two
-1.002777	eleven twenty three
-1.002777	eleven twenty four
-1.002777	eleven twenty five
-1.002777	eleven twenty six
-1.002777	eleven twenty seven
-1.002777	eleven twenty eight
-1.002777	eleven twenty nine
-1.30025	eleven twenty am
-1.30025	eleven twenty pm
-1.002777	eleven thirty one
-1.002777	eleven thirty two
-1.002777	eleven thirty three
-1.002777	eleven thirty four
-1.002777	eleven thirty five
-1.002777	eleven thirty six
-1.002777	eleven thirty seven
-1.002777	eleven thirty eight
-1.002777	eleven thirty nine
-1.30025	eleven thirty am
-1.30025	eleven thirty pm
-1.002777	eleven forty one
-1.002777	eleven forty two
-1.002777	eleven forty three
-1.002777	eleven forty four
-1.002777	eleven forty five
-1.002777	eleven forty six
-1.002777	eleven forty seven
-1.002777	eleven forty eight
-1.002777	eleven forty nine
-1.30025	eleven forty am
-1.30025	eleven forty pm
-1.002777	eleven fifty one
-1.002777	eleven fifty two
-1.002777	eleven fifty three
-1.002777	eleven fifty four
-1.002777	eleven fifty five
-1.002777	eleven fifty six
-1.002777	eleven fifty seven
-1.002777	eleven fifty eight
-1.002777	eleven fifty nine
-1.30025	eleven fifty am
-1.30025	eleven fifty pm
-0.4303258	twelve one am
-0.4303258	twelve one pm
-0.4303258	twelve two am
-0.4303258	twelve two pm
-0.4303258	twelve three am
-0.4303258	twelve three pm
-0.4303258	twelve four am
-0.4303258	twelve four pm
-0.4303258	twelve five am
-0.4303258	twelve five pm
-0.4303258	twelve six am
-0.4303258	twelve six pm
-0.4303258	twelve seven am
-0.4303258	twelve seven pm
-0.4303258	twelve eight am
-0.4303258	twelve eight pm
-0.4303258	twelve nine am
-0.4303258	twelve nine pm
-0.534521	twelve ten am
-0.534521	twelve ten pm
-0.534521	twelve eleven am
-0.534521	twelve eleven pm
-0.534521	twelve twelve am
-0.534521	twelve twelve pm
-1.770613	twelve o one
-1.770613	twelve o two
-1.770613	twelve o three
-1.770613	twelve o four
-1.770613	twelve o five
-1.770613	twelve o six
-1.770613	twelve o seven
-1.770613	twelve o eight
-1.770613	twelve o nine
-1.771168	twelve o ten
-1.771168	twelve o eleven
-1.771168	twelve o twelve
-1.771857	twelve o thirteen
-1.771857	twelve o fourteen
-1.771857	twelve o fifteen
-1.771857	twelve o sixteen
-1.771857	twelve o seventeen
-1.771857	twelve o eighteen
-1.771857	twelve o nineteen
-0.7718575	twelve o twenty
-0.7718575	twelve o thirty
-0.7718575	twelve o forty
-0.7718575	twelve o fifty
-1.034027e-05	twelve am </s>
-1.034027e-05	twelve pm </s>
-0.3087798	twelve thirteen am
-0.3087798	twelve thirteen pm
-0.3087798	twelve fourteen am
-0.3087798	twelve fourteen pm
-0.3087798	twelve fifteen am
-0.3087798	twelve fifteen pm
-0.3087798	twelve sixteen am
-0.3087798	twelve sixteen pm
-0.3087798	twelve seventeen am
-0.3087798	twelve seventeen pm
-0.3087798	twelve eighteen am
-0.3087798	twelve eighteen pm
-0.3087798	twelve nineteen am
-0.3087798	twelve nineteen pm
-1.002777	twelve twenty one
-1.002777	twelve twenty two
-1.002777	twelve twenty three
-1.002777	twelve twenty four
-1.002777	twelve twenty five
-1.002777	twelve twenty six
-1.002777	twelve twenty seven
-1.002777	twelve twenty eight
-1.002777	twelve twenty nine
-1.30025	twelve twenty am
-1.30025	twelve twenty pm
-1.002777	twelve thirty one
-1.002777	twelve thirty two
-1.002777	twelve thirty three
-1.002777	twelve thirty four
-1.002777	twelve thirty five
-1.002777	twelve thirty six
-1.002777	twelve thirty seven
-1.002777	twelve thirty eight
-1.002777	twelve thirty nine
-1.30025	twelve thirty am
-1.30025	twelve thirty pm
-1.002777	twelve forty one
-1.002777	twelve forty two
-1.002777	twelve forty three
-1.002777	twelve forty four
-1.002777	twelve forty five
-1.002777	twelve forty six
-1.002777	twelve forty seven
-1.002777	twelve forty eight
-1.002777	twelve forty nine
-1.30025	twelve forty am
-1.30025	twelve forty pm
-1.002777	twelve fifty one
-1.002777	twelve fifty two
-1.002777	twelve fifty three
-1.002777	twelve fifty four
-1.002777	twelve fifty five
-1.002777	twelve fifty six
-1.002777	twelve fifty seven
-1.002777	twelve fifty eight
-1.002777	twelve fifty nine
-1.30025	twelve fifty am
-1.30025	twelve fifty pm
-0.3186238	o one am
-0.3186238	o one pm
-0.3186238	o two am
-0.3186238	o two pm
-0.3186238	o three am
-0.3186238	o three pm
-0.3186238	o four am
-0.3186238	o four pm
-0.3186238	o five am
-0.3186238	o five pm
-0.3186238	o six am
-0.3186238	o six pm
-0.3186238	o seven am
-0.3186238	o seven pm
-0.3186238	o eight am
-0.3186238	o eight pm
-0.3186238	o nine am
-0.3186238	o nine pm
-0.3298111	o ten am
-0.3298111	o ten pm
-0.3298111	o eleven am
-0.3298111	o eleven pm
-0.3298111	o twelve am
-0.3298111	o twelve pm
-0.302216	o thirteen am
-0.302216	o thirteen pm
-0.302216	o fourteen am
-0.302216	o fourteen pm
-0.302216	o fifteen am
-0.302216	o fifteen pm
-0.302216	o sixteen am
-0.302216	o sixteen pm
-0.302216	o seventeen am
-0.302216	o seventeen pm
-0.302216	o eighteen am
-0.302216	o eighteen pm
-0.302216	o nineteen am
-0.302216	o nineteen pm
-1.000343	o twenty one
-1.000343	o twenty two
-1.000343	o twenty three
-1.000343	o twenty four
-1.000343	o twenty five
-1.000343	o twenty six
-1.000343	o twenty seven
-1.000343	o twenty eight
-1.000343	o twenty nine
-1.300933	o twenty am
-1.300933	o twenty pm
-1.000343	o thirty one
-1.000343	o thirty two
-1.000343	o thirty three
-1.000343	o thirty four
-1.000343	o thirty five
-1.000343	o thirty six
-1.000343	o thirty seven
-1.000343	o thirty eight
-1.000343	o thirty nine
-1.300933	o thirty am
-1.300933	o thirty pm
-1.000343	o forty one
-1.000343	o forty two
-1.000343	o forty three
-1.000343	o forty four
-1.000343	o forty five
-1.000343	o forty six
-1.000343	o forty seven
-1.000343	o forty eight
-1.000343	o forty nine
-1.300933	o forty am
-1.300933	o forty pm
-1.000343	o fifty one
-1.000343	o fifty two
-1.000343	o fifty three
-1.000343	o fifty four
-1.000343	o fifty five
-1.000343	o fifty six
-1.000343	o fifty seven
-1.000343	o fifty eight
-1.000343	o fifty nine
-1.300933	o fifty am
-1.300933	o fifty pm
-1.07538e-05	thirteen am </s>
-1.07538e-05	thirteen pm </s>
-1.07538e-05	fourteen am </s>
-1.07538e-05	fourteen pm </s>
-1.07538e-05	fifteen am </s>
-1.07538e-05	fifteen pm </s>
-1.07538e-05	sixteen am </s>
-1.07538e-05	sixteen pm </s>
-1.07538e-05	seventeen am </s>
-1.07538e-05	seventeen pm </s>
-1.07538e-05	eighteen am </s>
-1.07538e-05	eighteen pm </s>
-1.07538e-05	nineteen am </s>
-1.07538e-05	nineteen pm </s>
-0.3100916	twenty one am
-0.3100916	twenty one pm
-0.3100916	twenty two am
-0.3100916	twenty two pm
-0.3100916	twenty three am
-0.3100916	twenty three pm
-0.3100916	twenty four am
-0.3100916	twenty four pm
-0.3100916	twenty five am
-0.3100916	twenty five pm
-0.3100916	twenty six am
-0.3100916	twenty six pm
-0.3100916	twenty seven am
-0.3100916	twenty seven pm
-0.3100916	twenty eight am
-0.3100916	twenty eight pm
-0.3100916	twenty nine am
-0.3100916	twenty nine pm
-1.07538e-05	twenty am </s>
-1.07538e-05	twenty pm </s>
-0.3100916	thirty one am
-0.3100916	thirty one pm
-0.3100916	thirty two am
-0.3100916	thirty two pm
-0.3100916	thirty three am
-0.3100916	thirty three pm
-0.3100916	thirty four am
-0.3100916	thirty four pm
-0.3100916	thirty five am
-0.3100916	thirty five pm
-0.3100916	thirty six am
-0.3100916	thirty six pm
-0.3100916	thirty seven am
-0.3100916	thirty seven pm
-0.3100916	thirty eight am
-0.3100916	thirty eight pm
-0.3100916	thirty nine am
-0.3100916	thirty nine pm
-1.07538e-05	thirty am </s>
-1.07538e-05	thirty pm </s>
-0.3100916	forty one am
-0.3100916	forty one pm
-0.3100916	forty two am
-0.3100916	forty two pm
-0.3100916	forty three am
-0.3100916	forty three pm
-0.3100916	forty four am
-0.3100916	forty four pm
-0.3100916	forty five am
-0.3100916	forty five pm
-0.3100916	forty six am
-0.3100916	forty six pm
-0.3100916	forty seven am
-0.3100916	forty seven pm
-0.3100916	forty eight am
-0.3100916	forty eight pm
-0.3100916	forty nine am
-0.3100916	forty nine pm
-1.07538e-05	forty am </s>
-1.07538e-05	forty pm </s>
-0.3100916	fifty one am
-0.3100916	fifty one pm
-0.3100916	fifty two am
-0.3100916	fifty two pm
-0.3100916	fifty three am
-0.3100916	fifty three pm
-0.3100916	fifty four am
-0.3100916	fifty four pm
-0.3100916	fifty five am
-0.3100916	fifty five pm
-0.3100916	fifty six am
-0.3100916	fifty six pm
-0.3100916	fifty seven am
-0.3100916	fifty seven pm
-0.3100916	fifty eight am
-0.3100916	fifty eight pm
-0.3100916	fifty nine am
-0.3100916	fifty nine pm
-1.07538e-05	fifty am </s>
-1.07538e-05	fifty pm </s>
-0.328773	stop alarm </s>
-0.328773	snooze alarm </s>
-0.328773	cancel alarm </s>
-0.07412751	get weather </s>
-0.1311241	play firework katy
-0.1311241	play hello adele
-0.1311241	play happy pharrell
-0.1311241	firework katy perry
-0.131099	hello adele on
-0.1311241	happy pharrell williams
-0.131099	katy perry on
-0.150626	adele on spot
-0.131099	pharrell williams on
-0.150626	perry on spot
-0.150626	williams on spot
-0.02990283	on spot if
-0.02990283	spot if eye
-0.0260702	if eye </s>
-0.2485464	pause the song
-0.2485464	skip the song
-0.241769	rewind the song
-0.241769	restart the song
-0.393476	start over </s>
-0.4287163	start over the
-0.241769	over the song
-0.3294535	turn the light
-0.433817	turn the lights
-0.1893379	light on </s>
-0.07412751	light off </s>
-0.5287406	light to red
-0.5287406	light to green
-0.5287406	light to blue
-0.01113225	light red </s>
-0.01113225	light green </s>
-0.01113225	light blue </s>
-0.1893379	lights on </s>
-0.07412751	lights off </s>
-0.3439159	brighten the light
-0.5164104	brighten the lights
-0.3439159	dim the light
-0.5164104	dim the lights
-0.06984954	make the light
-0.6275913	make light red
-0.6275913	make light green
-0.6275913	make light blue
-0.01869763	to red </s>
-0.01869763	to green </s>
-0.01869763	to blue </s>

\end\
